<?xml version="1.0"?>
<MethodSetup Method="BDT::BDTG">
  <GeneralInfo>
    <Info name="TMVA Release" value="4.2.1 [262657]"/>
    <Info name="ROOT Release" value="6.22/03 [398851]"/>
    <Info name="Creator" value="gianp"/>
    <Info name="Date" value="Tue Sep 15 16:55:02 2020"/>
    <Info name="Host" value="Linux ubuntu 5.4.0-47-generic #51-Ubuntu SMP Fri Sep 4 19:50:52 UTC 2020 x86_64 x86_64 x86_64 GNU/Linux"/>
    <Info name="Dir" value="/home/gianp/Desktop/project"/>
    <Info name="Training events" value="143222"/>
    <Info name="TrainingTime" value="1.14015698e+02"/>
    <Info name="AnalysisType" value="Classification"/>
  </GeneralInfo>
  <Options>
    <Option name="V" modified="Yes">False</Option>
    <Option name="VerbosityLevel" modified="No">Default</Option>
    <Option name="VarTransform" modified="No">None</Option>
    <Option name="H" modified="Yes">False</Option>
    <Option name="CreateMVAPdfs" modified="No">False</Option>
    <Option name="IgnoreNegWeightsInTraining" modified="No">False</Option>
    <Option name="NTrees" modified="Yes">1000</Option>
    <Option name="MaxDepth" modified="Yes">2</Option>
    <Option name="MinNodeSize" modified="Yes">2.5%</Option>
    <Option name="nCuts" modified="Yes">20</Option>
    <Option name="BoostType" modified="Yes">Grad</Option>
    <Option name="AdaBoostR2Loss" modified="No">quadratic</Option>
    <Option name="UseBaggedBoost" modified="Yes">True</Option>
    <Option name="Shrinkage" modified="Yes">1.000000e-01</Option>
    <Option name="AdaBoostBeta" modified="No">5.000000e-01</Option>
    <Option name="UseRandomisedTrees" modified="No">False</Option>
    <Option name="UseNvars" modified="No">4</Option>
    <Option name="UsePoissonNvars" modified="No">True</Option>
    <Option name="BaggedSampleFraction" modified="Yes">5.000000e-01</Option>
    <Option name="UseYesNoLeaf" modified="No">True</Option>
    <Option name="NegWeightTreatment" modified="No">pray</Option>
    <Option name="Css" modified="No">1.000000e+00</Option>
    <Option name="Cts_sb" modified="No">1.000000e+00</Option>
    <Option name="Ctb_ss" modified="No">1.000000e+00</Option>
    <Option name="Cbb" modified="No">1.000000e+00</Option>
    <Option name="NodePurityLimit" modified="No">5.000000e-01</Option>
    <Option name="SeparationType" modified="No">giniindex</Option>
    <Option name="RegressionLossFunctionBDTG" modified="No">huber</Option>
    <Option name="HuberQuantile" modified="No">7.000000e-01</Option>
    <Option name="DoBoostMonitor" modified="No">False</Option>
    <Option name="UseFisherCuts" modified="No">False</Option>
    <Option name="MinLinCorrForFisher" modified="No">8.000000e-01</Option>
    <Option name="UseExclusiveVars" modified="No">False</Option>
    <Option name="DoPreselection" modified="No">False</Option>
    <Option name="SigToBkgFraction" modified="No">1.000000e+00</Option>
    <Option name="PruneMethod" modified="No">nopruning</Option>
    <Option name="PruneStrength" modified="No">0.000000e+00</Option>
    <Option name="PruningValFraction" modified="No">5.000000e-01</Option>
    <Option name="SkipNormalization" modified="No">False</Option>
    <Option name="nEventsMin" modified="No">0</Option>
    <Option name="UseBaggedGrad" modified="No">False</Option>
    <Option name="GradBaggingFraction" modified="No">5.000000e-01</Option>
    <Option name="UseNTrainEvents" modified="No">0</Option>
    <Option name="NNodesMax" modified="No">0</Option>
  </Options>
  <Variables NVar="12">
    <Variable VarIndex="0" Expression="massK0S" Label="massK0S" Title="massK0S" Unit="" Internal="massK0S" Type="F" Min="4.87614065e-01" Max="5.07613659e-01"/>
    <Variable VarIndex="1" Expression="tImpParBach" Label="tImpParBach" Title="tImpParBach" Unit="" Internal="tImpParBach" Type="F" Min="-4.99401093e-01" Max="4.98243898e-01"/>
    <Variable VarIndex="2" Expression="tImpParV0" Label="tImpParV0" Title="tImpParV0" Unit="" Internal="tImpParV0" Type="F" Min="-1.45894420e+00" Max="1.47250414e+00"/>
    <Variable VarIndex="3" Expression="DecayLengthK0S*0.497/v0P" Label="CtK0S" Title="CtK0S" Unit="" Internal="CtK0S" Type="F" Min="2.37996448e-02" Max="1.30137573e+02"/>
    <Variable VarIndex="4" Expression="cosPAK0S" Label="cosPAK0S" Title="cosPAK0S" Unit="" Internal="cosPAK0S" Type="F" Min="9.90006387e-01" Max="1.00000000e+00"/>
    <Variable VarIndex="5" Expression="CosThetaStar" Label="CosThetaStar" Title="CosThetaStar" Unit="" Internal="CosThetaStar" Type="F" Min="-9.99984980e-01" Max="9.99957561e-01"/>
    <Variable VarIndex="6" Expression="nSigmaTOFpr" Label="nSigmaTOFpr" Title="nSigmaTOFpr" Unit="" Internal="nSigmaTOFpr" Type="F" Min="-9.99000000e+02" Max="2.99969077e+00"/>
    <Variable VarIndex="7" Expression="nSigmaTOFpi" Label="nSigmaTOFpi" Title="nSigmaTOFpi" Unit="" Internal="nSigmaTOFpi" Type="F" Min="-9.99000000e+02" Max="8.62229919e+01"/>
    <Variable VarIndex="8" Expression="nSigmaTOFka" Label="nSigmaTOFka" Title="nSigmaTOFka" Unit="" Internal="nSigmaTOFka" Type="F" Min="-9.99000000e+02" Max="5.50780220e+01"/>
    <Variable VarIndex="9" Expression="nSigmaTPCpr" Label="nSigmaTPCpr" Title="nSigmaTPCpr" Unit="" Internal="nSigmaTPCpr" Type="F" Min="-2.99872994e+00" Max="2.99992537e+00"/>
    <Variable VarIndex="10" Expression="nSigmaTPCpi" Label="nSigmaTPCpi" Title="nSigmaTPCpi" Unit="" Internal="nSigmaTPCpi" Type="F" Min="-6.96497679e+00" Max="2.51670151e+01"/>
    <Variable VarIndex="11" Expression="nSigmaTPCka" Label="nSigmaTPCka" Title="nSigmaTPCka" Unit="" Internal="nSigmaTPCka" Type="F" Min="-4.30190372e+00" Max="1.91242943e+01"/>
  </Variables>
  <Spectators NSpec="13">
    <Spectator SpecIndex="0" Expression="massLc2K0Sp" Label="massLc2K0Sp" Title="mass Lc--&gt;K0S+p" Unit="F" Internal="massLc2K0Sp" Type="F" Min="2.08646488e+00" Max="2.48644304e+00"/>
    <Spectator SpecIndex="1" Expression="LcPt" Label="LcPt" Title="Lc Pt" Unit="F" Internal="LcPt" Type="F" Min="6.00000143e+00" Max="7.99995947e+00"/>
    <Spectator SpecIndex="2" Expression="massLc2Lambdapi" Label="massLc2Lambdapi" Title="mass Lc --&gt;L(1520)+pi" Unit="F" Internal="massLc2Lambdapi" Type="F" Min="1.25782299e+00" Max="4.01295424e+00"/>
    <Spectator SpecIndex="3" Expression="massLambda" Label="massLambda" Title="mass V0 = Lambda" Unit="F" Internal="massLambda" Type="F" Min="1.12068903e+00" Max="2.33363891e+00"/>
    <Spectator SpecIndex="4" Expression="massLambdaBar" Label="massLambdaBar" Title="mass V0 = LambdaBar" Unit="F" Internal="massLambdaBar" Type="F" Min="1.12069058e+00" Max="2.35868120e+00"/>
    <Spectator SpecIndex="5" Expression="V0positivePt" Label="V0positivePt" Title="V0 positive Pt" Unit="F" Internal="V0positivePt" Type="F" Min="1.13035627e-01" Max="5.75510502e+00"/>
    <Spectator SpecIndex="6" Expression="V0negativePt" Label="V0negativePt" Title="V0 negative Pt" Unit="F" Internal="V0negativePt" Type="F" Min="1.16287991e-01" Max="5.69910669e+00"/>
    <Spectator SpecIndex="7" Expression="dcaV0pos" Label="dcaV0pos" Title="dca V0 positive" Unit="F" Internal="dcaV0pos" Type="F" Min="5.00008799e-02" Max="6.25232048e+01"/>
    <Spectator SpecIndex="8" Expression="dcaV0neg" Label="dcaV0neg" Title="dca V0 negative" Unit="F" Internal="dcaV0neg" Type="F" Min="5.00005670e-02" Max="3.83389015e+01"/>
    <Spectator SpecIndex="9" Expression="v0Pt" Label="v0Pt" Title="K0S Pt" Unit="F" Internal="v0Pt" Type="F" Min="3.00062746e-01" Max="6.88880110e+00"/>
    <Spectator SpecIndex="10" Expression="dcaV0" Label="dcaV0" Title="dca V0" Unit="F" Internal="dcaV0" Type="F" Min="5.79554467e-07" Max="1.49904132e+00"/>
    <Spectator SpecIndex="11" Expression="V0positiveEta" Label="V0positiveEta" Title="V0pos Eta" Unit="F" Internal="V0positiveEta" Type="F" Min="-7.99970627e-01" Max="7.99933553e-01"/>
    <Spectator SpecIndex="12" Expression="bachelorEta" Label="bachelorEta" Title="eta bachelor" Unit="F" Internal="bachelorEta" Type="F" Min="-7.99976051e-01" Max="7.99995720e-01"/>
  </Spectators>
  <Classes NClass="2">
    <Class Name="Signal" Index="0"/>
    <Class Name="Background" Index="1"/>
  </Classes>
  <Transformations NTransformations="0"/>
  <MVAPdfs/>
  <Weights NTrees="1000" AnalysisType="1">
    <BinaryTree type="DecisionTree" boostWeight="1.0000000000000000e+00" itree="0">
      <Node pos="s" depth="0" NCoef="0" IVar="10" Cut="-2.0722818374633789e+00" cType="1" res="9.7199564334005117e-04" rms="4.9999904632568359e-01" purity="5.0097197294235229e-01" nType="0">
        <Node pos="l" depth="1" NCoef="0" IVar="5" Cut="7.1683108806610107e-01" cType="1" res="1.3672913610935211e-01" rms="4.8094192147254944e-01" purity="6.3672912120819092e-01" nType="0">
          <Node pos="l" depth="2" NCoef="0" IVar="-1" Cut="0.0000000000000000e+00" cType="1" res="3.8552109152078629e-02" rms="4.6134951710700989e-01" purity="6.9276052713394165e-01" nType="-99"/>
          <Node pos="r" depth="2" NCoef="0" IVar="-1" Cut="0.0000000000000000e+00" cType="1" res="-3.2354328781366348e-02" rms="4.7310668230056763e-01" purity="3.3822834491729736e-01" nType="-99"/>
        </Node>
        <Node pos="r" depth="1" NCoef="0" IVar="8" Cut="4.0690183639526367e+00" cType="1" res="-1.6619601845741272e-01" rms="4.7157067060470581e-01" purity="3.3380398154258728e-01" nType="0">
          <Node pos="l" depth="2" NCoef="0" IVar="-1" Cut="0.0000000000000000e+00" cType="1" res="-5.4773077368736267e-02" rms="4.1832733154296875e-01" purity="2.2613462805747986e-01" nType="-99"/>
          <Node pos="r" depth="2" NCoef="0" IVar="-1" Cut="0.0000000000000000e+00" cType="1" res="2.3677982389926910e-02" rms="4.8578166961669922e-01" purity="6.1838990449905396e-01" nType="-99"/>
        </Node>
      </Node>
    </BinaryTree>
    <BinaryTree type="DecisionTree" boostWeight="1.0000000000000000e+00" itree="1">
      <Node pos="s" depth="0" NCoef="0" IVar="10" Cut="-1.9956840276718140e+00" cType="1" res="4.3519592145457864e-04" rms="4.9159765243530273e-01" purity="5.0071984529495239e-01" nType="0">
        <Node pos="l" depth="1" NCoef="0" IVar="5" Cut="6.2067121267318726e-01" cType="1" res="1.1714383959770203e-01" rms="4.7942554950714111e-01" purity="6.3011330366134644e-01" nType="0">
          <Node pos="l" depth="2" NCoef="0" IVar="-1" Cut="0.0000000000000000e+00" cType="1" res="3.5023275762796402e-02" rms="4.6075853705406189e-01" purity="6.9321000576019287e-01" nType="-99"/>
          <Node pos="r" depth="2" NCoef="0" IVar="-1" Cut="0.0000000000000000e+00" cType="1" res="-1.8859283998608589e-02" rms="4.8709639906883240e-01" purity="3.9905601739883423e-01" nType="-99"/>
        </Node>
        <Node pos="r" depth="1" NCoef="0" IVar="8" Cut="4.8838305473327637e+00" cType="1" res="-1.5137347579002380e-01" rms="4.6505814790725708e-01" purity="3.3241131901741028e-01" nType="0">
          <Node pos="l" depth="2" NCoef="0" IVar="-1" Cut="0.0000000000000000e+00" cType="1" res="-4.8372026532888412e-02" rms="4.2158177495002747e-01" purity="2.3193904757499695e-01" nType="-99"/>
          <Node pos="r" depth="2" NCoef="0" IVar="-1" Cut="0.0000000000000000e+00" cType="1" res="1.6789939254522324e-02" rms="4.9074837565422058e-01" purity="5.9573942422866821e-01" nType="-99"/>
        </Node>
      </Node>
    </BinaryTree>
    <BinaryTree type="DecisionTree" boostWeight="1.0000000000000000e+00" itree="2">
      <Node pos="s" depth="0" NCoef="0" IVar="10" Cut="-2.1789958477020264e+00" cType="1" res="-2.4746209383010864e-03" rms="4.8488512635231018e-01" purity="4.9774849414825439e-01" nType="0">
        <Node pos="l" depth="1" NCoef="0" IVar="5" Cut="5.2418458461761475e-01" cType="1" res="1.1142543703317642e-01" rms="4.7511446475982666e-01" purity="6.3663327693939209e-01" nType="0">
          <Node pos="l" depth="2" NCoef="0" IVar="-1" Cut="0.0000000000000000e+00" cType="1" res="3.5904586315155029e-02" rms="4.5128285884857178e-01" purity="7.1527606248855591e-01" nType="-99"/>
          <Node pos="r" depth="2" NCoef="0" IVar="-1" Cut="0.0000000000000000e+00" cType="1" res="-1.2522735632956028e-02" rms="4.9093177914619446e-01" purity="4.3294441699981689e-01" nType="-99"/>
        </Node>
        <Node pos="r" depth="1" NCoef="0" IVar="8" Cut="4.8838305473327637e+00" cType="1" res="-1.3129474222660065e-01" rms="4.6309271454811096e-01" purity="3.4067073464393616e-01" nType="0">
          <Node pos="l" depth="2" NCoef="0" IVar="-1" Cut="0.0000000000000000e+00" cType="1" res="-4.2545281350612640e-02" rms="4.2660704255104065e-01" purity="2.4306192994117737e-01" nType="-99"/>
          <Node pos="r" depth="2" NCoef="0" IVar="-1" Cut="0.0000000000000000e+00" cType="1" res="1.6281595453619957e-02" rms="4.8927786946296692e-01" purity="6.0221278667449951e-01" nType="-99"/>
        </Node>
      </Node>
    </BinaryTree>
    <BinaryTree type="DecisionTree" boostWeight="1.0000000000000000e+00" itree="3">
      <Node pos="s" depth="0" NCoef="0" IVar="10" Cut="-1.6040942668914795e+00" cType="1" res="-2.9599206754937768e-04" rms="4.7966569662094116e-01" purity="5.0047463178634644e-01" nType="0">
        <Node pos="l" depth="1" NCoef="0" IVar="5" Cut="6.1991256475448608e-01" cType="1" res="8.5409060120582581e-02" rms="4.7632777690887451e-01" purity="6.1188220977783203e-01" nType="0">
          <Node pos="l" depth="2" NCoef="0" IVar="-1" Cut="0.0000000000000000e+00" cType="1" res="2.6907082647085190e-02" rms="4.6366208791732788e-01" purity="6.7305260896682739e-01" nType="-99"/>
          <Node pos="r" depth="2" NCoef="0" IVar="-1" Cut="0.0000000000000000e+00" cType="1" res="-2.0149586722254753e-02" rms="4.7957211732864380e-01" purity="3.7330448627471924e-01" nType="-99"/>
        </Node>
        <Node pos="r" depth="1" NCoef="0" IVar="8" Cut="4.8838305473327637e+00" cType="1" res="-1.4693212509155273e-01" rms="4.4885322451591492e-01" purity="3.0986291170120239e-01" nType="0">
          <Node pos="l" depth="2" NCoef="0" IVar="-1" Cut="0.0000000000000000e+00" cType="1" res="-4.4456508010625839e-02" rms="4.0717241168022156e-01" purity="2.1027667820453644e-01" nType="-99"/>
          <Node pos="r" depth="2" NCoef="0" IVar="-1" Cut="0.0000000000000000e+00" cType="1" res="5.6956857442855835e-03" rms="4.9677112698554993e-01" purity="5.5673122406005859e-01" nType="-99"/>
        </Node>
      </Node>
    </BinaryTree>
    <BinaryTree type="DecisionTree" boostWeight="1.0000000000000000e+00" itree="4">
      <Node pos="s" depth="0" NCoef="0" IVar="11" Cut="-4.6545211225748062e-03" cType="1" res="9.3773141270503402e-04" rms="4.7495391964912415e-01" purity="5.0124478340148926e-01" nType="0">
        <Node pos="l" depth="1" NCoef="0" IVar="5" Cut="8.0956804752349854e-01" cType="1" res="1.0556860268115997e-01" rms="4.6739518642425537e-01" purity="6.4667361974716187e-01" nType="0">
          <Node pos="l" depth="2" NCoef="0" IVar="-1" Cut="0.0000000000000000e+00" cType="1" res="2.6505952700972557e-02" rms="4.6028116345405579e-01" purity="6.8023610115051270e-01" nType="-99"/>
          <Node pos="r" depth="2" NCoef="0" IVar="-1" Cut="0.0000000000000000e+00" cType="1" res="-2.7050806209445000e-02" rms="4.6751537919044495e-01" purity="3.2323300838470459e-01" nType="-99"/>
        </Node>
        <Node pos="r" depth="1" NCoef="0" IVar="8" Cut="4.0690183639526367e+00" cType="1" res="-1.0025837272405624e-01" rms="4.6004506945610046e-01" purity="3.6058998107910156e-01" nType="0">
          <Node pos="l" depth="2" NCoef="0" IVar="-1" Cut="0.0000000000000000e+00" cType="1" res="-3.4981641918420792e-02" rms="4.3051296472549438e-01" purity="2.6341846585273743e-01" nType="-99"/>
          <Node pos="r" depth="2" NCoef="0" IVar="-1" Cut="0.0000000000000000e+00" cType="1" res="1.7393641173839569e-02" rms="4.8407751321792603e-01" purity="6.2125462293624878e-01" nType="-99"/>
        </Node>
      </Node>
    </BinaryTree>
    <BinaryTree type="DecisionTree" boostWeight="1.0000000000000000e+00" itree="5">
      <Node pos="s" depth="0" NCoef="0" IVar="5" Cut="-7.1427887678146362e-01" cType="1" res="3.1555184978060424e-04" rms="4.7122904658317566e-01" purity="5.0076657533645630e-01" nType="0">
        <Node pos="l" depth="1" NCoef="0" IVar="9" Cut="-1.2842540740966797e+00" cType="1" res="-1.4803896844387054e-01" rms="4.3972003459930420e-01" purity="2.9748865962028503e-01" nType="0">
          <Node pos="l" depth="2" NCoef="0" IVar="-1" Cut="0.0000000000000000e+00" cType="1" res="-6.5478064119815826e-02" rms="3.0336740612983704e-01" purity="1.1718595027923584e-01" nType="-99"/>
          <Node pos="r" depth="2" NCoef="0" IVar="-1" Cut="0.0000000000000000e+00" cType="1" res="-1.9356070086359978e-02" rms="4.6303510665893555e-01" purity="3.5633006691932678e-01" nType="-99"/>
        </Node>
        <Node pos="r" depth="1" NCoef="0" IVar="9" Cut="1.5710361003875732e+00" cType="1" res="5.9600189328193665e-02" rms="4.7033730149269104e-01" purity="5.8199936151504517e-01" nType="0">
          <Node pos="l" depth="2" NCoef="0" IVar="-1" Cut="0.0000000000000000e+00" cType="1" res="2.0906612277030945e-02" rms="4.6664080023765564e-01" purity="6.4048576354980469e-01" nType="-99"/>
          <Node pos="r" depth="2" NCoef="0" IVar="-1" Cut="0.0000000000000000e+00" cType="1" res="-3.9763379842042923e-02" rms="4.0904033184051514e-01" purity="2.3714822530746460e-01" nType="-99"/>
        </Node>
      </Node>
    </BinaryTree>
    <BinaryTree type="DecisionTree" boostWeight="1.0000000000000000e+00" itree="6">
      <Node pos="s" depth="0" NCoef="0" IVar="8" Cut="3.5640969872474670e-01" cType="1" res="3.9151660166680813e-03" rms="4.6663311123847961e-01" purity="5.0407272577285767e-01" nType="0">
        <Node pos="l" depth="1" NCoef="0" IVar="11" Cut="-9.4917076826095581e-01" cType="1" res="-9.4593554735183716e-02" rms="4.5000946521759033e-01" purity="3.6619615554809570e-01" nType="0">
          <Node pos="l" depth="2" NCoef="0" IVar="-1" Cut="0.0000000000000000e+00" cType="1" res="1.7833104357123375e-02" rms="4.6635320782661438e-01" purity="6.4460170269012451e-01" nType="-99"/>
          <Node pos="r" depth="2" NCoef="0" IVar="-1" Cut="0.0000000000000000e+00" cType="1" res="-2.9380457475781441e-02" rms="4.3400469422340393e-01" purity="2.9618626832962036e-01" nType="-99"/>
        </Node>
        <Node pos="r" depth="1" NCoef="0" IVar="5" Cut="7.1425235271453857e-01" cType="1" res="1.1871140450239182e-01" rms="4.5936614274978638e-01" purity="6.6474592685699463e-01" nType="0">
          <Node pos="l" depth="2" NCoef="0" IVar="-1" Cut="0.0000000000000000e+00" cType="1" res="2.9030891135334969e-02" rms="4.5121505856513977e-01" purity="6.9925898313522339e-01" nType="-99"/>
          <Node pos="r" depth="2" NCoef="0" IVar="-1" Cut="0.0000000000000000e+00" cType="1" res="-1.4046681113541126e-02" rms="4.8081690073013306e-01" purity="3.8594037294387817e-01" nType="-99"/>
        </Node>
      </Node>
    </BinaryTree>
    <BinaryTree type="DecisionTree" boostWeight="1.0000000000000000e+00" itree="7">
      <Node pos="s" depth="0" NCoef="0" IVar="11" Cut="-1.8862897157669067e-01" cType="1" res="4.7895284369587898e-03" rms="4.6303024888038635e-01" purity="5.0522315502166748e-01" nType="0">
        <Node pos="l" depth="1" NCoef="0" IVar="5" Cut="8.0965125560760498e-01" cType="1" res="9.4802960753440857e-02" rms="4.5793509483337402e-01" purity="6.6072225570678711e-01" nType="0">
          <Node pos="l" depth="2" NCoef="0" IVar="-1" Cut="0.0000000000000000e+00" cType="1" res="2.4867609143257141e-02" rms="4.4982844591140747e-01" purity="6.9954490661621094e-01" nType="-99"/>
          <Node pos="r" depth="2" NCoef="0" IVar="-1" Cut="0.0000000000000000e+00" cType="1" res="-2.5540694594383240e-02" rms="4.6779659390449524e-01" purity="3.2456961274147034e-01" nType="-99"/>
        </Node>
        <Node pos="r" depth="1" NCoef="0" IVar="8" Cut="4.0690183639526367e+00" cType="1" res="-6.8905383348464966e-02" rms="4.5406422019004822e-01" purity="3.7791448831558228e-01" nType="0">
          <Node pos="l" depth="2" NCoef="0" IVar="-1" Cut="0.0000000000000000e+00" cType="1" res="-2.5809496641159058e-02" rms="4.3246802687644958e-01" purity="2.8531521558761597e-01" nType="-99"/>
          <Node pos="r" depth="2" NCoef="0" IVar="-1" Cut="0.0000000000000000e+00" cType="1" res="1.5470429323613644e-02" rms="4.7957465052604675e-01" purity="6.3204276561737061e-01" nType="-99"/>
        </Node>
      </Node>
    </BinaryTree>
    <BinaryTree type="DecisionTree" boostWeight="1.0000000000000000e+00" itree="8">
      <Node pos="s" depth="0" NCoef="0" IVar="10" Cut="-1.1704897880554199e+00" cType="1" res="1.1098760878667235e-03" rms="4.6121892333030701e-01" purity="5.0246953964233398e-01" nType="0">
        <Node pos="l" depth="1" NCoef="0" IVar="5" Cut="5.2373570203781128e-01" cType="1" res="5.0769347697496414e-02" rms="4.6510779857635498e-01" purity="5.9306704998016357e-01" nType="0">
          <Node pos="l" depth="2" NCoef="0" IVar="-1" Cut="0.0000000000000000e+00" cType="1" res="2.0076688379049301e-02" rms="4.5493340492248535e-01" purity="6.5995931625366211e-01" nType="-99"/>
          <Node pos="r" depth="2" NCoef="0" IVar="-1" Cut="0.0000000000000000e+00" cType="1" res="-1.7076885327696800e-02" rms="4.6893537044525146e-01" purity="3.9508315920829773e-01" nType="-99"/>
        </Node>
        <Node pos="r" depth="1" NCoef="0" IVar="8" Cut="4.0690183639526367e+00" cType="1" res="-1.0816647857427597e-01" rms="4.3292948603630066e-01" purity="3.0310833454132080e-01" nType="0">
          <Node pos="l" depth="2" NCoef="0" IVar="-1" Cut="0.0000000000000000e+00" cType="1" res="-3.4406948834657669e-02" rms="3.9323580265045166e-01" purity="1.9474923610687256e-01" nType="-99"/>
          <Node pos="r" depth="2" NCoef="0" IVar="-1" Cut="0.0000000000000000e+00" cType="1" res="1.3265199959278107e-03" rms="4.9609550833702087e-01" purity="5.5892205238342285e-01" nType="-99"/>
        </Node>
      </Node>
    </BinaryTree>
    <BinaryTree type="DecisionTree" boostWeight="1.0000000000000000e+00" itree="9">
      <Node pos="s" depth="0" NCoef="0" IVar="8" Cut="1.6618535518646240e+00" cType="1" res="2.8985473909415305e-04" rms="4.5846250653266907e-01" purity="5.0117588043212891e-01" nType="0">
        <Node pos="l" depth="1" NCoef="0" IVar="10" Cut="-2.8779077529907227e+00" cType="1" res="-6.4360342919826508e-02" rms="4.4976732134819031e-01" purity="3.9105278253555298e-01" nType="0">
          <Node pos="l" depth="2" NCoef="0" IVar="-1" Cut="0.0000000000000000e+00" cType="1" res="8.9631937444210052e-03" rms="4.7291278839111328e-01" purity="6.0925501585006714e-01" nType="-99"/>
          <Node pos="r" depth="2" NCoef="0" IVar="-1" Cut="0.0000000000000000e+00" cType="1" res="-2.6895884424448013e-02" rms="4.2470932006835938e-01" purity="2.6954266428947449e-01" nType="-99"/>
        </Node>
        <Node pos="r" depth="1" NCoef="0" IVar="5" Cut="-8.0950886011123657e-01" cType="1" res="1.1208350956439972e-01" rms="4.5179477334022522e-01" purity="6.9160175323486328e-01" nType="0">
          <Node pos="l" depth="2" NCoef="0" IVar="-1" Cut="0.0000000000000000e+00" cType="1" res="-1.1671639978885651e-02" rms="5.0003856420516968e-01" purity="4.9506825208663940e-01" nType="-99"/>
          <Node pos="r" depth="2" NCoef="0" IVar="-1" Cut="0.0000000000000000e+00" cType="1" res="3.0970800668001175e-02" rms="4.3248969316482544e-01" purity="7.3310881853103638e-01" nType="-99"/>
        </Node>
      </Node>
    </BinaryTree>
    <BinaryTree type="DecisionTree" boostWeight="1.0000000000000000e+00" itree="10">
      <Node pos="s" depth="0" NCoef="0" IVar="8" Cut="2.0890996456146240e+00" cType="1" res="-4.8076133243739605e-03" rms="4.5565232634544373e-01" purity="4.9617403745651245e-01" nType="0">
        <Node pos="l" depth="1" NCoef="0" IVar="10" Cut="-3.2628941535949707e+00" cType="1" res="-5.8066066354513168e-02" rms="4.4862797856330872e-01" purity="3.9755859971046448e-01" nType="0">
          <Node pos="l" depth="2" NCoef="0" IVar="-1" Cut="0.0000000000000000e+00" cType="1" res="1.2987689115107059e-02" rms="4.6581795811653137e-01" purity="6.3703298568725586e-01" nType="-99"/>
          <Node pos="r" depth="2" NCoef="0" IVar="-1" Cut="0.0000000000000000e+00" cType="1" res="-2.3264246061444283e-02" rms="4.3193092942237854e-01" purity="2.9993623495101929e-01" nType="-99"/>
        </Node>
        <Node pos="r" depth="1" NCoef="0" IVar="5" Cut="-7.1427381038665771e-01" cType="1" res="1.0226798802614212e-01" rms="4.5080122351646423e-01" purity="6.9443958997726440e-01" nType="0">
          <Node pos="l" depth="2" NCoef="0" IVar="-1" Cut="0.0000000000000000e+00" cType="1" res="-4.6832454390823841e-03" rms="4.9797689914703369e-01" purity="5.3307884931564331e-01" nType="-99"/>
          <Node pos="r" depth="2" NCoef="0" IVar="-1" Cut="0.0000000000000000e+00" cType="1" res="3.1680125743150711e-02" rms="4.2247843742370605e-01" purity="7.5460690259933472e-01" nType="-99"/>
        </Node>
      </Node>
    </BinaryTree>
    <BinaryTree type="DecisionTree" boostWeight="1.0000000000000000e+00" itree="11">
      <Node pos="s" depth="0" NCoef="0" IVar="5" Cut="-8.0949807167053223e-01" cType="1" res="-4.2779641225934029e-03" rms="4.5303842425346375e-01" purity="4.9560102820396423e-01" nType="0">
        <Node pos="l" depth="1" NCoef="0" IVar="9" Cut="-1.0023802518844604e+00" cType="1" res="-1.2635745108127594e-01" rms="4.1665068268775940e-01" purity="2.6137897372245789e-01" nType="0">
          <Node pos="l" depth="2" NCoef="0" IVar="-1" Cut="0.0000000000000000e+00" cType="1" res="-5.2774481475353241e-02" rms="3.0067342519760132e-01" purity="1.2002735584974289e-01" nType="-99"/>
          <Node pos="r" depth="2" NCoef="0" IVar="-1" Cut="0.0000000000000000e+00" cType="1" res="-1.4186929911375046e-02" rms="4.6031758189201355e-01" purity="3.4378626942634583e-01" nType="-99"/>
        </Node>
        <Node pos="r" depth="1" NCoef="0" IVar="9" Cut="1.5736318826675415e+00" cType="1" res="2.8850104659795761e-02" rms="4.5682567358016968e-01" purity="5.5916064977645874e-01" nType="0">
          <Node pos="l" depth="2" NCoef="0" IVar="-1" Cut="0.0000000000000000e+00" cType="1" res="1.2460260652005672e-02" rms="4.6092683076858521e-01" purity="6.1534583568572998e-01" nType="-99"/>
          <Node pos="r" depth="2" NCoef="0" IVar="-1" Cut="0.0000000000000000e+00" cType="1" res="-3.2735794782638550e-02" rms="3.8657295703887939e-01" purity="2.2532601654529572e-01" nType="-99"/>
        </Node>
      </Node>
    </BinaryTree>
    <BinaryTree type="DecisionTree" boostWeight="1.0000000000000000e+00" itree="12">
      <Node pos="s" depth="0" NCoef="0" IVar="8" Cut="2.0890996456146240e+00" cType="1" res="2.6199968997389078e-03" rms="4.5152065157890320e-01" purity="5.0268214941024780e-01" nType="0">
        <Node pos="l" depth="1" NCoef="0" IVar="10" Cut="-3.4265601634979248e+00" cType="1" res="-4.3403141200542450e-02" rms="4.4685959815979004e-01" purity="4.0481615066528320e-01" nType="0">
          <Node pos="l" depth="2" NCoef="0" IVar="-1" Cut="0.0000000000000000e+00" cType="1" res="1.3513875193893909e-02" rms="4.6035993099212646e-01" purity="6.5019577741622925e-01" nType="-99"/>
          <Node pos="r" depth="2" NCoef="0" IVar="-1" Cut="0.0000000000000000e+00" cType="1" res="-1.7527719959616661e-02" rms="4.3635797500610352e-01" purity="3.2265353202819824e-01" nType="-99"/>
        </Node>
        <Node pos="r" depth="1" NCoef="0" IVar="5" Cut="-7.1448451280593872e-01" cType="1" res="9.4779714941978455e-02" rms="4.4667789340019226e-01" purity="6.9865542650222778e-01" nType="0">
          <Node pos="l" depth="2" NCoef="0" IVar="-1" Cut="0.0000000000000000e+00" cType="1" res="-1.5496531268581748e-03" rms="4.9661415815353394e-01" purity="5.4135167598724365e-01" nType="-99"/>
          <Node pos="r" depth="2" NCoef="0" IVar="-1" Cut="0.0000000000000000e+00" cType="1" res="2.8921578079462051e-02" rms="4.1993659734725952e-01" purity="7.5788474082946777e-01" nType="-99"/>
        </Node>
      </Node>
    </BinaryTree>
    <BinaryTree type="DecisionTree" boostWeight="1.0000000000000000e+00" itree="13">
      <Node pos="s" depth="0" NCoef="0" IVar="5" Cut="-7.1435916423797607e-01" cType="1" res="-3.4506316296756268e-03" rms="4.4961780309677124e-01" purity="4.9730879068374634e-01" nType="0">
        <Node pos="l" depth="1" NCoef="0" IVar="9" Cut="-1.2871810197830200e+00" cType="1" res="-8.9126743376255035e-02" rms="4.2793431878089905e-01" purity="2.9614642262458801e-01" nType="0">
          <Node pos="l" depth="2" NCoef="0" IVar="-1" Cut="0.0000000000000000e+00" cType="1" res="-5.0460439175367355e-02" rms="2.9649454355239868e-01" purity="1.2172598391771317e-01" nType="-99"/>
          <Node pos="r" depth="2" NCoef="0" IVar="-1" Cut="0.0000000000000000e+00" cType="1" res="-1.0579256340861320e-02" rms="4.5599105954170227e-01" purity="3.5408490896224976e-01" nType="-99"/>
        </Node>
        <Node pos="r" depth="1" NCoef="0" IVar="5" Cut="6.7293977737426758e-01" cType="1" res="3.1879063695669174e-02" rms="4.5357212424278259e-01" purity="5.8026069402694702e-01" nType="0">
          <Node pos="l" depth="2" NCoef="0" IVar="-1" Cut="0.0000000000000000e+00" cType="1" res="1.3331400230526924e-02" rms="4.4909223914146423e-01" purity="6.3174659013748169e-01" nType="-99"/>
          <Node pos="r" depth="2" NCoef="0" IVar="-1" Cut="0.0000000000000000e+00" cType="1" res="-2.3943996056914330e-02" rms="4.4708436727523804e-01" purity="3.2392880320549011e-01" nType="-99"/>
        </Node>
      </Node>
    </BinaryTree>
    <BinaryTree type="DecisionTree" boostWeight="1.0000000000000000e+00" itree="14">
      <Node pos="s" depth="0" NCoef="0" IVar="5" Cut="-7.1425408124923706e-01" cType="1" res="7.6056091347709298e-04" rms="4.4868075847625732e-01" purity="5.0196444988250732e-01" nType="0">
        <Node pos="l" depth="1" NCoef="0" IVar="9" Cut="-1.5727595090866089e+00" cType="1" res="-7.9170897603034973e-02" rms="4.3004438281059265e-01" purity="2.9958122968673706e-01" nType="0">
          <Node pos="l" depth="2" NCoef="0" IVar="-1" Cut="0.0000000000000000e+00" cType="1" res="-5.4123558104038239e-02" rms="2.6154530048370361e-01" purity="8.9803278446197510e-02" nType="-99"/>
          <Node pos="r" depth="2" NCoef="0" IVar="-1" Cut="0.0000000000000000e+00" cType="1" res="-1.0447541251778603e-02" rms="4.5382559299468994e-01" purity="3.4750670194625854e-01" nType="-99"/>
        </Node>
        <Node pos="r" depth="1" NCoef="0" IVar="9" Cut="1.2879774570465088e+00" cType="1" res="3.2558627426624298e-02" rms="4.5196944475173950e-01" purity="5.8247584104537964e-01" nType="0">
          <Node pos="l" depth="2" NCoef="0" IVar="-1" Cut="0.0000000000000000e+00" cType="1" res="1.4362183399498463e-02" rms="4.5512080192565918e-01" purity="6.5647250413894653e-01" nType="-99"/>
          <Node pos="r" depth="2" NCoef="0" IVar="-1" Cut="0.0000000000000000e+00" cType="1" res="-2.2607918828725815e-02" rms="4.1251012682914734e-01" purity="2.9012182354927063e-01" nType="-99"/>
        </Node>
      </Node>
    </BinaryTree>
    <BinaryTree type="DecisionTree" boostWeight="1.0000000000000000e+00" itree="15">
      <Node pos="s" depth="0" NCoef="0" IVar="8" Cut="5.3297203779220581e-01" cType="1" res="2.3358478210866451e-03" rms="4.4758924841880798e-01" purity="5.0359392166137695e-01" nType="0">
        <Node pos="l" depth="1" NCoef="0" IVar="6" Cut="-9.5142675781250000e+02" cType="1" res="-5.0460025668144226e-02" rms="4.3707695603370667e-01" purity="3.7059497833251953e-01" nType="0">
          <Node pos="l" depth="2" NCoef="0" IVar="-1" Cut="0.0000000000000000e+00" cType="1" res="-6.2088579870760441e-03" rms="4.3854716420173645e-01" purity="3.9027631282806396e-01" nType="-99"/>
          <Node pos="r" depth="2" NCoef="0" IVar="-1" Cut="0.0000000000000000e+00" cType="1" res="-4.9723111093044281e-02" rms="3.7994328141212463e-01" purity="2.1655896306037903e-01" nType="-99"/>
        </Node>
        <Node pos="r" depth="1" NCoef="0" IVar="5" Cut="7.1303498744964600e-01" cType="1" res="6.6077753901481628e-02" rms="4.5181390643119812e-01" purity="6.6416716575622559e-01" nType="0">
          <Node pos="l" depth="2" NCoef="0" IVar="-1" Cut="0.0000000000000000e+00" cType="1" res="1.7151556909084320e-02" rms="4.4716358184814453e-01" purity="6.9488948583602905e-01" nType="-99"/>
          <Node pos="r" depth="2" NCoef="0" IVar="-1" Cut="0.0000000000000000e+00" cType="1" res="-9.7080301493406296e-03" rms="4.7592860460281372e-01" purity="3.9486643671989441e-01" nType="-99"/>
        </Node>
      </Node>
    </BinaryTree>
    <BinaryTree type="DecisionTree" boostWeight="1.0000000000000000e+00" itree="16">
      <Node pos="s" depth="0" NCoef="0" IVar="8" Cut="2.0890996456146240e+00" cType="1" res="-9.7125588217750192e-04" rms="4.4458484649658203e-01" purity="4.9886921048164368e-01" nType="0">
        <Node pos="l" depth="1" NCoef="0" IVar="9" Cut="1.2853351831436157e+00" cType="1" res="-3.7456408143043518e-02" rms="4.3971085548400879e-01" purity="3.9978599548339844e-01" nType="0">
          <Node pos="l" depth="2" NCoef="0" IVar="-1" Cut="0.0000000000000000e+00" cType="1" res="-2.2706524468958378e-03" rms="4.5057773590087891e-01" purity="4.5440226793289185e-01" nType="-99"/>
          <Node pos="r" depth="2" NCoef="0" IVar="-1" Cut="0.0000000000000000e+00" cType="1" res="-3.2783053815364838e-02" rms="3.7750670313835144e-01" purity="1.9034920632839203e-01" nType="-99"/>
        </Node>
        <Node pos="r" depth="1" NCoef="0" IVar="5" Cut="-9.0474396944046021e-01" cType="1" res="7.1335196495056152e-02" rms="4.4534376263618469e-01" purity="6.9523298740386963e-01" nType="0">
          <Node pos="l" depth="2" NCoef="0" IVar="-1" Cut="0.0000000000000000e+00" cType="1" res="-1.9022636115550995e-02" rms="4.9510255455970764e-01" purity="4.3258744478225708e-01" nType="-99"/>
          <Node pos="r" depth="2" NCoef="0" IVar="-1" Cut="0.0000000000000000e+00" cType="1" res="2.0071012899279594e-02" rms="4.3504506349563599e-01" purity="7.2593373060226440e-01" nType="-99"/>
        </Node>
      </Node>
    </BinaryTree>
    <BinaryTree type="DecisionTree" boostWeight="1.0000000000000000e+00" itree="17">
      <Node pos="s" depth="0" NCoef="0" IVar="9" Cut="2.1423432826995850e+00" cType="1" res="-1.6931181307882071e-03" rms="4.4434466958045959e-01" purity="4.9817419052124023e-01" nType="0">
        <Node pos="l" depth="1" NCoef="0" IVar="5" Cut="-7.1427512168884277e-01" cType="1" res="9.0224249288439751e-03" rms="4.4934099912643433e-01" purity="5.2099496126174927e-01" nType="0">
          <Node pos="l" depth="2" NCoef="0" IVar="-1" Cut="0.0000000000000000e+00" cType="1" res="-1.5491038560867310e-02" rms="4.2839047312736511e-01" purity="3.0190175771713257e-01" nType="-99"/>
          <Node pos="r" depth="2" NCoef="0" IVar="-1" Cut="0.0000000000000000e+00" cType="1" res="8.9380629360675812e-03" rms="4.5407113432884216e-01" purity="6.1286240816116333e-01" nType="-99"/>
        </Node>
        <Node pos="r" depth="1" NCoef="0" IVar="-1" Cut="0.0000000000000000e+00" cType="1" res="-4.3099898844957352e-02" rms="3.0326935648918152e-01" purity="1.2534925341606140e-01" nType="-99"/>
      </Node>
    </BinaryTree>
    <BinaryTree type="DecisionTree" boostWeight="1.0000000000000000e+00" itree="18">
      <Node pos="s" depth="0" NCoef="0" IVar="8" Cut="2.0890996456146240e+00" cType="1" res="1.7589132767170668e-04" rms="4.4415128231048584e-01" purity="5.0044512748718262e-01" nType="0">
        <Node pos="l" depth="1" NCoef="0" IVar="9" Cut="1.2863488197326660e+00" cType="1" res="-3.0045928433537483e-02" rms="4.3942204117774963e-01" purity="4.0388298034667969e-01" nType="0">
          <Node pos="l" depth="2" NCoef="0" IVar="-1" Cut="0.0000000000000000e+00" cType="1" res="-1.5329592861235142e-03" rms="4.5053911209106445e-01" purity="4.5716795325279236e-01" nType="-99"/>
          <Node pos="r" depth="2" NCoef="0" IVar="-1" Cut="0.0000000000000000e+00" cType="1" res="-2.9164439067244530e-02" rms="3.7840923666954041e-01" purity="1.9226023554801941e-01" nType="-99"/>
        </Node>
        <Node pos="r" depth="1" NCoef="0" IVar="5" Cut="-9.0464776754379272e-01" cType="1" res="6.0174483805894852e-02" rms="4.4738459587097168e-01" purity="6.9214749336242676e-01" nType="0">
          <Node pos="l" depth="2" NCoef="0" IVar="-1" Cut="0.0000000000000000e+00" cType="1" res="-1.0848616249859333e-02" rms="4.9836248159408569e-01" purity="4.5578381419181824e-01" nType="-99"/>
          <Node pos="r" depth="2" NCoef="0" IVar="-1" Cut="0.0000000000000000e+00" cType="1" res="1.6466042026877403e-02" rms="4.3926286697387695e-01" purity="7.1926188468933105e-01" nType="-99"/>
        </Node>
      </Node>
    </BinaryTree>
    <BinaryTree type="DecisionTree" boostWeight="1.0000000000000000e+00" itree="19">
      <Node pos="s" depth="0" NCoef="0" IVar="5" Cut="-6.1904352903366089e-01" cType="1" res="2.4545807391405106e-03" rms="4.4263768196105957e-01" purity="5.0383621454238892e-01" nType="0">
        <Node pos="l" depth="1" NCoef="0" IVar="9" Cut="-1.5706769227981567e+00" cType="1" res="-5.0699684768915176e-02" rms="4.3215441703796387e-01" purity="3.3631771802902222e-01" nType="0">
          <Node pos="l" depth="2" NCoef="0" IVar="-1" Cut="0.0000000000000000e+00" cType="1" res="-4.8596199601888657e-02" rms="2.7866348624229431e-01" purity="1.1215725541114807e-01" nType="-99"/>
          <Node pos="r" depth="2" NCoef="0" IVar="-1" Cut="0.0000000000000000e+00" cType="1" res="-5.3110271692276001e-03" rms="4.5177480578422546e-01" purity="3.8118427991867065e-01" nType="-99"/>
        </Node>
        <Node pos="r" depth="1" NCoef="0" IVar="5" Cut="7.6867228746414185e-01" cType="1" res="3.0685238540172577e-02" rms="4.4553470611572266e-01" purity="5.9280669689178467e-01" nType="0">
          <Node pos="l" depth="2" NCoef="0" IVar="-1" Cut="0.0000000000000000e+00" cType="1" res="1.1695702560245991e-02" rms="4.4323080778121948e-01" purity="6.3713037967681885e-01" nType="-99"/>
          <Node pos="r" depth="2" NCoef="0" IVar="-1" Cut="0.0000000000000000e+00" cType="1" res="-2.6274912059307098e-02" rms="4.3156784772872925e-01" purity="2.7954742312431335e-01" nType="-99"/>
        </Node>
      </Node>
    </BinaryTree>
    <BinaryTree type="DecisionTree" boostWeight="1.0000000000000000e+00" itree="20">
      <Node pos="s" depth="0" NCoef="0" IVar="8" Cut="2.0890996456146240e+00" cType="1" res="3.3490385394543409e-03" rms="4.4087579846382141e-01" purity="5.0331419706344604e-01" nType="0">
        <Node pos="l" depth="1" NCoef="0" IVar="9" Cut="1.8573243618011475e+00" cType="1" res="-2.7797253802418709e-02" rms="4.3811130523681641e-01" purity="4.0412926673889160e-01" nType="0">
          <Node pos="l" depth="2" NCoef="0" IVar="-1" Cut="0.0000000000000000e+00" cType="1" res="-2.4417445529252291e-03" rms="4.4983258843421936e-01" purity="4.4221758842468262e-01" nType="-99"/>
          <Node pos="r" depth="2" NCoef="0" IVar="-1" Cut="0.0000000000000000e+00" cType="1" res="-4.1321508586406708e-02" rms="3.0177688598632812e-01" purity="1.0706499218940735e-01" nType="-99"/>
        </Node>
        <Node pos="r" depth="1" NCoef="0" IVar="7" Cut="2.1979024887084961e+01" cType="1" res="6.7187875509262085e-02" rms="4.3964555859565735e-01" purity="7.0660793781280518e-01" nType="0">
          <Node pos="l" depth="2" NCoef="0" IVar="-1" Cut="0.0000000000000000e+00" cType="1" res="1.8999530002474785e-02" rms="4.2531716823577881e-01" purity="7.4531960487365723e-01" nType="-99"/>
          <Node pos="r" depth="2" NCoef="0" IVar="-1" Cut="0.0000000000000000e+00" cType="1" res="-3.0290808063000441e-03" rms="5.0104355812072754e-01" purity="5.0109422206878662e-01" nType="-99"/>
        </Node>
      </Node>
    </BinaryTree>
    <BinaryTree type="DecisionTree" boostWeight="1.0000000000000000e+00" itree="21">
      <Node pos="s" depth="0" NCoef="0" IVar="8" Cut="5.3297203779220581e-01" cType="1" res="6.7415303783491254e-04" rms="4.4042009115219116e-01" purity="5.0149929523468018e-01" nType="0">
        <Node pos="l" depth="1" NCoef="0" IVar="6" Cut="-9.5142523193359375e+02" cType="1" res="-3.7905119359493256e-02" rms="4.3078449368476868e-01" purity="3.6613556742668152e-01" nType="0">
          <Node pos="l" depth="2" NCoef="0" IVar="-1" Cut="0.0000000000000000e+00" cType="1" res="-4.4048023410141468e-03" rms="4.3326863646507263e-01" purity="3.8500884175300598e-01" nType="-99"/>
          <Node pos="r" depth="2" NCoef="0" IVar="-1" Cut="0.0000000000000000e+00" cType="1" res="-4.2371205985546112e-02" rms="3.7885835766792297e-01" purity="2.1767896413803101e-01" nType="-99"/>
        </Node>
        <Node pos="r" depth="1" NCoef="0" IVar="5" Cut="5.2298969030380249e-01" cType="1" res="4.7892514616250992e-02" rms="4.4742935895919800e-01" purity="6.6717517375946045e-01" nType="0">
          <Node pos="l" depth="2" NCoef="0" IVar="-1" Cut="0.0000000000000000e+00" cType="1" res="1.4037951827049255e-02" rms="4.3916958570480347e-01" purity="7.0686680078506470e-01" nType="-99"/>
          <Node pos="r" depth="2" NCoef="0" IVar="-1" Cut="0.0000000000000000e+00" cType="1" res="-3.2771411351859570e-03" rms="4.7819712758064270e-01" purity="4.8624920845031738e-01" nType="-99"/>
        </Node>
      </Node>
    </BinaryTree>
    <BinaryTree type="DecisionTree" boostWeight="1.0000000000000000e+00" itree="22">
      <Node pos="s" depth="0" NCoef="0" IVar="5" Cut="-6.1907273530960083e-01" cType="1" res="-2.7307420969009399e-03" rms="4.4171592593193054e-01" purity="4.9934405088424683e-01" nType="0">
        <Node pos="l" depth="1" NCoef="0" IVar="9" Cut="-1.5706769227981567e+00" cType="1" res="-5.1995687186717987e-02" rms="4.3183007836341858e-01" purity="3.3166480064392090e-01" nType="0">
          <Node pos="l" depth="2" NCoef="0" IVar="-1" Cut="0.0000000000000000e+00" cType="1" res="-4.5385554432868958e-02" rms="2.7503541111946106e-01" purity="1.1214554309844971e-01" nType="-99"/>
          <Node pos="r" depth="2" NCoef="0" IVar="-1" Cut="0.0000000000000000e+00" cType="1" res="-6.5224659629166126e-03" rms="4.5382714271545410e-01" purity="3.7673434615135193e-01" nType="-99"/>
        </Node>
        <Node pos="r" depth="1" NCoef="0" IVar="9" Cut="2.1430482864379883e+00" cType="1" res="2.3215247318148613e-02" rms="4.4464552402496338e-01" purity="5.8765435218811035e-01" nType="0">
          <Node pos="l" depth="2" NCoef="0" IVar="-1" Cut="0.0000000000000000e+00" cType="1" res="8.1308661028742790e-03" rms="4.5187383890151978e-01" purity="6.2449860572814941e-01" nType="-99"/>
          <Node pos="r" depth="2" NCoef="0" IVar="-1" Cut="0.0000000000000000e+00" cType="1" res="-3.9486285299062729e-02" rms="2.8904938697814941e-01" purity="1.1451953649520874e-01" nType="-99"/>
        </Node>
      </Node>
    </BinaryTree>
    <BinaryTree type="DecisionTree" boostWeight="1.0000000000000000e+00" itree="23">
      <Node pos="s" depth="0" NCoef="0" IVar="8" Cut="2.0890996456146240e+00" cType="1" res="1.5708538703620434e-03" rms="4.3930903077125549e-01" purity="5.0230592489242554e-01" nType="0">
        <Node pos="l" depth="1" NCoef="0" IVar="11" Cut="-7.6347088813781738e-01" cType="1" res="-2.1776232868432999e-02" rms="4.3577426671981812e-01" purity="4.0395095944404602e-01" nType="0">
          <Node pos="l" depth="2" NCoef="0" IVar="-1" Cut="0.0000000000000000e+00" cType="1" res="8.5483770817518234e-03" rms="4.5941850543022156e-01" purity="6.3220566511154175e-01" nType="-99"/>
          <Node pos="r" depth="2" NCoef="0" IVar="-1" Cut="0.0000000000000000e+00" cType="1" res="-1.1739904060959816e-02" rms="4.2203205823898315e-01" purity="3.0289772152900696e-01" nType="-99"/>
        </Node>
        <Node pos="r" depth="1" NCoef="0" IVar="5" Cut="-9.0503340959548950e-01" cType="1" res="4.8440285027027130e-02" rms="4.4261842966079712e-01" purity="6.9975399971008301e-01" nType="0">
          <Node pos="l" depth="2" NCoef="0" IVar="-1" Cut="0.0000000000000000e+00" cType="1" res="-9.1332551091909409e-03" rms="4.9716347455978394e-01" purity="4.5517247915267944e-01" nType="-99"/>
          <Node pos="r" depth="2" NCoef="0" IVar="-1" Cut="0.0000000000000000e+00" cType="1" res="1.3898320496082306e-02" rms="4.3434765934944153e-01" purity="7.2877544164657593e-01" nType="-99"/>
        </Node>
      </Node>
    </BinaryTree>
    <BinaryTree type="DecisionTree" boostWeight="1.0000000000000000e+00" itree="24">
      <Node pos="s" depth="0" NCoef="0" IVar="5" Cut="-7.1429157257080078e-01" cType="1" res="4.1786910151131451e-04" rms="4.3888548016548157e-01" purity="5.0255209207534790e-01" nType="0">
        <Node pos="l" depth="1" NCoef="0" IVar="11" Cut="3.6341552734375000e+00" cType="1" res="-4.8885777592658997e-02" rms="4.2305281758308411e-01" purity="3.0065634846687317e-01" nType="0">
          <Node pos="l" depth="2" NCoef="0" IVar="-1" Cut="0.0000000000000000e+00" cType="1" res="-1.8253654241561890e-02" rms="3.9932960271835327e-01" purity="2.6795759797096252e-01" nType="-99"/>
          <Node pos="r" depth="2" NCoef="0" IVar="-1" Cut="0.0000000000000000e+00" cType="1" res="1.5411964617669582e-02" rms="5.0082165002822876e-01" purity="4.4878402352333069e-01" nType="-99"/>
        </Node>
        <Node pos="r" depth="1" NCoef="0" IVar="5" Cut="5.9174734354019165e-01" cType="1" res="2.0767996087670326e-02" rms="4.4366174936294556e-01" purity="5.8588474988937378e-01" nType="0">
          <Node pos="l" depth="2" NCoef="0" IVar="-1" Cut="0.0000000000000000e+00" cType="1" res="1.0488584637641907e-02" rms="4.3836852908134460e-01" purity="6.4503687620162964e-01" nType="-99"/>
          <Node pos="r" depth="2" NCoef="0" IVar="-1" Cut="0.0000000000000000e+00" cType="1" res="-1.4993606135249138e-02" rms="4.5134386420249939e-01" purity="3.6873069405555725e-01" nType="-99"/>
        </Node>
      </Node>
    </BinaryTree>
    <BinaryTree type="DecisionTree" boostWeight="1.0000000000000000e+00" itree="25">
      <Node pos="s" depth="0" NCoef="0" IVar="5" Cut="-8.0957782268524170e-01" cType="1" res="-9.0630011982284486e-05" rms="4.3781611323356628e-01" purity="5.0099873542785645e-01" nType="0">
        <Node pos="l" depth="1" NCoef="0" IVar="10" Cut="1.4625828266143799e+00" cType="1" res="-6.2820121645927429e-02" rms="4.0854495763778687e-01" purity="2.6028856635093689e-01" nType="0">
          <Node pos="l" depth="2" NCoef="0" IVar="-1" Cut="0.0000000000000000e+00" cType="1" res="-2.8232702985405922e-02" rms="3.5299307107925415e-01" purity="1.8841589987277985e-01" nType="-99"/>
          <Node pos="r" depth="2" NCoef="0" IVar="-1" Cut="0.0000000000000000e+00" cType="1" res="8.5291853174567223e-03" rms="4.9373182654380798e-01" purity="4.1571211814880371e-01" nType="-99"/>
        </Node>
        <Node pos="r" depth="1" NCoef="0" IVar="5" Cut="7.4088132381439209e-01" cType="1" res="1.6930693760514259e-02" rms="4.4390064477920532e-01" purity="5.6631416082382202e-01" nType="0">
          <Node pos="l" depth="2" NCoef="0" IVar="-1" Cut="0.0000000000000000e+00" cType="1" res="7.4255424551665783e-03" rms="4.4295582175254822e-01" purity="6.0392379760742188e-01" nType="-99"/>
          <Node pos="r" depth="2" NCoef="0" IVar="-1" Cut="0.0000000000000000e+00" cType="1" res="-2.0720863714814186e-02" rms="4.3490990996360779e-01" purity="2.9203334450721741e-01" nType="-99"/>
        </Node>
      </Node>
    </BinaryTree>
    <BinaryTree type="DecisionTree" boostWeight="1.0000000000000000e+00" itree="26">
      <Node pos="s" depth="0" NCoef="0" IVar="9" Cut="1.8574504852294922e+00" cType="1" res="-2.6301057077944279e-03" rms="4.3835124373435974e-01" purity="4.9921655654907227e-01" nType="0">
        <Node pos="l" depth="1" NCoef="0" IVar="5" Cut="-6.1917012929916382e-01" cType="1" res="6.6976132802665234e-03" rms="4.4511282444000244e-01" purity="5.2936601638793945e-01" nType="0">
          <Node pos="l" depth="2" NCoef="0" IVar="-1" Cut="0.0000000000000000e+00" cType="1" res="-9.1396709904074669e-03" rms="4.3236351013183594e-01" purity="3.3711040019989014e-01" nType="-99"/>
          <Node pos="r" depth="2" NCoef="0" IVar="-1" Cut="0.0000000000000000e+00" cType="1" res="7.2480197995901108e-03" rms="4.5021644234657288e-01" purity="6.3823831081390381e-01" nType="-99"/>
        </Node>
        <Node pos="r" depth="1" NCoef="0" IVar="9" Cut="2.2386288642883301e+00" cType="1" res="-1.0151492804288864e-01" rms="3.4369179606437683e-01" purity="1.7959631979465485e-01" nType="0">
          <Node pos="l" depth="2" NCoef="0" IVar="-1" Cut="0.0000000000000000e+00" cType="1" res="-1.5796339139342308e-02" rms="3.9773440361022949e-01" purity="2.6206752657890320e-01" nType="-99"/>
          <Node pos="r" depth="2" NCoef="0" IVar="-1" Cut="0.0000000000000000e+00" cType="1" res="-3.7069704383611679e-02" rms="2.9159626364707947e-01" purity="1.1553600430488586e-01" nType="-99"/>
        </Node>
      </Node>
    </BinaryTree>
    <BinaryTree type="DecisionTree" boostWeight="1.0000000000000000e+00" itree="27">
      <Node pos="s" depth="0" NCoef="0" IVar="5" Cut="8.0948853492736816e-01" cType="1" res="8.5012603085488081e-04" rms="4.3602201342582703e-01" purity="5.0239628553390503e-01" nType="0">
        <Node pos="l" depth="1" NCoef="0" IVar="5" Cut="-6.5530949831008911e-01" cType="1" res="8.4537714719772339e-03" rms="4.3604269623756409e-01" purity="5.1989275217056274e-01" nType="0">
          <Node pos="l" depth="2" NCoef="0" IVar="-1" Cut="0.0000000000000000e+00" cType="1" res="-9.0657481923699379e-03" rms="4.2313221096992493e-01" purity="3.1800261139869690e-01" nType="-99"/>
          <Node pos="r" depth="2" NCoef="0" IVar="-1" Cut="0.0000000000000000e+00" cType="1" res="7.5800721533596516e-03" rms="4.4083881378173828e-01" purity="6.2707680463790894e-01" nType="-99"/>
        </Node>
        <Node pos="r" depth="1" NCoef="0" IVar="-1" Cut="0.0000000000000000e+00" cType="1" res="-2.3938225582242012e-02" rms="4.2139476537704468e-01" purity="2.5592431426048279e-01" nType="-99"/>
      </Node>
    </BinaryTree>
    <BinaryTree type="DecisionTree" boostWeight="1.0000000000000000e+00" itree="28">
      <Node pos="s" depth="0" NCoef="0" IVar="9" Cut="2.1421923637390137e+00" cType="1" res="9.7652920521795750e-04" rms="4.3707305192947388e-01" purity="5.0308018922805786e-01" nType="0">
        <Node pos="l" depth="1" NCoef="0" IVar="5" Cut="-6.1915737390518188e-01" cType="1" res="7.6510729268193245e-03" rms="4.4298905134201050e-01" purity="5.2575957775115967e-01" nType="0">
          <Node pos="l" depth="2" NCoef="0" IVar="-1" Cut="0.0000000000000000e+00" cType="1" res="-7.4807754717767239e-03" rms="4.3245947360992432e-01" purity="3.3798342943191528e-01" nType="-99"/>
          <Node pos="r" depth="2" NCoef="0" IVar="-1" Cut="0.0000000000000000e+00" cType="1" res="6.7039458081126213e-03" rms="4.4736111164093018e-01" purity="6.3155406713485718e-01" nType="-99"/>
        </Node>
        <Node pos="r" depth="1" NCoef="0" IVar="-1" Cut="0.0000000000000000e+00" cType="1" res="-3.1649760901927948e-02" rms="3.0390492081642151e-01" purity="1.2919406592845917e-01" nType="-99"/>
      </Node>
    </BinaryTree>
    <BinaryTree type="DecisionTree" boostWeight="1.0000000000000000e+00" itree="29">
      <Node pos="s" depth="0" NCoef="0" IVar="8" Cut="2.0890996456146240e+00" cType="1" res="3.7673457991331816e-03" rms="4.3617549538612366e-01" purity="5.0619965791702271e-01" nType="0">
        <Node pos="l" depth="1" NCoef="0" IVar="9" Cut="1.0018529891967773e+00" cType="1" res="-1.5615813434123993e-02" rms="4.3254458904266357e-01" purity="4.0860962867736816e-01" nType="0">
          <Node pos="l" depth="2" NCoef="0" IVar="-1" Cut="0.0000000000000000e+00" cType="1" res="1.0579301742836833e-03" rms="4.4180658459663391e-01" purity="4.6838924288749695e-01" nType="-99"/>
          <Node pos="r" depth="2" NCoef="0" IVar="-1" Cut="0.0000000000000000e+00" cType="1" res="-1.8134683370590210e-02" rms="4.0006566047668457e-01" purity="2.4092958867549896e-01" nType="-99"/>
        </Node>
        <Node pos="r" depth="1" NCoef="0" IVar="5" Cut="4.2858681082725525e-01" cType="1" res="4.2512729763984680e-02" rms="4.4079688191413879e-01" purity="7.0127427577972412e-01" nType="0">
          <Node pos="l" depth="2" NCoef="0" IVar="-1" Cut="0.0000000000000000e+00" cType="1" res="1.2183529324829578e-02" rms="4.3638494610786438e-01" purity="7.1562677621841431e-01" nType="-99"/>
          <Node pos="r" depth="2" NCoef="0" IVar="-1" Cut="0.0000000000000000e+00" cType="1" res="-9.3980990350246429e-03" rms="4.7190025448799133e-01" purity="5.6659132242202759e-01" nType="-99"/>
        </Node>
      </Node>
    </BinaryTree>
    <BinaryTree type="DecisionTree" boostWeight="1.0000000000000000e+00" itree="30">
      <Node pos="s" depth="0" NCoef="0" IVar="5" Cut="8.0948686599731445e-01" cType="1" res="-1.2862292351201177e-03" rms="4.3642583489418030e-01" purity="4.9905568361282349e-01" nType="0">
        <Node pos="l" depth="1" NCoef="0" IVar="5" Cut="-5.6915873289108276e-01" cType="1" res="5.2519072778522968e-03" rms="4.3677669763565063e-01" purity="5.1634150743484497e-01" nType="0">
          <Node pos="l" depth="2" NCoef="0" IVar="-1" Cut="0.0000000000000000e+00" cType="1" res="-6.6305706277489662e-03" rms="4.3049329519271851e-01" purity="3.4833014011383057e-01" nType="-99"/>
          <Node pos="r" depth="2" NCoef="0" IVar="-1" Cut="0.0000000000000000e+00" cType="1" res="6.3605913892388344e-03" rms="4.3964511156082153e-01" purity="6.3018304109573364e-01" nType="-99"/>
        </Node>
        <Node pos="r" depth="1" NCoef="0" IVar="-1" Cut="0.0000000000000000e+00" cType="1" res="-2.1310700103640556e-02" rms="4.2095524072647095e-01" purity="2.5707644224166870e-01" nType="-99"/>
      </Node>
    </BinaryTree>
    <BinaryTree type="DecisionTree" boostWeight="1.0000000000000000e+00" itree="31">
      <Node pos="s" depth="0" NCoef="0" IVar="8" Cut="3.9816430211067200e-01" cType="1" res="2.7410528855398297e-04" rms="4.3602740764617920e-01" purity="5.0133675336837769e-01" nType="0">
        <Node pos="l" depth="1" NCoef="0" IVar="6" Cut="-9.5143695068359375e+02" cType="1" res="-2.5853417813777924e-02" rms="4.2517980933189392e-01" purity="3.6431139707565308e-01" nType="0">
          <Node pos="l" depth="2" NCoef="0" IVar="-1" Cut="0.0000000000000000e+00" cType="1" res="-1.8078180728480220e-03" rms="4.2830416560173035e-01" purity="3.8499429821968079e-01" nType="-99"/>
          <Node pos="r" depth="2" NCoef="0" IVar="-1" Cut="0.0000000000000000e+00" cType="1" res="-4.5073289424180984e-02" rms="3.5891485214233398e-01" purity="1.8433928489685059e-01" nType="-99"/>
        </Node>
        <Node pos="r" depth="1" NCoef="0" IVar="6" Cut="-1.2809908390045166e+00" cType="1" res="3.1659647822380066e-02" rms="4.4669553637504578e-01" purity="6.6593760251998901e-01" nType="0">
          <Node pos="l" depth="2" NCoef="0" IVar="-1" Cut="0.0000000000000000e+00" cType="1" res="-1.9265409559011459e-02" rms="4.8030939698219299e-01" purity="5.2932453155517578e-01" nType="-99"/>
          <Node pos="r" depth="2" NCoef="0" IVar="-1" Cut="0.0000000000000000e+00" cType="1" res="9.4117866829037666e-03" rms="4.4293603301048279e-01" purity="6.7594033479690552e-01" nType="-99"/>
        </Node>
      </Node>
    </BinaryTree>
    <BinaryTree type="DecisionTree" boostWeight="1.0000000000000000e+00" itree="32">
      <Node pos="s" depth="0" NCoef="0" IVar="4" Cut="9.9904823303222656e-01" cType="1" res="-2.5923731736838818e-03" rms="4.3372514843940735e-01" purity="4.9857768416404724e-01" nType="0">
        <Node pos="l" depth="1" NCoef="0" IVar="-1" Cut="0.0000000000000000e+00" cType="1" res="-3.0704811215400696e-02" rms="4.4991222023963928e-01" purity="3.0751183629035950e-01" nType="-99"/>
        <Node pos="r" depth="1" NCoef="0" IVar="9" Cut="-2.1418967247009277e+00" cType="1" res="2.2256264928728342e-03" rms="4.3236166238784790e-01" purity="5.0557321310043335e-01" nType="0">
          <Node pos="l" depth="2" NCoef="0" IVar="-1" Cut="0.0000000000000000e+00" cType="1" res="-3.7106633186340332e-02" rms="2.7427396178245544e-01" purity="1.8653234839439392e-01" nType="-99"/>
          <Node pos="r" depth="2" NCoef="0" IVar="-1" Cut="0.0000000000000000e+00" cType="1" res="1.8068263307213783e-03" rms="4.3695104122161865e-01" purity="5.1898509263992310e-01" nType="-99"/>
        </Node>
      </Node>
    </BinaryTree>
    <BinaryTree type="DecisionTree" boostWeight="1.0000000000000000e+00" itree="33">
      <Node pos="s" depth="0" NCoef="0" IVar="5" Cut="5.2378076314926147e-01" cType="1" res="4.9067736836150289e-04" rms="4.3494275212287903e-01" purity="5.0289201736450195e-01" nType="0">
        <Node pos="l" depth="1" NCoef="0" IVar="5" Cut="-8.5488265752792358e-01" cType="1" res="1.1204306967556477e-02" rms="4.3157196044921875e-01" purity="5.2740252017974854e-01" nType="0">
          <Node pos="l" depth="2" NCoef="0" IVar="-1" Cut="0.0000000000000000e+00" cType="1" res="-1.2315179221332073e-02" rms="4.0652313828468323e-01" purity="2.5648394227027893e-01" nType="-99"/>
          <Node pos="r" depth="2" NCoef="0" IVar="-1" Cut="0.0000000000000000e+00" cType="1" res="6.2756640836596489e-03" rms="4.3645843863487244e-01" purity="5.9632921218872070e-01" nType="-99"/>
        </Node>
        <Node pos="r" depth="1" NCoef="0" IVar="10" Cut="-3.0901255607604980e+00" cType="1" res="-4.9442492425441742e-02" rms="4.4694539904594421e-01" purity="3.8865581154823303e-01" nType="0">
          <Node pos="l" depth="2" NCoef="0" IVar="-1" Cut="0.0000000000000000e+00" cType="1" res="-2.4594096466898918e-03" rms="4.8057380318641663e-01" purity="5.0315642356872559e-01" nType="-99"/>
          <Node pos="r" depth="2" NCoef="0" IVar="-1" Cut="0.0000000000000000e+00" cType="1" res="-2.5265621021389961e-02" rms="3.9033514261245728e-01" purity="2.3165597021579742e-01" nType="-99"/>
        </Node>
      </Node>
    </BinaryTree>
    <BinaryTree type="DecisionTree" boostWeight="1.0000000000000000e+00" itree="34">
      <Node pos="s" depth="0" NCoef="0" IVar="9" Cut="2.1429746150970459e+00" cType="1" res="3.6887812893837690e-03" rms="4.3235522508621216e-01" purity="5.0366002321243286e-01" nType="0">
        <Node pos="l" depth="1" NCoef="0" IVar="5" Cut="8.0940651893615723e-01" cType="1" res="9.4822524115443230e-03" rms="4.3844032287597656e-01" purity="5.2637970447540283e-01" nType="0">
          <Node pos="l" depth="2" NCoef="0" IVar="-1" Cut="0.0000000000000000e+00" cType="1" res="3.6845393478870392e-03" rms="4.3771964311599731e-01" purity="5.4285848140716553e-01" nType="-99"/>
          <Node pos="r" depth="2" NCoef="0" IVar="-1" Cut="0.0000000000000000e+00" cType="1" res="-1.7688898369669914e-02" rms="4.3961080908775330e-01" purity="2.7934861183166504e-01" nType="-99"/>
        </Node>
        <Node pos="r" depth="1" NCoef="0" IVar="-1" Cut="0.0000000000000000e+00" cType="1" res="-2.8982454910874367e-02" rms="2.9800254106521606e-01" purity="1.2525354325771332e-01" nType="-99"/>
      </Node>
    </BinaryTree>
    <BinaryTree type="DecisionTree" boostWeight="1.0000000000000000e+00" itree="35">
      <Node pos="s" depth="0" NCoef="0" IVar="9" Cut="2.1422696113586426e+00" cType="1" res="-3.4994541201740503e-03" rms="4.3519276380538940e-01" purity="4.9786657094955444e-01" nType="0">
        <Node pos="l" depth="1" NCoef="0" IVar="5" Cut="-8.0951732397079468e-01" cType="1" res="1.8704906105995178e-03" rms="4.4187670946121216e-01" purity="5.2101153135299683e-01" nType="0">
          <Node pos="l" depth="2" NCoef="0" IVar="-1" Cut="0.0000000000000000e+00" cType="1" res="-1.1481122113764286e-02" rms="4.0863409638404846e-01" purity="2.6271975040435791e-01" nType="-99"/>
          <Node pos="r" depth="2" NCoef="0" IVar="-1" Cut="0.0000000000000000e+00" cType="1" res="3.5443324595689774e-03" rms="4.5010620355606079e-01" purity="5.9535312652587891e-01" nType="-99"/>
        </Node>
        <Node pos="r" depth="1" NCoef="0" IVar="-1" Cut="0.0000000000000000e+00" cType="1" res="-2.9733747243881226e-02" rms="2.9034355282783508e-01" purity="1.1584388464689255e-01" nType="-99"/>
      </Node>
    </BinaryTree>
    <BinaryTree type="DecisionTree" boostWeight="1.0000000000000000e+00" itree="36">
      <Node pos="s" depth="0" NCoef="0" IVar="8" Cut="1.6618535518646240e+00" cType="1" res="-2.3844270035624504e-03" rms="4.3461251258850098e-01" purity="4.9970251321792603e-01" nType="0">
        <Node pos="l" depth="1" NCoef="0" IVar="10" Cut="1.5683406591415405e+00" cType="1" res="-2.3688782006502151e-02" rms="4.2991834878921509e-01" purity="3.8520479202270508e-01" nType="0">
          <Node pos="l" depth="2" NCoef="0" IVar="-1" Cut="0.0000000000000000e+00" cType="1" res="-7.9375822097063065e-03" rms="4.2526662349700928e-01" purity="3.8623881340026855e-01" nType="-99"/>
          <Node pos="r" depth="2" NCoef="0" IVar="-1" Cut="0.0000000000000000e+00" cType="1" res="3.5259407013654709e-02" rms="4.7664567828178406e-01" purity="3.6786422133445740e-01" nType="-99"/>
        </Node>
        <Node pos="r" depth="1" NCoef="0" IVar="7" Cut="2.8230390548706055e+01" cType="1" res="3.4498505294322968e-02" rms="4.4019052386283875e-01" purity="6.9792550802230835e-01" nType="0">
          <Node pos="l" depth="2" NCoef="0" IVar="-1" Cut="0.0000000000000000e+00" cType="1" res="9.9921021610498428e-03" rms="4.3382319808006287e-01" purity="7.1999955177307129e-01" nType="-99"/>
          <Node pos="r" depth="2" NCoef="0" IVar="-1" Cut="0.0000000000000000e+00" cType="1" res="-7.2981384582817554e-03" rms="4.9913260340690613e-01" purity="4.5669373869895935e-01" nType="-99"/>
        </Node>
      </Node>
    </BinaryTree>
    <BinaryTree type="DecisionTree" boostWeight="1.0000000000000000e+00" itree="37">
      <Node pos="s" depth="0" NCoef="0" IVar="9" Cut="-1.8565797805786133e+00" cType="1" res="9.3136401847004890e-04" rms="4.3499678373336792e-01" purity="5.0329780578613281e-01" nType="0">
        <Node pos="l" depth="1" NCoef="0" IVar="-1" Cut="0.0000000000000000e+00" cType="1" res="-2.4384858086705208e-02" rms="3.1873312592506409e-01" purity="2.6124361157417297e-01" nType="-99"/>
        <Node pos="r" depth="1" NCoef="0" IVar="5" Cut="4.2842307686805725e-01" cType="1" res="6.1703599058091640e-03" rms="4.4079497456550598e-01" purity="5.1859927177429199e-01" nType="0">
          <Node pos="l" depth="2" NCoef="0" IVar="-1" Cut="0.0000000000000000e+00" cType="1" res="4.6435995027422905e-03" rms="4.3741694092750549e-01" purity="5.4576647281646729e-01" nType="-99"/>
          <Node pos="r" depth="2" NCoef="0" IVar="-1" Cut="0.0000000000000000e+00" cType="1" res="-8.8098328560590744e-03" rms="4.4942241907119751e-01" purity="4.2493087053298950e-01" nType="-99"/>
        </Node>
      </Node>
    </BinaryTree>
    <BinaryTree type="DecisionTree" boostWeight="1.0000000000000000e+00" itree="38">
      <Node pos="s" depth="0" NCoef="0" IVar="10" Cut="-3.9047870635986328e+00" cType="1" res="-4.2217809823341668e-04" rms="4.3493977189064026e-01" purity="5.0147157907485962e-01" nType="0">
        <Node pos="l" depth="1" NCoef="0" IVar="0" Cut="4.9427941441535950e-01" cType="1" res="5.3522817790508270e-02" rms="4.3228787183761597e-01" purity="7.0612525939941406e-01" nType="0">
          <Node pos="l" depth="2" NCoef="0" IVar="-1" Cut="0.0000000000000000e+00" cType="1" res="-3.5941235255450010e-03" rms="4.6224778890609741e-01" purity="6.3178896903991699e-01" nType="-99"/>
          <Node pos="r" depth="2" NCoef="0" IVar="-1" Cut="0.0000000000000000e+00" cType="1" res="1.6089454293251038e-02" rms="4.2439836263656616e-01" purity="7.2157579660415649e-01" nType="-99"/>
        </Node>
        <Node pos="r" depth="1" NCoef="0" IVar="5" Cut="4.2848202586174011e-01" cType="1" res="-1.0085952468216419e-02" rms="4.3470668792724609e-01" purity="4.6480968594551086e-01" nType="0">
          <Node pos="l" depth="2" NCoef="0" IVar="-1" Cut="0.0000000000000000e+00" cType="1" res="6.1906775226816535e-04" rms="4.3427598476409912e-01" purity="4.8974096775054932e-01" nType="-99"/>
          <Node pos="r" depth="2" NCoef="0" IVar="-1" Cut="0.0000000000000000e+00" cType="1" res="-1.6122637316584587e-02" rms="4.3198904395103455e-01" purity="3.5039219260215759e-01" nType="-99"/>
        </Node>
      </Node>
    </BinaryTree>
    <BinaryTree type="DecisionTree" boostWeight="1.0000000000000000e+00" itree="39">
      <Node pos="s" depth="0" NCoef="0" IVar="9" Cut="-1.8555929660797119e+00" cType="1" res="-3.5860686330124736e-04" rms="4.3309891223907471e-01" purity="5.0138771533966064e-01" nType="0">
        <Node pos="l" depth="1" NCoef="0" IVar="-1" Cut="0.0000000000000000e+00" cType="1" res="-2.4132696911692619e-02" rms="3.1447452306747437e-01" purity="2.5383970141410828e-01" nType="-99"/>
        <Node pos="r" depth="1" NCoef="0" IVar="9" Cut="9.1904670000076294e-01" cType="1" res="4.6574329026043415e-03" rms="4.3901070952415466e-01" purity="5.1696604490280151e-01" nType="0">
          <Node pos="l" depth="2" NCoef="0" IVar="-1" Cut="0.0000000000000000e+00" cType="1" res="4.2182789184153080e-03" rms="4.4557112455368042e-01" purity="5.7663166522979736e-01" nType="-99"/>
          <Node pos="r" depth="2" NCoef="0" IVar="-1" Cut="0.0000000000000000e+00" cType="1" res="-7.8431973233819008e-03" rms="4.1834941506385803e-01" purity="3.5297760367393494e-01" nType="-99"/>
        </Node>
      </Node>
    </BinaryTree>
    <BinaryTree type="DecisionTree" boostWeight="1.0000000000000000e+00" itree="40">
      <Node pos="s" depth="0" NCoef="0" IVar="10" Cut="-3.9047870635986328e+00" cType="1" res="-2.2058214526623487e-03" rms="4.3338546156883240e-01" purity="4.9899336695671082e-01" nType="0">
        <Node pos="l" depth="1" NCoef="0" IVar="5" Cut="6.5009033679962158e-01" cType="1" res="4.5337792485952377e-02" rms="4.3168315291404724e-01" purity="7.0240807533264160e-01" nType="0">
          <Node pos="l" depth="2" NCoef="0" IVar="-1" Cut="0.0000000000000000e+00" cType="1" res="1.6264658421278000e-02" rms="4.0860271453857422e-01" purity="7.8499031066894531e-01" nType="-99"/>
          <Node pos="r" depth="2" NCoef="0" IVar="-1" Cut="0.0000000000000000e+00" cType="1" res="-2.0615910179913044e-03" rms="4.8763149976730347e-01" purity="4.6582800149917603e-01" nType="-99"/>
        </Node>
        <Node pos="r" depth="1" NCoef="0" IVar="9" Cut="-9.9945574998855591e-01" cType="1" res="-1.0818531736731529e-02" rms="4.3313515186309814e-01" purity="4.6214398741722107e-01" nType="0">
          <Node pos="l" depth="2" NCoef="0" IVar="-1" Cut="0.0000000000000000e+00" cType="1" res="-2.3631803691387177e-02" rms="3.5824751853942871e-01" purity="2.5656804442405701e-01" nType="-99"/>
          <Node pos="r" depth="2" NCoef="0" IVar="-1" Cut="0.0000000000000000e+00" cType="1" res="1.2653719750232995e-04" rms="4.4260337948799133e-01" purity="4.9421417713165283e-01" nType="-99"/>
        </Node>
      </Node>
    </BinaryTree>
    <BinaryTree type="DecisionTree" boostWeight="1.0000000000000000e+00" itree="41">
      <Node pos="s" depth="0" NCoef="0" IVar="11" Cut="-9.4917076826095581e-01" cType="1" res="1.8209923291578889e-04" rms="4.3424198031425476e-01" purity="5.0099128484725952e-01" nType="0">
        <Node pos="l" depth="1" NCoef="0" IVar="11" Cut="-1.7457706928253174e+00" cType="1" res="3.0468299984931946e-02" rms="4.3923759460449219e-01" purity="6.8739205598831177e-01" nType="0">
          <Node pos="l" depth="2" NCoef="0" IVar="-1" Cut="0.0000000000000000e+00" cType="1" res="1.3643788173794746e-02" rms="4.3120062351226807e-01" purity="7.1537160873413086e-01" nType="-99"/>
          <Node pos="r" depth="2" NCoef="0" IVar="-1" Cut="0.0000000000000000e+00" cType="1" res="2.9684249311685562e-03" rms="4.4371387362480164e-01" purity="6.6835987567901611e-01" nType="-99"/>
        </Node>
        <Node pos="r" depth="1" NCoef="0" IVar="9" Cut="-1.2850633859634399e+00" cType="1" res="-1.0972472839057446e-02" rms="4.3185263872146606e-01" purity="4.3233892321586609e-01" nType="0">
          <Node pos="l" depth="2" NCoef="0" IVar="-1" Cut="0.0000000000000000e+00" cType="1" res="-3.0848491936922073e-02" rms="2.8606414794921875e-01" purity="1.2143489718437195e-01" nType="-99"/>
          <Node pos="r" depth="2" NCoef="0" IVar="-1" Cut="0.0000000000000000e+00" cType="1" res="-5.7306984672322869e-04" rms="4.4332250952720642e-01" purity="4.6449646353721619e-01" nType="-99"/>
        </Node>
      </Node>
    </BinaryTree>
    <BinaryTree type="DecisionTree" boostWeight="1.0000000000000000e+00" itree="42">
      <Node pos="s" depth="0" NCoef="0" IVar="5" Cut="3.3316317200660706e-01" cType="1" res="3.6836473736912012e-04" rms="4.3441301584243774e-01" purity="5.0064295530319214e-01" nType="0">
        <Node pos="l" depth="1" NCoef="0" IVar="5" Cut="-4.2864239215850830e-01" cType="1" res="1.1163523420691490e-02" rms="4.3007501959800720e-01" purity="5.1754933595657349e-01" nType="0">
          <Node pos="l" depth="2" NCoef="0" IVar="-1" Cut="0.0000000000000000e+00" cType="1" res="-2.4684041272848845e-03" rms="4.3258529901504517e-01" purity="3.9675876498222351e-01" nType="-99"/>
          <Node pos="r" depth="2" NCoef="0" IVar="-1" Cut="0.0000000000000000e+00" cType="1" res="1.0542725212872028e-02" rms="4.2439767718315125e-01" purity="6.9722259044647217e-01" nType="-99"/>
        </Node>
        <Node pos="r" depth="1" NCoef="0" IVar="11" Cut="-1.6379770040512085e+00" cType="1" res="-3.1566552817821503e-02" rms="4.4547051191329956e-01" purity="4.5062959194183350e-01" nType="0">
          <Node pos="l" depth="2" NCoef="0" IVar="-1" Cut="0.0000000000000000e+00" cType="1" res="8.0479905009269714e-03" rms="4.5861056447029114e-01" purity="6.1638426780700684e-01" nType="-99"/>
          <Node pos="r" depth="2" NCoef="0" IVar="-1" Cut="0.0000000000000000e+00" cType="1" res="-1.2989560142159462e-02" rms="4.3854925036430359e-01" purity="3.9440801739692688e-01" nType="-99"/>
        </Node>
      </Node>
    </BinaryTree>
    <BinaryTree type="DecisionTree" boostWeight="1.0000000000000000e+00" itree="43">
      <Node pos="s" depth="0" NCoef="0" IVar="8" Cut="3.9816430211067200e-01" cType="1" res="4.4582155533134937e-04" rms="4.3350508809089661e-01" purity="5.0210982561111450e-01" nType="0">
        <Node pos="l" depth="1" NCoef="0" IVar="6" Cut="-9.5144104003906250e+02" cType="1" res="-1.5695450827479362e-02" rms="4.2198795080184937e-01" purity="3.6759793758392334e-01" nType="0">
          <Node pos="l" depth="2" NCoef="0" IVar="-1" Cut="0.0000000000000000e+00" cType="1" res="-2.6237772544845939e-04" rms="4.2499661445617676e-01" purity="3.8700166344642639e-01" nType="-99"/>
          <Node pos="r" depth="2" NCoef="0" IVar="-1" Cut="0.0000000000000000e+00" cType="1" res="-3.7947986274957657e-02" rms="3.6846652626991272e-01" purity="1.9279812276363373e-01" nType="-99"/>
        </Node>
        <Node pos="r" depth="1" NCoef="0" IVar="6" Cut="-1.2836866378784180e+00" cType="1" res="1.9456952810287476e-02" rms="4.4594058394432068e-01" purity="6.6053748130798340e-01" nType="0">
          <Node pos="l" depth="2" NCoef="0" IVar="-1" Cut="0.0000000000000000e+00" cType="1" res="-1.9605426117777824e-02" rms="4.6879625320434570e-01" purity="5.1485341787338257e-01" nType="-99"/>
          <Node pos="r" depth="2" NCoef="0" IVar="-1" Cut="0.0000000000000000e+00" cType="1" res="6.6368579864501953e-03" rms="4.4311431050300598e-01" purity="6.7174577713012695e-01" nType="-99"/>
        </Node>
      </Node>
    </BinaryTree>
    <BinaryTree type="DecisionTree" boostWeight="1.0000000000000000e+00" itree="44">
      <Node pos="s" depth="0" NCoef="0" IVar="4" Cut="9.9904823303222656e-01" cType="1" res="-2.5423553306609392e-03" rms="4.3334653973579407e-01" purity="4.9786597490310669e-01" nType="0">
        <Node pos="l" depth="1" NCoef="0" IVar="-1" Cut="0.0000000000000000e+00" cType="1" res="-2.5530202314257622e-02" rms="4.5149546861648560e-01" purity="3.0460664629936218e-01" nType="-99"/>
        <Node pos="r" depth="1" NCoef="0" IVar="9" Cut="2.1422219276428223e+00" cType="1" res="1.1078965617343783e-03" rms="4.3224078416824341e-01" purity="5.0466841459274292e-01" nType="0">
          <Node pos="l" depth="2" NCoef="0" IVar="-1" Cut="0.0000000000000000e+00" cType="1" res="1.3327421620488167e-03" rms="4.3839219212532043e-01" purity="5.2665507793426514e-01" nType="-99"/>
          <Node pos="r" depth="2" NCoef="0" IVar="-1" Cut="0.0000000000000000e+00" cType="1" res="-2.4752391502261162e-02" rms="2.9803982377052307e-01" purity="1.2678888440132141e-01" nType="-99"/>
        </Node>
      </Node>
    </BinaryTree>
    <BinaryTree type="DecisionTree" boostWeight="1.0000000000000000e+00" itree="45">
      <Node pos="s" depth="0" NCoef="0" IVar="5" Cut="5.2329051494598389e-01" cType="1" res="-2.8993315063416958e-03" rms="4.3161785602569580e-01" purity="4.9613273143768311e-01" nType="0">
        <Node pos="l" depth="1" NCoef="0" IVar="5" Cut="-6.3731527328491211e-01" cType="1" res="4.8576425760984421e-03" rms="4.2854988574981689e-01" purity="5.2217721939086914e-01" nType="0">
          <Node pos="l" depth="2" NCoef="0" IVar="-1" Cut="0.0000000000000000e+00" cType="1" res="-6.3703549094498158e-03" rms="4.2332187294960022e-01" purity="3.2290250062942505e-01" nType="-99"/>
          <Node pos="r" depth="2" NCoef="0" IVar="-1" Cut="0.0000000000000000e+00" cType="1" res="6.4596580341458321e-03" rms="4.3096089363098145e-01" purity="6.6326457262039185e-01" nType="-99"/>
        </Node>
        <Node pos="r" depth="1" NCoef="0" IVar="5" Cut="8.8598191738128662e-01" cType="1" res="-3.7666723132133484e-02" rms="4.4344511628150940e-01" purity="3.7939906120300293e-01" nType="0">
          <Node pos="l" depth="2" NCoef="0" IVar="-1" Cut="0.0000000000000000e+00" cType="1" res="-4.5950380153954029e-03" rms="4.5617371797561646e-01" purity="4.2707619071006775e-01" nType="-99"/>
          <Node pos="r" depth="2" NCoef="0" IVar="-1" Cut="0.0000000000000000e+00" cType="1" res="-2.6294942945241928e-02" rms="3.8423982262611389e-01" purity="1.9896541535854340e-01" nType="-99"/>
        </Node>
      </Node>
    </BinaryTree>
    <BinaryTree type="DecisionTree" boostWeight="1.0000000000000000e+00" itree="46">
      <Node pos="s" depth="0" NCoef="0" IVar="8" Cut="2.0062408447265625e+00" cType="1" res="1.1708087986335158e-03" rms="4.3194788694381714e-01" purity="5.0111907720565796e-01" nType="0">
        <Node pos="l" depth="1" NCoef="0" IVar="10" Cut="1.7269372940063477e+00" cType="1" res="-1.0639701969921589e-02" rms="4.2756706476211548e-01" purity="3.9958032965660095e-01" nType="0">
          <Node pos="l" depth="2" NCoef="0" IVar="-1" Cut="0.0000000000000000e+00" cType="1" res="-4.7305007465183735e-03" rms="4.2262032628059387e-01" purity="3.9946606755256653e-01" nType="-99"/>
          <Node pos="r" depth="2" NCoef="0" IVar="-1" Cut="0.0000000000000000e+00" cType="1" res="4.0066864341497421e-02" rms="4.8559948801994324e-01" purity="4.0175691246986389e-01" nType="-99"/>
        </Node>
        <Node pos="r" depth="1" NCoef="0" IVar="1" Cut="1.6558837145566940e-02" cType="1" res="2.4279251694679260e-02" rms="4.3947622179985046e-01" purity="6.9978976249694824e-01" nType="0">
          <Node pos="l" depth="2" NCoef="0" IVar="-1" Cut="0.0000000000000000e+00" cType="1" res="3.4857592545449734e-03" rms="4.4333955645561218e-01" purity="6.9002979993820190e-01" nType="-99"/>
          <Node pos="r" depth="2" NCoef="0" IVar="-1" Cut="0.0000000000000000e+00" cType="1" res="2.4593098089098930e-02" rms="4.0107029676437378e-01" purity="7.7327698469161987e-01" nType="-99"/>
        </Node>
      </Node>
    </BinaryTree>
    <BinaryTree type="DecisionTree" boostWeight="1.0000000000000000e+00" itree="47">
      <Node pos="s" depth="0" NCoef="0" IVar="4" Cut="9.9904954433441162e-01" cType="1" res="-3.3303699456155300e-03" rms="4.3294793367385864e-01" purity="4.9766167998313904e-01" nType="0">
        <Node pos="l" depth="1" NCoef="0" IVar="-1" Cut="0.0000000000000000e+00" cType="1" res="-2.3335387930274010e-02" rms="4.4634035229682922e-01" purity="2.9731222987174988e-01" nType="-99"/>
        <Node pos="r" depth="1" NCoef="0" IVar="11" Cut="-2.0708372592926025e+00" cType="1" res="-5.0923321396112442e-05" rms="4.3210068345069885e-01" purity="5.0484555959701538e-01" nType="0">
          <Node pos="l" depth="2" NCoef="0" IVar="-1" Cut="0.0000000000000000e+00" cType="1" res="1.6179813072085381e-02" rms="4.1700714826583862e-01" purity="7.4101001024246216e-01" nType="-99"/>
          <Node pos="r" depth="2" NCoef="0" IVar="-1" Cut="0.0000000000000000e+00" cType="1" res="-1.1446675052866340e-03" rms="4.3274927139282227e-01" purity="4.8859232664108276e-01" nType="-99"/>
        </Node>
      </Node>
    </BinaryTree>
    <BinaryTree type="DecisionTree" boostWeight="1.0000000000000000e+00" itree="48">
      <Node pos="s" depth="0" NCoef="0" IVar="9" Cut="-2.1414549350738525e+00" cType="1" res="-2.7661153580993414e-04" rms="4.3305498361587524e-01" purity="5.0154674053192139e-01" nType="0">
        <Node pos="l" depth="1" NCoef="0" IVar="-1" Cut="0.0000000000000000e+00" cType="1" res="-2.8151391074061394e-02" rms="2.7668952941894531e-01" purity="1.9662727415561676e-01" nType="-99"/>
        <Node pos="r" depth="1" NCoef="0" IVar="4" Cut="9.9905067682266235e-01" cType="1" res="3.0124627519398928e-03" rms="4.3781110644340515e-01" purity="5.1370215415954590e-01" nType="0">
          <Node pos="l" depth="2" NCoef="0" IVar="-1" Cut="0.0000000000000000e+00" cType="1" res="-1.8829656764864922e-02" rms="4.5148420333862305e-01" purity="3.0968362092971802e-01" nType="-99"/>
          <Node pos="r" depth="2" NCoef="0" IVar="-1" Cut="0.0000000000000000e+00" cType="1" res="1.4539521653205156e-03" rms="4.3702867627143860e-01" purity="5.2117830514907837e-01" nType="-99"/>
        </Node>
      </Node>
    </BinaryTree>
    <BinaryTree type="DecisionTree" boostWeight="1.0000000000000000e+00" itree="49">
      <Node pos="s" depth="0" NCoef="0" IVar="11" Cut="-7.7957296371459961e-01" cType="1" res="7.2947645094245672e-04" rms="4.3135899305343628e-01" purity="5.0189632177352905e-01" nType="0">
        <Node pos="l" depth="1" NCoef="0" IVar="5" Cut="-4.2579162120819092e-01" cType="1" res="2.8965661302208900e-02" rms="4.3600887060165405e-01" purity="6.8767857551574707e-01" nType="0">
          <Node pos="l" depth="2" NCoef="0" IVar="-1" Cut="0.0000000000000000e+00" cType="1" res="-8.3070825785398483e-03" rms="4.5037937164306641e-01" purity="6.2694776058197021e-01" nType="-99"/>
          <Node pos="r" depth="2" NCoef="0" IVar="-1" Cut="0.0000000000000000e+00" cType="1" res="8.8213328272104263e-03" rms="4.3373385071754456e-01" purity="6.9467544555664062e-01" nType="-99"/>
        </Node>
        <Node pos="r" depth="1" NCoef="0" IVar="9" Cut="-7.1470999717712402e-01" cType="1" res="-1.1807059869170189e-02" rms="4.2868256568908691e-01" purity="4.1941112279891968e-01" nType="0">
          <Node pos="l" depth="2" NCoef="0" IVar="-1" Cut="0.0000000000000000e+00" cType="1" res="-1.7343835905194283e-02" rms="3.5823130607604980e-01" purity="2.2383283078670502e-01" nType="-99"/>
          <Node pos="r" depth="2" NCoef="0" IVar="-1" Cut="0.0000000000000000e+00" cType="1" res="-6.2768952921032906e-04" rms="4.4062396883964539e-01" purity="4.5786345005035400e-01" nType="-99"/>
        </Node>
      </Node>
    </BinaryTree>
    <BinaryTree type="DecisionTree" boostWeight="1.0000000000000000e+00" itree="50">
      <Node pos="s" depth="0" NCoef="0" IVar="9" Cut="1.8567566871643066e+00" cType="1" res="-2.0866960403509438e-04" rms="4.3112170696258545e-01" purity="4.9979591369628906e-01" nType="0">
        <Node pos="l" depth="1" NCoef="0" IVar="9" Cut="-1.8424721956253052e+00" cType="1" res="4.8226984217762947e-03" rms="4.3854475021362305e-01" purity="5.3024214506149292e-01" nType="0">
          <Node pos="l" depth="2" NCoef="0" IVar="-1" Cut="0.0000000000000000e+00" cType="1" res="-2.0462935790419579e-02" rms="3.0914607644081116e-01" purity="2.5166049599647522e-01" nType="-99"/>
          <Node pos="r" depth="2" NCoef="0" IVar="-1" Cut="0.0000000000000000e+00" cType="1" res="2.2815209813416004e-03" rms="4.4593042135238647e-01" purity="5.5000591278076172e-01" nType="-99"/>
        </Node>
        <Node pos="r" depth="1" NCoef="0" IVar="9" Cut="2.2923958301544189e+00" cType="1" res="-5.3140047937631607e-02" rms="3.3894455432891846e-01" purity="1.7949302494525909e-01" nType="0">
          <Node pos="l" depth="2" NCoef="0" IVar="-1" Cut="0.0000000000000000e+00" cType="1" res="-1.0320129804313183e-02" rms="3.8667410612106323e-01" purity="2.5125300884246826e-01" nType="-99"/>
          <Node pos="r" depth="2" NCoef="0" IVar="-1" Cut="0.0000000000000000e+00" cType="1" res="-2.4274887517094612e-02" rms="2.8755757212638855e-01" purity="1.1368762701749802e-01" nType="-99"/>
        </Node>
      </Node>
    </BinaryTree>
    <BinaryTree type="DecisionTree" boostWeight="1.0000000000000000e+00" itree="51">
      <Node pos="s" depth="0" NCoef="0" IVar="10" Cut="2.3120322227478027e+00" cType="1" res="-2.0432085730135441e-03" rms="4.3264991044998169e-01" purity="4.9893260002136230e-01" nType="0">
        <Node pos="l" depth="1" NCoef="0" IVar="5" Cut="-9.0473258495330811e-01" cType="1" res="-5.7746763341128826e-03" rms="4.2844480276107788e-01" purity="5.0072282552719116e-01" nType="0">
          <Node pos="l" depth="2" NCoef="0" IVar="-1" Cut="0.0000000000000000e+00" cType="1" res="-2.8252096846699715e-02" rms="3.1362289190292358e-01" purity="1.3900429010391235e-01" nType="-99"/>
          <Node pos="r" depth="2" NCoef="0" IVar="-1" Cut="0.0000000000000000e+00" cType="1" res="4.3649121653288603e-04" rms="4.3628776073455811e-01" purity="5.3250241279602051e-01" nType="-99"/>
        </Node>
        <Node pos="r" depth="1" NCoef="0" IVar="-1" Cut="0.0000000000000000e+00" cType="1" res="1.6165597364306450e-02" rms="5.0345236063003540e-01" purity="4.6330022811889648e-01" nType="-99"/>
      </Node>
    </BinaryTree>
    <BinaryTree type="DecisionTree" boostWeight="1.0000000000000000e+00" itree="52">
      <Node pos="s" depth="0" NCoef="0" IVar="11" Cut="-1.7118482589721680e+00" cType="1" res="-2.2584234829992056e-03" rms="4.3119302392005920e-01" purity="4.9705725908279419e-01" nType="0">
        <Node pos="l" depth="1" NCoef="0" IVar="1" Cut="-4.1262763552367687e-03" cType="1" res="4.1037935763597488e-02" rms="4.2951595783233643e-01" purity="7.1061468124389648e-01" nType="0">
          <Node pos="l" depth="2" NCoef="0" IVar="-1" Cut="0.0000000000000000e+00" cType="1" res="2.1764209493994713e-02" rms="3.9534828066825867e-01" purity="7.8091937303543091e-01" nType="-99"/>
          <Node pos="r" depth="2" NCoef="0" IVar="-1" Cut="0.0000000000000000e+00" cType="1" res="6.6520641557872295e-03" rms="4.3853738903999329e-01" purity="6.8903839588165283e-01" nType="-99"/>
        </Node>
        <Node pos="r" depth="1" NCoef="0" IVar="5" Cut="3.3331203460693359e-01" cType="1" res="-7.8230639919638634e-03" rms="4.3109282851219177e-01" purity="4.6960997581481934e-01" nType="0">
          <Node pos="l" depth="2" NCoef="0" IVar="-1" Cut="0.0000000000000000e+00" cType="1" res="5.8440468274056911e-04" rms="4.2772883176803589e-01" purity="4.8905119299888611e-01" nType="-99"/>
          <Node pos="r" depth="2" NCoef="0" IVar="-1" Cut="0.0000000000000000e+00" cType="1" res="-1.0647317394614220e-02" rms="4.4101232290267944e-01" purity="4.0010291337966919e-01" nType="-99"/>
        </Node>
      </Node>
    </BinaryTree>
    <BinaryTree type="DecisionTree" boostWeight="1.0000000000000000e+00" itree="53">
      <Node pos="s" depth="0" NCoef="0" IVar="8" Cut="5.3297203779220581e-01" cType="1" res="-1.5936809359118342e-03" rms="4.2979702353477478e-01" purity="4.9763274192810059e-01" nType="0">
        <Node pos="l" depth="1" NCoef="0" IVar="6" Cut="-9.5142523193359375e+02" cType="1" res="-1.8887838348746300e-02" rms="4.1851362586021423e-01" purity="3.5830107331275940e-01" nType="0">
          <Node pos="l" depth="2" NCoef="0" IVar="-1" Cut="0.0000000000000000e+00" cType="1" res="-1.3293694937601686e-03" rms="4.2120867967605591e-01" purity="3.7723240256309509e-01" nType="-99"/>
          <Node pos="r" depth="2" NCoef="0" IVar="-1" Cut="0.0000000000000000e+00" cType="1" res="-3.2638508826494217e-02" rms="3.8083747029304504e-01" purity="2.1203210949897766e-01" nType="-99"/>
        </Node>
        <Node pos="r" depth="1" NCoef="0" IVar="6" Cut="-9.9602866172790527e-01" cType="1" res="1.9776873290538788e-02" rms="4.4241064786911011e-01" purity="6.6980618238449097e-01" nType="0">
          <Node pos="l" depth="2" NCoef="0" IVar="-1" Cut="0.0000000000000000e+00" cType="1" res="-1.3183102011680603e-02" rms="4.6903750300407410e-01" purity="5.6654316186904907e-01" nType="-99"/>
          <Node pos="r" depth="2" NCoef="0" IVar="-1" Cut="0.0000000000000000e+00" cType="1" res="7.1508162654936314e-03" rms="4.3816211819648743e-01" purity="6.8235939741134644e-01" nType="-99"/>
        </Node>
      </Node>
    </BinaryTree>
    <BinaryTree type="DecisionTree" boostWeight="1.0000000000000000e+00" itree="54">
      <Node pos="s" depth="0" NCoef="0" IVar="10" Cut="-3.9047870635986328e+00" cType="1" res="-1.1471974430605769e-03" rms="4.3097883462905884e-01" purity="4.9862182140350342e-01" nType="0">
        <Node pos="l" depth="1" NCoef="0" IVar="11" Cut="-2.4745459556579590e+00" cType="1" res="3.5923767834901810e-02" rms="4.3123751878738403e-01" purity="7.1198433637619019e-01" nType="0">
          <Node pos="l" depth="2" NCoef="0" IVar="-1" Cut="0.0000000000000000e+00" cType="1" res="1.9844762980937958e-02" rms="4.1607239842414856e-01" purity="7.3505806922912598e-01" nType="-99"/>
          <Node pos="r" depth="2" NCoef="0" IVar="-1" Cut="0.0000000000000000e+00" cType="1" res="6.1681354418396950e-03" rms="4.3413731455802917e-01" purity="7.0630496740341187e-01" nType="-99"/>
        </Node>
        <Node pos="r" depth="1" NCoef="0" IVar="9" Cut="-9.9873679876327515e-01" cType="1" res="-7.7813179232180119e-03" rms="4.3059596419334412e-01" purity="4.6043902635574341e-01" nType="0">
          <Node pos="l" depth="2" NCoef="0" IVar="-1" Cut="0.0000000000000000e+00" cType="1" res="-1.7977153882384300e-02" rms="3.5237696766853333e-01" purity="2.4916218221187592e-01" nType="-99"/>
          <Node pos="r" depth="2" NCoef="0" IVar="-1" Cut="0.0000000000000000e+00" cType="1" res="3.1857962312642485e-05" rms="4.4104334712028503e-01" purity="4.9345186352729797e-01" nType="-99"/>
        </Node>
      </Node>
    </BinaryTree>
    <BinaryTree type="DecisionTree" boostWeight="1.0000000000000000e+00" itree="55">
      <Node pos="s" depth="0" NCoef="0" IVar="1" Cut="1.9332723692059517e-02" cType="1" res="1.8325208220630884e-03" rms="4.3225461244583130e-01" purity="5.0404000282287598e-01" nType="0">
        <Node pos="l" depth="1" NCoef="0" IVar="1" Cut="-5.3722178563475609e-03" cType="1" res="-3.2895954791456461e-03" rms="4.3284881114959717e-01" purity="4.9885514378547668e-01" nType="0">
          <Node pos="l" depth="2" NCoef="0" IVar="-1" Cut="0.0000000000000000e+00" cType="1" res="1.1450937949120998e-02" rms="4.2967301607131958e-01" purity="5.4855519533157349e-01" nType="-99"/>
          <Node pos="r" depth="2" NCoef="0" IVar="-1" Cut="0.0000000000000000e+00" cType="1" res="-5.1984474994242191e-03" rms="4.3264132738113403e-01" purity="4.8109599947929382e-01" nType="-99"/>
        </Node>
        <Node pos="r" depth="1" NCoef="0" IVar="1" Cut="4.1789703071117401e-02" cType="1" res="5.0423096865415573e-02" rms="4.2350631952285767e-01" purity="5.5322569608688354e-01" nType="0">
          <Node pos="l" depth="2" NCoef="0" IVar="-1" Cut="0.0000000000000000e+00" cType="1" res="2.6671908795833588e-02" rms="4.1154253482818604e-01" purity="6.2491726875305176e-01" nType="-99"/>
          <Node pos="r" depth="2" NCoef="0" IVar="-1" Cut="0.0000000000000000e+00" cType="1" res="-8.1094512715935707e-03" rms="4.2762729525566101e-01" purity="4.4765263795852661e-01" nType="-99"/>
        </Node>
      </Node>
    </BinaryTree>
    <BinaryTree type="DecisionTree" boostWeight="1.0000000000000000e+00" itree="56">
      <Node pos="s" depth="0" NCoef="0" IVar="11" Cut="-2.0643632411956787e+00" cType="1" res="-1.3991823652759194e-03" rms="4.3062686920166016e-01" purity="4.9844810366630554e-01" nType="0">
        <Node pos="l" depth="1" NCoef="0" IVar="5" Cut="3.9064976572990417e-01" cType="1" res="5.4482053965330124e-02" rms="4.1945934295654297e-01" purity="7.2856485843658447e-01" nType="0">
          <Node pos="l" depth="2" NCoef="0" IVar="-1" Cut="0.0000000000000000e+00" cType="1" res="2.3244539275765419e-02" rms="3.6238425970077515e-01" purity="8.4251475334167480e-01" nType="-99"/>
          <Node pos="r" depth="2" NCoef="0" IVar="-1" Cut="0.0000000000000000e+00" cType="1" res="5.7173240929841995e-03" rms="4.6755111217498779e-01" purity="6.1527407169342041e-01" nType="-99"/>
        </Node>
        <Node pos="r" depth="1" NCoef="0" IVar="9" Cut="-1.5698417425155640e+00" cType="1" res="-5.3258645348250866e-03" rms="4.3112847208976746e-01" purity="4.8227816820144653e-01" nType="0">
          <Node pos="l" depth="2" NCoef="0" IVar="-1" Cut="0.0000000000000000e+00" cType="1" res="-2.5406926870346069e-02" rms="2.9252272844314575e-01" purity="1.4780050516128540e-01" nType="-99"/>
          <Node pos="r" depth="2" NCoef="0" IVar="-1" Cut="0.0000000000000000e+00" cType="1" res="-2.0703110203612596e-04" rms="4.3892908096313477e-01" purity="5.0592666864395142e-01" nType="-99"/>
        </Node>
      </Node>
    </BinaryTree>
    <BinaryTree type="DecisionTree" boostWeight="1.0000000000000000e+00" itree="57">
      <Node pos="s" depth="0" NCoef="0" IVar="9" Cut="2.1424231529235840e+00" cType="1" res="2.9029909637756646e-04" rms="4.3188449740409851e-01" purity="5.0115436315536499e-01" nType="0">
        <Node pos="l" depth="1" NCoef="0" IVar="5" Cut="-6.1904489994049072e-01" cType="1" res="3.4851857926696539e-03" rms="4.3859389424324036e-01" purity="5.2422237396240234e-01" nType="0">
          <Node pos="l" depth="2" NCoef="0" IVar="-1" Cut="0.0000000000000000e+00" cType="1" res="-3.3257065806537867e-03" rms="4.2844402790069580e-01" purity="3.4150475263595581e-01" nType="-99"/>
          <Node pos="r" depth="2" NCoef="0" IVar="-1" Cut="0.0000000000000000e+00" cType="1" res="3.0816814396530390e-03" rms="4.4391098618507385e-01" purity="6.2657821178436279e-01" nType="-99"/>
        </Node>
        <Node pos="r" depth="1" NCoef="0" IVar="-1" Cut="0.0000000000000000e+00" cType="1" res="-1.8550368025898933e-02" rms="2.9985269904136658e-01" purity="1.3060888648033142e-01" nType="-99"/>
      </Node>
    </BinaryTree>
    <BinaryTree type="DecisionTree" boostWeight="1.0000000000000000e+00" itree="58">
      <Node pos="s" depth="0" NCoef="0" IVar="5" Cut="4.2848202586174011e-01" cType="1" res="3.4307772293686867e-03" rms="4.3055811524391174e-01" purity="5.0366294384002686e-01" nType="0">
        <Node pos="l" depth="1" NCoef="0" IVar="5" Cut="-5.9185194969177246e-01" cType="1" res="1.0886774398386478e-02" rms="4.2613399028778076e-01" purity="5.2552491426467896e-01" nType="0">
          <Node pos="l" depth="2" NCoef="0" IVar="-1" Cut="0.0000000000000000e+00" cType="1" res="-2.0307407248765230e-03" rms="4.2673826217651367e-01" purity="3.4850254654884338e-01" nType="-99"/>
          <Node pos="r" depth="2" NCoef="0" IVar="-1" Cut="0.0000000000000000e+00" cType="1" res="6.9441474042832851e-03" rms="4.2493289709091187e-01" purity="6.7973506450653076e-01" nType="-99"/>
        </Node>
        <Node pos="r" depth="1" NCoef="0" IVar="11" Cut="-6.6341757774353027e-01" cType="1" res="-2.3540213704109192e-02" rms="4.4515383243560791e-01" purity="4.2458036541938782e-01" nType="0">
          <Node pos="l" depth="2" NCoef="0" IVar="-1" Cut="0.0000000000000000e+00" cType="1" res="-1.9452835840638727e-04" rms="4.7297519445419312e-01" purity="5.4161566495895386e-01" nType="-99"/>
          <Node pos="r" depth="2" NCoef="0" IVar="-1" Cut="0.0000000000000000e+00" cType="1" res="-1.5068190172314644e-02" rms="4.0083768963813782e-01" purity="2.6070806384086609e-01" nType="-99"/>
        </Node>
      </Node>
    </BinaryTree>
    <BinaryTree type="DecisionTree" boostWeight="1.0000000000000000e+00" itree="59">
      <Node pos="s" depth="0" NCoef="0" IVar="2" Cut="1.7395637929439545e-01" cType="1" res="-1.1722763301804662e-03" rms="4.3134453892707825e-01" purity="4.9905499815940857e-01" nType="0">
        <Node pos="l" depth="1" NCoef="0" IVar="8" Cut="1.6618535518646240e+00" cType="1" res="1.2869987403973937e-03" rms="4.3059593439102173e-01" purity="5.0192219018936157e-01" nType="0">
          <Node pos="l" depth="2" NCoef="0" IVar="-1" Cut="0.0000000000000000e+00" cType="1" res="-2.1289414726197720e-03" rms="4.2423778772354126e-01" purity="3.8875591754913330e-01" nType="-99"/>
          <Node pos="r" depth="2" NCoef="0" IVar="-1" Cut="0.0000000000000000e+00" cType="1" res="4.4585843570530415e-03" rms="4.4079658389091492e-01" purity="6.9598543643951416e-01" nType="-99"/>
        </Node>
        <Node pos="r" depth="1" NCoef="0" IVar="-1" Cut="0.0000000000000000e+00" cType="1" res="-1.9536487758159637e-02" rms="4.4743052124977112e-01" purity="4.0870916843414307e-01" nType="-99"/>
      </Node>
    </BinaryTree>
    <BinaryTree type="DecisionTree" boostWeight="1.0000000000000000e+00" itree="60">
      <Node pos="s" depth="0" NCoef="0" IVar="9" Cut="1.8566584587097168e+00" cType="1" res="8.9910486713051796e-04" rms="4.2844101786613464e-01" purity="5.0019747018814087e-01" nType="0">
        <Node pos="l" depth="1" NCoef="0" IVar="5" Cut="-9.0473556518554688e-01" cType="1" res="4.9399579875171185e-03" rms="4.3586087226867676e-01" purity="5.3069674968719482e-01" nType="0">
          <Node pos="l" depth="2" NCoef="0" IVar="-1" Cut="0.0000000000000000e+00" cType="1" res="-9.2069674283266068e-03" rms="3.9097985625267029e-01" purity="2.4128369987010956e-01" nType="-99"/>
          <Node pos="r" depth="2" NCoef="0" IVar="-1" Cut="0.0000000000000000e+00" cType="1" res="2.4878997355699539e-03" rms="4.4153627753257751e-01" purity="5.7128554582595825e-01" nType="-99"/>
        </Node>
        <Node pos="r" depth="1" NCoef="0" IVar="7" Cut="-9.4897729492187500e+02" cType="1" res="-4.1853968054056168e-02" rms="3.3720955252647400e-01" purity="1.7750790715217590e-01" nType="0">
          <Node pos="l" depth="2" NCoef="0" IVar="-1" Cut="0.0000000000000000e+00" cType="1" res="-2.0847156643867493e-02" rms="3.1672921776771545e-01" purity="1.1944576352834702e-01" nType="-99"/>
          <Node pos="r" depth="2" NCoef="0" IVar="-1" Cut="0.0000000000000000e+00" cType="1" res="-5.7952934876084328e-03" rms="3.5989600419998169e-01" purity="2.5026753544807434e-01" nType="-99"/>
        </Node>
      </Node>
    </BinaryTree>
    <BinaryTree type="DecisionTree" boostWeight="1.0000000000000000e+00" itree="61">
      <Node pos="s" depth="0" NCoef="0" IVar="5" Cut="-5.2394592761993408e-01" cType="1" res="-4.2350078001618385e-03" rms="4.2952749133110046e-01" purity="4.9575772881507874e-01" nType="0">
        <Node pos="l" depth="1" NCoef="0" IVar="10" Cut="1.5851618051528931e+00" cType="1" res="-1.9713891670107841e-02" rms="4.2417287826538086e-01" purity="3.5503286123275757e-01" nType="0">
          <Node pos="l" depth="2" NCoef="0" IVar="-1" Cut="0.0000000000000000e+00" cType="1" res="-8.2757174968719482e-03" rms="4.0847614407539368e-01" purity="3.4313282370567322e-01" nType="-99"/>
          <Node pos="r" depth="2" NCoef="0" IVar="-1" Cut="0.0000000000000000e+00" cType="1" res="8.5421735420823097e-03" rms="4.9069732427597046e-01" purity="4.1397500038146973e-01" nType="-99"/>
        </Node>
        <Node pos="r" depth="1" NCoef="0" IVar="5" Cut="8.5428506135940552e-01" cType="1" res="6.1501180753111839e-03" rms="4.3277269601821899e-01" purity="5.9017318487167358e-01" nType="0">
          <Node pos="l" depth="2" NCoef="0" IVar="-1" Cut="0.0000000000000000e+00" cType="1" res="3.3328940626233816e-03" rms="4.3505820631980896e-01" purity="6.2428492307662964e-01" nType="-99"/>
          <Node pos="r" depth="2" NCoef="0" IVar="-1" Cut="0.0000000000000000e+00" cType="1" res="-1.8609879538416862e-02" rms="3.9887848496437073e-01" purity="2.1985255181789398e-01" nType="-99"/>
        </Node>
      </Node>
    </BinaryTree>
    <BinaryTree type="DecisionTree" boostWeight="1.0000000000000000e+00" itree="62">
      <Node pos="s" depth="0" NCoef="0" IVar="9" Cut="-2.1412117481231689e+00" cType="1" res="2.0622014999389648e-03" rms="4.3043866753578186e-01" purity="5.0249284505844116e-01" nType="0">
        <Node pos="l" depth="1" NCoef="0" IVar="-1" Cut="0.0000000000000000e+00" cType="1" res="-2.2383576259016991e-02" rms="2.5470560789108276e-01" purity="1.8225979804992676e-01" nType="-99"/>
        <Node pos="r" depth="1" NCoef="0" IVar="10" Cut="2.0165727138519287e+00" cType="1" res="4.4061671942472458e-03" rms="4.3584316968917847e-01" purity="5.1532441377639771e-01" nType="0">
          <Node pos="l" depth="2" NCoef="0" IVar="-1" Cut="0.0000000000000000e+00" cType="1" res="3.4972434514202178e-04" rms="4.3128293752670288e-01" purity="5.1918590068817139e-01" nType="-99"/>
          <Node pos="r" depth="2" NCoef="0" IVar="-1" Cut="0.0000000000000000e+00" cType="1" res="1.2502680532634258e-02" rms="5.0421243906021118e-01" purity="4.4984525442123413e-01" nType="-99"/>
        </Node>
      </Node>
    </BinaryTree>
    <BinaryTree type="DecisionTree" boostWeight="1.0000000000000000e+00" itree="63">
      <Node pos="s" depth="0" NCoef="0" IVar="10" Cut="1.9295425415039062e+00" cType="1" res="-2.9202853329479694e-03" rms="4.3106380105018616e-01" purity="4.9651128053665161e-01" nType="0">
        <Node pos="l" depth="1" NCoef="0" IVar="5" Cut="-9.0477240085601807e-01" cType="1" res="-5.9769521467387676e-03" rms="4.2632079124450684e-01" purity="4.9981158971786499e-01" nType="0">
          <Node pos="l" depth="2" NCoef="0" IVar="-1" Cut="0.0000000000000000e+00" cType="1" res="-2.2475449368357658e-02" rms="3.1307542324066162e-01" purity="1.3912956416606903e-01" nType="-99"/>
          <Node pos="r" depth="2" NCoef="0" IVar="-1" Cut="0.0000000000000000e+00" cType="1" res="-2.6593892835080624e-04" rms="4.3380606174468994e-01" purity="5.2894043922424316e-01" nType="-99"/>
        </Node>
        <Node pos="r" depth="1" NCoef="0" IVar="6" Cut="-9.5128649902343750e+02" cType="1" res="4.8030149191617966e-02" rms="5.0084817409515381e-01" purity="4.4150030612945557e-01" nType="0">
          <Node pos="l" depth="2" NCoef="0" IVar="-1" Cut="0.0000000000000000e+00" cType="1" res="3.5004794597625732e-02" rms="4.8719114065170288e-01" purity="4.0997824072837830e-01" nType="-99"/>
          <Node pos="r" depth="2" NCoef="0" IVar="-1" Cut="0.0000000000000000e+00" cType="1" res="-9.1677270829677582e-03" rms="4.9788656830787659e-01" purity="4.7446504235267639e-01" nType="-99"/>
        </Node>
      </Node>
    </BinaryTree>
    <BinaryTree type="DecisionTree" boostWeight="1.0000000000000000e+00" itree="64">
      <Node pos="s" depth="0" NCoef="0" IVar="9" Cut="1.5716575384140015e+00" cType="1" res="1.7373297596350312e-03" rms="4.3053206801414490e-01" purity="5.0439739227294922e-01" nType="0">
        <Node pos="l" depth="1" NCoef="0" IVar="5" Cut="-9.0472263097763062e-01" cType="1" res="6.6768657416105270e-03" rms="4.3825635313987732e-01" purity="5.4287105798721313e-01" nType="0">
          <Node pos="l" depth="2" NCoef="0" IVar="-1" Cut="0.0000000000000000e+00" cType="1" res="-7.1850912645459175e-03" rms="3.9159956574440002e-01" purity="2.4541211128234863e-01" nType="-99"/>
          <Node pos="r" depth="2" NCoef="0" IVar="-1" Cut="0.0000000000000000e+00" cType="1" res="2.7414856012910604e-03" rms="4.4432014226913452e-01" purity="5.8524560928344727e-01" nType="-99"/>
        </Node>
        <Node pos="r" depth="1" NCoef="0" IVar="7" Cut="-9.4847357177734375e+02" cType="1" res="-3.3292971551418304e-02" rms="3.6927783489227295e-01" purity="2.3154829442501068e-01" nType="0">
          <Node pos="l" depth="2" NCoef="0" IVar="-1" Cut="0.0000000000000000e+00" cType="1" res="-1.5199771150946617e-02" rms="3.4911593794822693e-01" purity="1.5695479512214661e-01" nType="-99"/>
          <Node pos="r" depth="2" NCoef="0" IVar="-1" Cut="0.0000000000000000e+00" cType="1" res="-4.7520822845399380e-03" rms="3.9036849141120911e-01" purity="3.1663221120834351e-01" nType="-99"/>
        </Node>
