<?xml version="1.0"?>
<MethodSetup Method="BDT::BDTG">
  <GeneralInfo>
    <Info name="TMVA Release" value="4.2.1 [262657]"/>
    <Info name="ROOT Release" value="6.22/03 [398851]"/>
    <Info name="Creator" value="gianp"/>
    <Info name="Date" value="Tue Sep 15 13:04:11 2020"/>
    <Info name="Host" value="Linux ubuntu 5.4.0-47-generic #51-Ubuntu SMP Fri Sep 4 19:50:52 UTC 2020 x86_64 x86_64 x86_64 GNU/Linux"/>
    <Info name="Dir" value="/home/gianp/Desktop/project"/>
    <Info name="Training events" value="86244"/>
    <Info name="TrainingTime" value="6.67596419e+01"/>
    <Info name="AnalysisType" value="Classification"/>
  </GeneralInfo>
  <Options>
    <Option name="V" modified="Yes">False</Option>
    <Option name="VerbosityLevel" modified="No">Default</Option>
    <Option name="VarTransform" modified="No">None</Option>
    <Option name="H" modified="Yes">False</Option>
    <Option name="CreateMVAPdfs" modified="No">False</Option>
    <Option name="IgnoreNegWeightsInTraining" modified="No">False</Option>
    <Option name="NTrees" modified="Yes">1000</Option>
    <Option name="MaxDepth" modified="Yes">2</Option>
    <Option name="MinNodeSize" modified="Yes">2.5%</Option>
    <Option name="nCuts" modified="Yes">20</Option>
    <Option name="BoostType" modified="Yes">Grad</Option>
    <Option name="AdaBoostR2Loss" modified="No">quadratic</Option>
    <Option name="UseBaggedBoost" modified="Yes">True</Option>
    <Option name="Shrinkage" modified="Yes">1.000000e-01</Option>
    <Option name="AdaBoostBeta" modified="No">5.000000e-01</Option>
    <Option name="UseRandomisedTrees" modified="No">False</Option>
    <Option name="UseNvars" modified="No">4</Option>
    <Option name="UsePoissonNvars" modified="No">True</Option>
    <Option name="BaggedSampleFraction" modified="Yes">5.000000e-01</Option>
    <Option name="UseYesNoLeaf" modified="No">True</Option>
    <Option name="NegWeightTreatment" modified="No">pray</Option>
    <Option name="Css" modified="No">1.000000e+00</Option>
    <Option name="Cts_sb" modified="No">1.000000e+00</Option>
    <Option name="Ctb_ss" modified="No">1.000000e+00</Option>
    <Option name="Cbb" modified="No">1.000000e+00</Option>
    <Option name="NodePurityLimit" modified="No">5.000000e-01</Option>
    <Option name="SeparationType" modified="No">giniindex</Option>
    <Option name="RegressionLossFunctionBDTG" modified="No">huber</Option>
    <Option name="HuberQuantile" modified="No">7.000000e-01</Option>
    <Option name="DoBoostMonitor" modified="No">False</Option>
    <Option name="UseFisherCuts" modified="No">False</Option>
    <Option name="MinLinCorrForFisher" modified="No">8.000000e-01</Option>
    <Option name="UseExclusiveVars" modified="No">False</Option>
    <Option name="DoPreselection" modified="No">False</Option>
    <Option name="SigToBkgFraction" modified="No">1.000000e+00</Option>
    <Option name="PruneMethod" modified="No">nopruning</Option>
    <Option name="PruneStrength" modified="No">0.000000e+00</Option>
    <Option name="PruningValFraction" modified="No">5.000000e-01</Option>
    <Option name="SkipNormalization" modified="No">False</Option>
    <Option name="nEventsMin" modified="No">0</Option>
    <Option name="UseBaggedGrad" modified="No">False</Option>
    <Option name="GradBaggingFraction" modified="No">5.000000e-01</Option>
    <Option name="UseNTrainEvents" modified="No">0</Option>
    <Option name="NNodesMax" modified="No">0</Option>
  </Options>
  <Variables NVar="12">
    <Variable VarIndex="0" Expression="massK0S" Label="massK0S" Title="massK0S" Unit="" Internal="massK0S" Type="F" Min="4.87615049e-01" Max="5.07613242e-01"/>
    <Variable VarIndex="1" Expression="tImpParBach" Label="tImpParBach" Title="tImpParBach" Unit="" Internal="tImpParBach" Type="F" Min="-4.98455882e-01" Max="4.93942201e-01"/>
    <Variable VarIndex="2" Expression="tImpParV0" Label="tImpParV0" Title="tImpParV0" Unit="" Internal="tImpParV0" Type="F" Min="-1.28473234e+00" Max="1.44011891e+00"/>
    <Variable VarIndex="3" Expression="DecayLengthK0S*0.497/v0P" Label="CtK0S" Title="CtK0S" Unit="" Internal="CtK0S" Type="F" Min="4.38676402e-02" Max="3.60093651e+01"/>
    <Variable VarIndex="4" Expression="cosPAK0S" Label="cosPAK0S" Title="cosPAK0S" Unit="" Internal="cosPAK0S" Type="F" Min="9.90011334e-01" Max="1.00000000e+00"/>
    <Variable VarIndex="5" Expression="CosThetaStar" Label="CosThetaStar" Title="CosThetaStar" Unit="" Internal="CosThetaStar" Type="F" Min="-9.99988735e-01" Max="9.99975502e-01"/>
    <Variable VarIndex="6" Expression="nSigmaTOFpr" Label="nSigmaTOFpr" Title="nSigmaTOFpr" Unit="" Internal="nSigmaTOFpr" Type="F" Min="-9.99000000e+02" Max="2.99782920e+00"/>
    <Variable VarIndex="7" Expression="nSigmaTOFpi" Label="nSigmaTOFpi" Title="nSigmaTOFpi" Unit="" Internal="nSigmaTOFpi" Type="F" Min="-9.99000000e+02" Max="4.15557098e+01"/>
    <Variable VarIndex="8" Expression="nSigmaTOFka" Label="nSigmaTOFka" Title="nSigmaTOFka" Unit="" Internal="nSigmaTOFka" Type="F" Min="-9.99000000e+02" Max="2.94402599e+01"/>
    <Variable VarIndex="9" Expression="nSigmaTPCpr" Label="nSigmaTPCpr" Title="nSigmaTPCpr" Unit="" Internal="nSigmaTPCpr" Type="F" Min="-2.99675727e+00" Max="2.99947619e+00"/>
    <Variable VarIndex="10" Expression="nSigmaTPCpi" Label="nSigmaTPCpi" Title="nSigmaTPCpi" Unit="" Internal="nSigmaTPCpi" Type="F" Min="-6.92816687e+00" Max="6.18016386e+00"/>
    <Variable VarIndex="11" Expression="nSigmaTPCka" Label="nSigmaTPCka" Title="nSigmaTPCka" Unit="" Internal="nSigmaTPCka" Type="F" Min="-4.39205885e+00" Max="7.66056585e+00"/>
  </Variables>
  <Spectators NSpec="13">
    <Spectator SpecIndex="0" Expression="massLc2K0Sp" Label="massLc2K0Sp" Title="mass Lc--&gt;K0S+p" Unit="F" Internal="massLc2K0Sp" Type="F" Min="2.08647633e+00" Max="2.48644042e+00"/>
    <Spectator SpecIndex="1" Expression="LcPt" Label="LcPt" Title="Lc Pt" Unit="F" Internal="LcPt" Type="F" Min="8.00006008e+00" Max="1.19998846e+01"/>
    <Spectator SpecIndex="2" Expression="massLc2Lambdapi" Label="massLc2Lambdapi" Title="mass Lc --&gt;L(1520)+pi" Unit="F" Internal="massLc2Lambdapi" Type="F" Min="1.25882065e+00" Max="4.32621956e+00"/>
    <Spectator SpecIndex="3" Expression="massLambda" Label="massLambda" Title="mass V0 = Lambda" Unit="F" Internal="massLambda" Type="F" Min="1.12069142e+00" Max="2.40526557e+00"/>
    <Spectator SpecIndex="4" Expression="massLambdaBar" Label="massLambdaBar" Title="mass V0 = LambdaBar" Unit="F" Internal="massLambdaBar" Type="F" Min="1.12068796e+00" Max="2.43118048e+00"/>
    <Spectator SpecIndex="5" Expression="V0positivePt" Label="V0positivePt" Title="V0 positive Pt" Unit="F" Internal="V0positivePt" Type="F" Min="1.22504212e-01" Max="8.40195179e+00"/>
    <Spectator SpecIndex="6" Expression="V0negativePt" Label="V0negativePt" Title="V0 negative Pt" Unit="F" Internal="V0negativePt" Type="F" Min="1.21000938e-01" Max="8.31040001e+00"/>
    <Spectator SpecIndex="7" Expression="dcaV0pos" Label="dcaV0pos" Title="dca V0 positive" Unit="F" Internal="dcaV0pos" Type="F" Min="5.00004701e-02" Max="4.09115601e+01"/>
    <Spectator SpecIndex="8" Expression="dcaV0neg" Label="dcaV0neg" Title="dca V0 negative" Unit="F" Internal="dcaV0neg" Type="F" Min="5.00111543e-02" Max="4.35233459e+01"/>
    <Spectator SpecIndex="9" Expression="v0Pt" Label="v0Pt" Title="K0S Pt" Unit="F" Internal="v0Pt" Type="F" Min="3.14371705e-01" Max="1.02369871e+01"/>
    <Spectator SpecIndex="10" Expression="dcaV0" Label="dcaV0" Title="dca V0" Unit="F" Internal="dcaV0" Type="F" Min="3.47678878e-07" Max="1.49154174e+00"/>
    <Spectator SpecIndex="11" Expression="V0positiveEta" Label="V0positiveEta" Title="V0pos Eta" Unit="F" Internal="V0positiveEta" Type="F" Min="-7.99986899e-01" Max="7.99958944e-01"/>
    <Spectator SpecIndex="12" Expression="bachelorEta" Label="bachelorEta" Title="eta bachelor" Unit="F" Internal="bachelorEta" Type="F" Min="-7.99917996e-01" Max="7.99991488e-01"/>
  </Spectators>
  <Classes NClass="2">
    <Class Name="Signal" Index="0"/>
    <Class Name="Background" Index="1"/>
  </Classes>
  <Transformations NTransformations="0"/>
  <MVAPdfs/>
  <Weights NTrees="1000" AnalysisType="1">
    <BinaryTree type="DecisionTree" boostWeight="1.0000000000000000e+00" itree="0">
      <Node pos="s" depth="0" NCoef="0" IVar="10" Cut="-2.4689433574676514e+00" cType="1" res="-1.7509957542642951e-03" rms="4.9999693036079407e-01" purity="4.9824899435043335e-01" nType="0">
        <Node pos="l" depth="1" NCoef="0" IVar="5" Cut="7.1413666009902954e-01" cType="1" res="1.4352695643901825e-01" rms="4.7895720601081848e-01" purity="6.4352691173553467e-01" nType="0">
          <Node pos="l" depth="2" NCoef="0" IVar="-1" Cut="0.0000000000000000e+00" cType="1" res="3.7223830819129944e-02" rms="4.6406859159469604e-01" purity="6.8611919879913330e-01" nType="-99"/>
          <Node pos="r" depth="2" NCoef="0" IVar="-1" Cut="0.0000000000000000e+00" cType="1" res="-1.7834877595305443e-02" rms="4.9198365211486816e-01" purity="4.1082561016082764e-01" nType="-99"/>
        </Node>
        <Node pos="r" depth="1" NCoef="0" IVar="6" Cut="-9.5128582763671875e+02" cType="1" res="-2.1773467957973480e-01" rms="4.5010176301002502e-01" purity="2.8226533532142639e-01" nType="0">
          <Node pos="l" depth="2" NCoef="0" IVar="-1" Cut="0.0000000000000000e+00" cType="1" res="-6.2847264111042023e-02" rms="3.8891586661338806e-01" purity="1.8576367199420929e-01" nType="-99"/>
          <Node pos="r" depth="2" NCoef="0" IVar="-1" Cut="0.0000000000000000e+00" cType="1" res="-1.6694679856300354e-02" rms="4.9298295378684998e-01" purity="4.1652661561965942e-01" nType="-99"/>
        </Node>
      </Node>
    </BinaryTree>
    <BinaryTree type="DecisionTree" boostWeight="1.0000000000000000e+00" itree="1">
      <Node pos="s" depth="0" NCoef="0" IVar="11" Cut="2.9811850190162659e-01" cType="1" res="2.3763482458889484e-03" rms="4.9168369174003601e-01" purity="5.0217586755752563e-01" nType="0">
        <Node pos="l" depth="1" NCoef="0" IVar="5" Cut="7.1420979499816895e-01" cType="1" res="1.1300422251224518e-01" rms="4.8088365793228149e-01" purity="6.2274259328842163e-01" nType="0">
          <Node pos="l" depth="2" NCoef="0" IVar="-1" Cut="0.0000000000000000e+00" cType="1" res="3.1678181141614914e-02" rms="4.6739527583122253e-01" purity="6.7155450582504272e-01" nType="-99"/>
          <Node pos="r" depth="2" NCoef="0" IVar="-1" Cut="0.0000000000000000e+00" cType="1" res="-2.6027088984847069e-02" rms="4.7963023185729980e-01" purity="3.5996946692466736e-01" nType="-99"/>
        </Node>
        <Node pos="r" depth="1" NCoef="0" IVar="6" Cut="-9.5128613281250000e+02" cType="1" res="-2.3750619590282440e-01" rms="4.2479124665260315e-01" purity="2.4074220657348633e-01" nType="0">
          <Node pos="l" depth="2" NCoef="0" IVar="-1" Cut="0.0000000000000000e+00" cType="1" res="-6.2835246324539185e-02" rms="3.6288326978683472e-01" purity="1.5615595877170563e-01" nType="-99"/>
          <Node pos="r" depth="2" NCoef="0" IVar="-1" Cut="0.0000000000000000e+00" cType="1" res="-2.4041729047894478e-02" rms="4.8339584469795227e-01" purity="3.7230205535888672e-01" nType="-99"/>
        </Node>
      </Node>
    </BinaryTree>
    <BinaryTree type="DecisionTree" boostWeight="1.0000000000000000e+00" itree="2">
      <Node pos="s" depth="0" NCoef="0" IVar="10" Cut="-1.8536593914031982e+00" cType="1" res="2.9714661650359631e-03" rms="4.8440825939178467e-01" purity="5.0282675027847290e-01" nType="0">
        <Node pos="l" depth="1" NCoef="0" IVar="5" Cut="8.0950611829757690e-01" cType="1" res="9.9421516060829163e-02" rms="4.7977158427238464e-01" purity="6.1752587556838989e-01" nType="0">
          <Node pos="l" depth="2" NCoef="0" IVar="-1" Cut="0.0000000000000000e+00" cType="1" res="2.5980746373534203e-02" rms="4.7241991758346558e-01" purity="6.5211313962936401e-01" nType="-99"/>
          <Node pos="r" depth="2" NCoef="0" IVar="-1" Cut="0.0000000000000000e+00" cType="1" res="-3.2948326319456100e-02" rms="4.6307948231697083e-01" purity="3.1250077486038208e-01" nType="-99"/>
        </Node>
        <Node pos="r" depth="1" NCoef="0" IVar="6" Cut="-9.5128613281250000e+02" cType="1" res="-2.3611389100551605e-01" rms="4.0683123469352722e-01" purity="2.1850483119487762e-01" nType="0">
          <Node pos="l" depth="2" NCoef="0" IVar="-1" Cut="0.0000000000000000e+00" cType="1" res="-6.2498576939105988e-02" rms="3.3781930804252625e-01" purity="1.3238176703453064e-01" nType="-99"/>
          <Node pos="r" depth="2" NCoef="0" IVar="-1" Cut="0.0000000000000000e+00" cType="1" res="-1.9779972732067108e-02" rms="4.8491743206977844e-01" purity="3.8334602117538452e-01" nType="-99"/>
        </Node>
      </Node>
    </BinaryTree>
    <BinaryTree type="DecisionTree" boostWeight="1.0000000000000000e+00" itree="3">
      <Node pos="s" depth="0" NCoef="0" IVar="10" Cut="-2.4572322368621826e+00" cType="1" res="-1.1332059511914849e-03" rms="4.7864353656768799e-01" purity="4.9922880530357361e-01" nType="0">
        <Node pos="l" depth="1" NCoef="0" IVar="5" Cut="7.1427136659622192e-01" cType="1" res="1.1423762142658234e-01" rms="4.7151762247085571e-01" purity="6.4949858188629150e-01" nType="0">
          <Node pos="l" depth="2" NCoef="0" IVar="-1" Cut="0.0000000000000000e+00" cType="1" res="2.9540227726101875e-02" rms="4.6094292402267456e-01" purity="6.9307351112365723e-01" nType="-99"/>
          <Node pos="r" depth="2" NCoef="0" IVar="-1" Cut="0.0000000000000000e+00" cType="1" res="-1.3061200268566608e-02" rms="4.8927146196365356e-01" purity="4.0659639239311218e-01" nType="-99"/>
        </Node>
        <Node pos="r" depth="1" NCoef="0" IVar="9" Cut="1.8573311567306519e+00" cType="1" res="-1.7136922478675842e-01" rms="4.3642833828926086e-01" purity="2.7749744057655334e-01" nType="0">
          <Node pos="l" depth="2" NCoef="0" IVar="-1" Cut="0.0000000000000000e+00" cType="1" res="-2.4434773251414299e-02" rms="4.5867550373077393e-01" purity="3.3192381262779236e-01" nType="-99"/>
          <Node pos="r" depth="2" NCoef="0" IVar="-1" Cut="0.0000000000000000e+00" cType="1" res="-6.2933370471000671e-02" rms="3.3335274457931519e-01" purity="1.3140457868576050e-01" nType="-99"/>
        </Node>
      </Node>
    </BinaryTree>
    <BinaryTree type="DecisionTree" boostWeight="1.0000000000000000e+00" itree="4">
      <Node pos="s" depth="0" NCoef="0" IVar="11" Cut="-4.7171071171760559e-02" cType="1" res="-3.1301849521696568e-03" rms="4.7439134120941162e-01" purity="4.9822625517845154e-01" nType="0">
        <Node pos="l" depth="1" NCoef="0" IVar="5" Cut="8.0950611829757690e-01" cType="1" res="9.5414556562900543e-02" rms="4.7234070301055908e-01" purity="6.3778930902481079e-01" nType="0">
          <Node pos="l" depth="2" NCoef="0" IVar="-1" Cut="0.0000000000000000e+00" cType="1" res="2.4302536621689796e-02" rms="4.6617633104324341e-01" purity="6.7235350608825684e-01" nType="-99"/>
          <Node pos="r" depth="2" NCoef="0" IVar="-1" Cut="0.0000000000000000e+00" cType="1" res="-2.3760529235005379e-02" rms="4.7214186191558838e-01" purity="3.3623138070106506e-01" nType="-99"/>
        </Node>
        <Node pos="r" depth="1" NCoef="0" IVar="9" Cut="1.8604863882064819e+00" cType="1" res="-1.5805366635322571e-01" rms="4.3454697728157043e-01" purity="2.7881747484207153e-01" nType="0">
          <Node pos="l" depth="2" NCoef="0" IVar="-1" Cut="0.0000000000000000e+00" cType="1" res="-2.2982044145464897e-02" rms="4.5757356286048889e-01" purity="3.3293285965919495e-01" nType="-99"/>
          <Node pos="r" depth="2" NCoef="0" IVar="-1" Cut="0.0000000000000000e+00" cType="1" res="-5.7479482144117355e-02" rms="3.3985295891761780e-01" purity="1.3757936656475067e-01" nType="-99"/>
        </Node>
      </Node>
    </BinaryTree>
    <BinaryTree type="DecisionTree" boostWeight="1.0000000000000000e+00" itree="5">
      <Node pos="s" depth="0" NCoef="0" IVar="10" Cut="-1.8402754068374634e+00" cType="1" res="8.0934475408867002e-04" rms="4.6963158249855042e-01" purity="5.0122314691543579e-01" nType="0">
        <Node pos="l" depth="1" NCoef="0" IVar="11" Cut="-7.7162003517150879e-01" cType="1" res="7.1420446038246155e-02" rms="4.7526714205741882e-01" purity="6.1179149150848389e-01" nType="0">
          <Node pos="l" depth="2" NCoef="0" IVar="-1" Cut="0.0000000000000000e+00" cType="1" res="2.7327498421072960e-02" rms="4.5430687069892883e-01" purity="6.8843555450439453e-01" nType="-99"/>
          <Node pos="r" depth="2" NCoef="0" IVar="-1" Cut="0.0000000000000000e+00" cType="1" res="-2.7561779133975506e-03" rms="4.8969894647598267e-01" purity="5.0768452882766724e-01" nType="-99"/>
        </Node>
        <Node pos="r" depth="1" NCoef="0" IVar="6" Cut="-9.5128601074218750e+02" cType="1" res="-1.7945057153701782e-01" rms="4.0216633677482605e-01" purity="2.1895813941955566e-01" nType="0">
          <Node pos="l" depth="2" NCoef="0" IVar="-1" Cut="0.0000000000000000e+00" cType="1" res="-5.2150797098875046e-02" rms="3.3671331405639648e-01" purity="1.3295489549636841e-01" nType="-99"/>
          <Node pos="r" depth="2" NCoef="0" IVar="-1" Cut="0.0000000000000000e+00" cType="1" res="-1.1513641104102135e-02" rms="4.7937625646591187e-01" purity="3.8110387325286865e-01" nType="-99"/>
        </Node>
      </Node>
    </BinaryTree>
    <BinaryTree type="DecisionTree" boostWeight="1.0000000000000000e+00" itree="6">
      <Node pos="s" depth="0" NCoef="0" IVar="11" Cut="1.9941723346710205e-01" cType="1" res="1.4677396975457668e-03" rms="4.6523672342300415e-01" purity="5.0137007236480713e-01" nType="0">
        <Node pos="l" depth="1" NCoef="0" IVar="5" Cut="7.1427232027053833e-01" cType="1" res="7.5353868305683136e-02" rms="4.7049483656883240e-01" purity="6.2960743904113770e-01" nType="0">
          <Node pos="l" depth="2" NCoef="0" IVar="-1" Cut="0.0000000000000000e+00" cType="1" res="2.2443227469921112e-02" rms="4.6158763766288757e-01" purity="6.8044006824493408e-01" nType="-99"/>
          <Node pos="r" depth="2" NCoef="0" IVar="-1" Cut="0.0000000000000000e+00" cType="1" res="-2.0631551742553711e-02" rms="4.7640317678451538e-01" purity="3.6475005745887756e-01" nType="-99"/>
        </Node>
        <Node pos="r" depth="1" NCoef="0" IVar="6" Cut="-9.5128601074218750e+02" cType="1" res="-1.4304342865943909e-01" rms="4.1864204406738281e-01" purity="2.5055509805679321e-01" nType="0">
          <Node pos="l" depth="2" NCoef="0" IVar="-1" Cut="0.0000000000000000e+00" cType="1" res="-4.3634597212076187e-02" rms="3.6237770318984985e-01" purity="1.6327278316020966e-01" nType="-99"/>
          <Node pos="r" depth="2" NCoef="0" IVar="-1" Cut="0.0000000000000000e+00" cType="1" res="-1.1131047271192074e-02" rms="4.7922760248184204e-01" purity="3.8426703214645386e-01" nType="-99"/>
        </Node>
      </Node>
    </BinaryTree>
    <BinaryTree type="DecisionTree" boostWeight="1.0000000000000000e+00" itree="7">
      <Node pos="s" depth="0" NCoef="0" IVar="11" Cut="-3.7451729178428650e-01" cType="1" res="-1.9852450350299478e-04" rms="4.6308439970016479e-01" purity="5.0080209970474243e-01" nType="0">
        <Node pos="l" depth="1" NCoef="0" IVar="5" Cut="6.1905258893966675e-01" cType="1" res="8.9765414595603943e-02" rms="4.6273508667945862e-01" purity="6.6047686338424683e-01" nType="0">
          <Node pos="l" depth="2" NCoef="0" IVar="-1" Cut="0.0000000000000000e+00" cType="1" res="2.5730945169925690e-02" rms="4.4918936491012573e-01" purity="7.1601653099060059e-01" nType="-99"/>
          <Node pos="r" depth="2" NCoef="0" IVar="-1" Cut="0.0000000000000000e+00" cType="1" res="-7.2279768064618111e-03" rms="4.8902788758277893e-01" purity="4.5794570446014404e-01" nType="-99"/>
        </Node>
        <Node pos="r" depth="1" NCoef="0" IVar="9" Cut="1.8573311567306519e+00" cType="1" res="-1.0140597820281982e-01" rms="4.4211199879646301e-01" purity="3.2117149233818054e-01" nType="0">
          <Node pos="l" depth="2" NCoef="0" IVar="-1" Cut="0.0000000000000000e+00" cType="1" res="-1.3936400413513184e-02" rms="4.6182501316070557e-01" purity="3.7499961256980896e-01" nType="-99"/>
          <Node pos="r" depth="2" NCoef="0" IVar="-1" Cut="0.0000000000000000e+00" cType="1" res="-4.7690801322460175e-02" rms="3.4478655457496643e-01" purity="1.4242525398731232e-01" nType="-99"/>
        </Node>
      </Node>
    </BinaryTree>
    <BinaryTree type="DecisionTree" boostWeight="1.0000000000000000e+00" itree="8">
      <Node pos="s" depth="0" NCoef="0" IVar="5" Cut="-8.0950021743774414e-01" cType="1" res="3.3553654793649912e-03" rms="4.6009656786918640e-01" purity="5.0512009859085083e-01" nType="0">
        <Node pos="l" depth="1" NCoef="0" IVar="6" Cut="-9.5128601074218750e+02" cType="1" res="-1.5945780277252197e-01" rms="4.0579342842102051e-01" purity="2.3654532432556152e-01" nType="0">
          <Node pos="l" depth="2" NCoef="0" IVar="-1" Cut="0.0000000000000000e+00" cType="1" res="-5.2242912352085114e-02" rms="3.3299276232719421e-01" purity="1.3248917460441589e-01" nType="-99"/>
          <Node pos="r" depth="2" NCoef="0" IVar="-1" Cut="0.0000000000000000e+00" cType="1" res="8.5779894143342972e-03" rms="5.0279623270034790e-01" purity="5.1488500833511353e-01" nType="-99"/>
        </Node>
        <Node pos="r" depth="1" NCoef="0" IVar="9" Cut="9.9843686819076538e-01" cType="1" res="4.9440812319517136e-02" rms="4.6408101916313171e-01" purity="5.8114212751388550e-01" nType="0">
          <Node pos="l" depth="2" NCoef="0" IVar="-1" Cut="0.0000000000000000e+00" cType="1" res="2.0586652681231499e-02" rms="4.5755735039710999e-01" purity="6.6874426603317261e-01" nType="-99"/>
          <Node pos="r" depth="2" NCoef="0" IVar="-1" Cut="0.0000000000000000e+00" cType="1" res="-1.8191935494542122e-02" rms="4.5463591814041138e-01" purity="3.4230598807334900e-01" nType="-99"/>
        </Node>
      </Node>
    </BinaryTree>
    <BinaryTree type="DecisionTree" boostWeight="1.0000000000000000e+00" itree="9">
      <Node pos="s" depth="0" NCoef="0" IVar="10" Cut="-2.7375349998474121e+00" cType="1" res="-1.6546138795092702e-03" rms="4.5676124095916748e-01" purity="4.9894481897354126e-01" nType="0">
        <Node pos="l" depth="1" NCoef="0" IVar="5" Cut="6.1903667449951172e-01" cType="1" res="7.9232476651668549e-02" rms="4.5939293503761292e-01" purity="6.6845613718032837e-01" nType="0">
          <Node pos="l" depth="2" NCoef="0" IVar="-1" Cut="0.0000000000000000e+00" cType="1" res="2.2805795073509216e-02" rms="4.4676855206489563e-01" purity="7.2049278020858765e-01" nType="-99"/>
          <Node pos="r" depth="2" NCoef="0" IVar="-1" Cut="0.0000000000000000e+00" cType="1" res="-6.4567821100354195e-03" rms="4.8931097984313965e-01" purity="4.6868649125099182e-01" nType="-99"/>
        </Node>
        <Node pos="r" depth="1" NCoef="0" IVar="6" Cut="-9.5128582763671875e+02" cType="1" res="-9.1454006731510162e-02" rms="4.3660807609558105e-01" purity="3.1075644493103027e-01" nType="0">
          <Node pos="l" depth="2" NCoef="0" IVar="-1" Cut="0.0000000000000000e+00" cType="1" res="-3.2778937369585037e-02" rms="3.8768395781517029e-01" purity="2.1134816110134125e-01" nType="-99"/>
          <Node pos="r" depth="2" NCoef="0" IVar="-1" Cut="0.0000000000000000e+00" cType="1" res="-5.1520839333534241e-03" rms="4.8229324817657471e-01" purity="4.3386417627334595e-01" nType="-99"/>
        </Node>
      </Node>
    </BinaryTree>
    <BinaryTree type="DecisionTree" boostWeight="1.0000000000000000e+00" itree="10">
      <Node pos="s" depth="0" NCoef="0" IVar="10" Cut="-3.1057598590850830e+00" cType="1" res="-2.5617065839469433e-03" rms="4.5395427942276001e-01" purity="4.9740475416183472e-01" nType="0">
        <Node pos="l" depth="1" NCoef="0" IVar="5" Cut="8.0939048528671265e-01" cType="1" res="8.6107499897480011e-02" rms="4.5116704702377319e-01" purity="6.8641185760498047e-01" nType="0">
          <Node pos="l" depth="2" NCoef="0" IVar="-1" Cut="0.0000000000000000e+00" cType="1" res="2.2957092151045799e-02" rms="4.4289323687553406e-01" purity="7.2644865512847900e-01" nType="-99"/>
          <Node pos="r" depth="2" NCoef="0" IVar="-1" Cut="0.0000000000000000e+00" cType="1" res="-1.9122667610645294e-02" rms="4.7789305448532104e-01" purity="3.5401818156242371e-01" nType="-99"/>
        </Node>
        <Node pos="r" depth="1" NCoef="0" IVar="9" Cut="2.1460115909576416e+00" cType="1" res="-6.8936139345169067e-02" rms="4.4460317492485046e-01" purity="3.5592117905616760e-01" nType="0">
          <Node pos="l" depth="2" NCoef="0" IVar="-1" Cut="0.0000000000000000e+00" cType="1" res="-9.4426916912198067e-03" rms="4.6039530634880066e-01" purity="3.9853429794311523e-01" nType="-99"/>
          <Node pos="r" depth="2" NCoef="0" IVar="-1" Cut="0.0000000000000000e+00" cType="1" res="-5.1986292004585266e-02" rms="2.8773131966590881e-01" purity="9.4128258526325226e-02" nType="-99"/>
        </Node>
      </Node>
    </BinaryTree>
    <BinaryTree type="DecisionTree" boostWeight="1.0000000000000000e+00" itree="11">
      <Node pos="s" depth="0" NCoef="0" IVar="11" Cut="8.9352667331695557e-01" cType="1" res="-1.3604024425148964e-03" rms="4.5307746529579163e-01" purity="4.9929776787757874e-01" nType="0">
        <Node pos="l" depth="1" NCoef="0" IVar="5" Cut="6.1897528171539307e-01" cType="1" res="3.3558387309312820e-02" rms="4.6699640154838562e-01" purity="5.8473044633865356e-01" nType="0">
          <Node pos="l" depth="2" NCoef="0" IVar="-1" Cut="0.0000000000000000e+00" cType="1" res="1.3742731884121895e-02" rms="4.6205750107765198e-01" purity="6.3652515411376953e-01" nType="-99"/>
          <Node pos="r" depth="2" NCoef="0" IVar="-1" Cut="0.0000000000000000e+00" cType="1" res="-1.8855581060051918e-02" rms="4.6589237451553345e-01" purity="3.7608453631401062e-01" nType="-99"/>
        </Node>
        <Node pos="r" depth="1" NCoef="0" IVar="6" Cut="-9.5128613281250000e+02" cType="1" res="-1.3040798902511597e-01" rms="3.6985358595848083e-01" purity="1.8356853723526001e-01" nType="0">
          <Node pos="l" depth="2" NCoef="0" IVar="-1" Cut="0.0000000000000000e+00" cType="1" res="-4.2009573429822922e-02" rms="3.1039154529571533e-01" purity="1.1047338694334030e-01" nType="-99"/>
          <Node pos="r" depth="2" NCoef="0" IVar="-1" Cut="0.0000000000000000e+00" cType="1" res="-1.0610331781208515e-02" rms="4.6109110116958618e-01" purity="3.3776578307151794e-01" nType="-99"/>
        </Node>
      </Node>
    </BinaryTree>
    <BinaryTree type="DecisionTree" boostWeight="1.0000000000000000e+00" itree="12">
      <Node pos="s" depth="0" NCoef="0" IVar="5" Cut="-8.0952292680740356e-01" cType="1" res="-2.8162577655166388e-03" rms="4.5211035013198853e-01" purity="4.9873435497283936e-01" nType="0">
        <Node pos="l" depth="1" NCoef="0" IVar="6" Cut="-9.5128662109375000e+02" cType="1" res="-1.3382948935031891e-01" rms="3.9779937267303467e-01" purity="2.2656665742397308e-01" nType="0">
          <Node pos="l" depth="2" NCoef="0" IVar="-1" Cut="0.0000000000000000e+00" cType="1" res="-4.5130968093872070e-02" rms="3.3315700292587280e-01" purity="1.2994505465030670e-01" nType="-99"/>
          <Node pos="r" depth="2" NCoef="0" IVar="-1" Cut="0.0000000000000000e+00" cType="1" res="-8.2970305811613798e-04" rms="5.0254553556442261e-01" purity="4.6767094731330872e-01" nType="-99"/>
        </Node>
        <Node pos="r" depth="1" NCoef="0" IVar="9" Cut="1.5718015432357788e+00" cType="1" res="3.3867541700601578e-02" rms="4.5953962206840515e-01" purity="5.7494151592254639e-01" nType="0">
          <Node pos="l" depth="2" NCoef="0" IVar="-1" Cut="0.0000000000000000e+00" cType="1" res="1.2846646830439568e-02" rms="4.6394604444503784e-01" purity="6.3660985231399536e-01" nType="-99"/>
          <Node pos="r" depth="2" NCoef="0" IVar="-1" Cut="0.0000000000000000e+00" cType="1" res="-2.7315791696310043e-02" rms="4.0045410394668579e-01" purity="2.2089013457298279e-01" nType="-99"/>
        </Node>
      </Node>
    </BinaryTree>
    <BinaryTree type="DecisionTree" boostWeight="1.0000000000000000e+00" itree="13">
      <Node pos="s" depth="0" NCoef="0" IVar="5" Cut="-8.0936622619628906e-01" cType="1" res="2.0764237269759178e-03" rms="4.4813114404678345e-01" purity="5.0138580799102783e-01" nType="0">
        <Node pos="l" depth="1" NCoef="0" IVar="6" Cut="-9.5128662109375000e+02" cType="1" res="-1.0881744325160980e-01" rms="3.9981848001480103e-01" purity="2.3784230649471283e-01" nType="0">
          <Node pos="l" depth="2" NCoef="0" IVar="-1" Cut="0.0000000000000000e+00" cType="1" res="-4.2090430855751038e-02" rms="3.3439448475837708e-01" purity="1.3104104995727539e-01" nType="-99"/>
          <Node pos="r" depth="2" NCoef="0" IVar="-1" Cut="0.0000000000000000e+00" cType="1" res="9.5793204382061958e-03" rms="5.0155091285705566e-01" purity="5.1599484682083130e-01" nType="-99"/>
        </Node>
        <Node pos="r" depth="1" NCoef="0" IVar="5" Cut="8.2765781879425049e-01" cType="1" res="3.3163428306579590e-02" rms="4.5595175027847290e-01" purity="5.7526522874832153e-01" nType="0">
          <Node pos="l" depth="2" NCoef="0" IVar="-1" Cut="0.0000000000000000e+00" cType="1" res="1.2246117927134037e-02" rms="4.5444107055664062e-01" purity="6.1467289924621582e-01" nType="-99"/>
          <Node pos="r" depth="2" NCoef="0" IVar="-1" Cut="0.0000000000000000e+00" cType="1" res="-3.4579895436763763e-02" rms="4.1922864317893982e-01" purity="2.4071832001209259e-01" nType="-99"/>
        </Node>
      </Node>
    </BinaryTree>
    <BinaryTree type="DecisionTree" boostWeight="1.0000000000000000e+00" itree="14">
      <Node pos="s" depth="0" NCoef="0" IVar="5" Cut="-9.0474486351013184e-01" cType="1" res="1.8105376511812210e-03" rms="4.4695737957954407e-01" purity="5.0249975919723511e-01" nType="0">
        <Node pos="l" depth="1" NCoef="0" IVar="6" Cut="-9.5128601074218750e+02" cType="1" res="-1.4085873961448669e-01" rms="3.6235505342483521e-01" purity="1.7500303685665131e-01" nType="0">
          <Node pos="l" depth="2" NCoef="0" IVar="-1" Cut="0.0000000000000000e+00" cType="1" res="-4.5567601919174194e-02" rms="2.9916909337043762e-01" purity="9.6577078104019165e-02" nType="-99"/>
          <Node pos="r" depth="2" NCoef="0" IVar="-1" Cut="0.0000000000000000e+00" cType="1" res="-8.1073865294456482e-03" rms="4.9593853950500488e-01" purity="4.1568714380264282e-01" nType="-99"/>
        </Node>
        <Node pos="r" depth="1" NCoef="0" IVar="9" Cut="1.2868251800537109e+00" cType="1" res="2.4779455736279488e-02" rms="4.5496109127998352e-01" purity="5.5522477626800537e-01" nType="0">
          <Node pos="l" depth="2" NCoef="0" IVar="-1" Cut="0.0000000000000000e+00" cType="1" res="1.1954814195632935e-02" rms="4.5920357108116150e-01" purity="6.3245153427124023e-01" nType="-99"/>
          <Node pos="r" depth="2" NCoef="0" IVar="-1" Cut="0.0000000000000000e+00" cType="1" res="-2.0764309912919998e-02" rms="4.1900926828384399e-01" purity="2.6495742797851562e-01" nType="-99"/>
        </Node>
      </Node>
    </BinaryTree>
    <BinaryTree type="DecisionTree" boostWeight="1.0000000000000000e+00" itree="15">
      <Node pos="s" depth="0" NCoef="0" IVar="11" Cut="-1.0510553121566772e+00" cType="1" res="4.7972821630537510e-03" rms="4.4662019610404968e-01" purity="5.0793379545211792e-01" nType="0">
        <Node pos="l" depth="1" NCoef="0" IVar="5" Cut="5.2351945638656616e-01" cType="1" res="7.7866025269031525e-02" rms="4.4021010398864746e-01" purity="7.0086169242858887e-01" nType="0">
          <Node pos="l" depth="2" NCoef="0" IVar="-1" Cut="0.0000000000000000e+00" cType="1" res="2.5022933259606361e-02" rms="4.1622227430343628e-01" purity="7.7267920970916748e-01" nType="-99"/>
          <Node pos="r" depth="2" NCoef="0" IVar="-1" Cut="0.0000000000000000e+00" cType="1" res="-6.1532802646979690e-04" rms="4.8282647132873535e-01" purity="5.3087335824966431e-01" nType="-99"/>
        </Node>
        <Node pos="r" depth="1" NCoef="0" IVar="9" Cut="2.1500360965728760e+00" cType="1" res="-3.3019702881574631e-02" rms="4.4521719217300415e-01" purity="4.0808323025703430e-01" nType="0">
          <Node pos="l" depth="2" NCoef="0" IVar="-1" Cut="0.0000000000000000e+00" cType="1" res="-3.3848208840936422e-03" rms="4.5909667015075684e-01" purity="4.5006546378135681e-01" nType="-99"/>
          <Node pos="r" depth="2" NCoef="0" IVar="-1" Cut="0.0000000000000000e+00" cType="1" res="-4.3008200824260712e-02" rms="2.9421597719192505e-01" purity="9.9330879747867584e-02" nType="-99"/>
        </Node>
      </Node>
    </BinaryTree>
    <BinaryTree type="DecisionTree" boostWeight="1.0000000000000000e+00" itree="16">
      <Node pos="s" depth="0" NCoef="0" IVar="5" Cut="-9.0474903583526611e-01" cType="1" res="5.3366688080132008e-03" rms="4.4526126980781555e-01" purity="5.0860702991485596e-01" nType="0">
        <Node pos="l" depth="1" NCoef="0" IVar="6" Cut="-9.5128601074218750e+02" cType="1" res="-1.1342314630746841e-01" rms="3.6837413907051086e-01" purity="1.8635442852973938e-01" nType="0">
          <Node pos="l" depth="2" NCoef="0" IVar="-1" Cut="0.0000000000000000e+00" cType="1" res="-4.0147323161363602e-02" rms="3.0979534983634949e-01" purity="1.0606468468904495e-01" nType="-99"/>
          <Node pos="r" depth="2" NCoef="0" IVar="-1" Cut="0.0000000000000000e+00" cType="1" res="-1.0701796272769570e-03" rms="4.9979346990585327e-01" purity="4.4787910580635071e-01" nType="-99"/>
        </Node>
        <Node pos="r" depth="1" NCoef="0" IVar="5" Cut="6.3710719347000122e-01" cType="1" res="2.3221880197525024e-02" rms="4.5302858948707581e-01" purity="5.5713820457458496e-01" nType="0">
          <Node pos="l" depth="2" NCoef="0" IVar="-1" Cut="0.0000000000000000e+00" cType="1" res="1.1259833350777626e-02" rms="4.4929668307304382e-01" purity="6.0534662008285522e-01" nType="-99"/>
          <Node pos="r" depth="2" NCoef="0" IVar="-1" Cut="0.0000000000000000e+00" cType="1" res="-1.9948421046137810e-02" rms="4.5034590363502502e-01" purity="3.4883853793144226e-01" nType="-99"/>
        </Node>
      </Node>
    </BinaryTree>
    <BinaryTree type="DecisionTree" boostWeight="1.0000000000000000e+00" itree="17">
      <Node pos="s" depth="0" NCoef="0" IVar="10" Cut="-3.8071358203887939e+00" cType="1" res="-3.6760570947080851e-03" rms="4.4459754228591919e-01" purity="5.0084441900253296e-01" nType="0">
        <Node pos="l" depth="1" NCoef="0" IVar="5" Cut="-4.2801550030708313e-01" cType="1" res="8.9530892670154572e-02" rms="4.2850202322006226e-01" purity="7.2803330421447754e-01" nType="0">
          <Node pos="l" depth="2" NCoef="0" IVar="-1" Cut="0.0000000000000000e+00" cType="1" res="-1.7830489668995142e-03" rms="4.6720144152641296e-01" purity="6.6550064086914062e-01" nType="-99"/>
          <Node pos="r" depth="2" NCoef="0" IVar="-1" Cut="0.0000000000000000e+00" cType="1" res="2.3636836558580399e-02" rms="4.1935315728187561e-01" purity="7.3863625526428223e-01" nType="-99"/>
        </Node>
        <Node pos="r" depth="1" NCoef="0" IVar="5" Cut="6.1896950006484985e-01" cType="1" res="-3.2227594405412674e-02" rms="4.4552817940711975e-01" purity="4.3125095963478088e-01" nType="0">
          <Node pos="l" depth="2" NCoef="0" IVar="-1" Cut="0.0000000000000000e+00" cType="1" res="-3.5137964878231287e-03" rms="4.4644221663475037e-01" purity="4.5676949620246887e-01" nType="-99"/>
          <Node pos="r" depth="2" NCoef="0" IVar="-1" Cut="0.0000000000000000e+00" cType="1" res="-2.7538709342479706e-02" rms="4.2808416485786438e-01" purity="2.8777399659156799e-01" nType="-99"/>
        </Node>
      </Node>
    </BinaryTree>
    <BinaryTree type="DecisionTree" boostWeight="1.0000000000000000e+00" itree="18">
      <Node pos="s" depth="0" NCoef="0" IVar="11" Cut="9.0800207853317261e-01" cType="1" res="-6.2544725369662046e-04" rms="4.4221132993698120e-01" purity="4.9917781352996826e-01" nType="0">
        <Node pos="l" depth="1" NCoef="0" IVar="5" Cut="9.0473943948745728e-01" cType="1" res="2.3550471290946007e-02" rms="4.6004641056060791e-01" purity="5.8852916955947876e-01" nType="0">
          <Node pos="l" depth="2" NCoef="0" IVar="-1" Cut="0.0000000000000000e+00" cType="1" res="7.6748202554881573e-03" rms="4.6058738231658936e-01" purity="6.1046612262725830e-01" nType="-99"/>
          <Node pos="r" depth="2" NCoef="0" IVar="-1" Cut="0.0000000000000000e+00" cType="1" res="-3.7161625921726227e-02" rms="4.0216612815856934e-01" purity="2.1104112267494202e-01" nType="-99"/>
        </Node>
        <Node pos="r" depth="1" NCoef="0" IVar="6" Cut="-9.5128698730468750e+02" cType="1" res="-8.7982557713985443e-02" rms="3.5729745030403137e-01" purity="1.7631617188453674e-01" nType="0">
          <Node pos="l" depth="2" NCoef="0" IVar="-1" Cut="0.0000000000000000e+00" cType="1" res="-3.4211877733469009e-02" rms="2.9808863997459412e-01" purity="1.0169442743062973e-01" nType="-99"/>
          <Node pos="r" depth="2" NCoef="0" IVar="-1" Cut="0.0000000000000000e+00" cType="1" res="-6.1224489472806454e-03" rms="4.5423555374145508e-01" purity="3.3772948384284973e-01" nType="-99"/>
        </Node>
      </Node>
    </BinaryTree>
    <BinaryTree type="DecisionTree" boostWeight="1.0000000000000000e+00" itree="19">
      <Node pos="s" depth="0" NCoef="0" IVar="10" Cut="-3.1929674148559570e+00" cType="1" res="-2.0603046868927777e-04" rms="4.3974551558494568e-01" purity="4.9905550479888916e-01" nType="0">
        <Node pos="l" depth="1" NCoef="0" IVar="5" Cut="-6.1828744411468506e-01" cType="1" res="5.7623654603958130e-02" rms="4.4080829620361328e-01" purity="6.9731611013412476e-01" nType="0">
          <Node pos="l" depth="2" NCoef="0" IVar="-1" Cut="0.0000000000000000e+00" cType="1" res="-1.5909416601061821e-02" rms="4.8470681905746460e-01" purity="5.9022235870361328e-01" nType="-99"/>
          <Node pos="r" depth="2" NCoef="0" IVar="-1" Cut="0.0000000000000000e+00" cType="1" res="1.5774780884385109e-02" rms="4.3426886200904846e-01" purity="7.0774865150451660e-01" nType="-99"/>
        </Node>
        <Node pos="r" depth="1" NCoef="0" IVar="5" Cut="5.2373522520065308e-01" cType="1" res="-3.9193872362375259e-02" rms="4.3470734357833862e-01" purity="3.6539137363433838e-01" nType="0">
          <Node pos="l" depth="2" NCoef="0" IVar="-1" Cut="0.0000000000000000e+00" cType="1" res="-3.9813178591430187e-03" rms="4.3851581215858459e-01" purity="3.9114153385162354e-01" nType="-99"/>
          <Node pos="r" depth="2" NCoef="0" IVar="-1" Cut="0.0000000000000000e+00" cType="1" res="-3.2794140279293060e-02" rms="3.9877408742904663e-01" purity="2.4098420143127441e-01" nType="-99"/>
        </Node>
      </Node>
    </BinaryTree>
    <BinaryTree type="DecisionTree" boostWeight="1.0000000000000000e+00" itree="20">
      <Node pos="s" depth="0" NCoef="0" IVar="5" Cut="-9.0468949079513550e-01" cType="1" res="-3.3599033486098051e-04" rms="4.4129520654678345e-01" purity="5.0052809715270996e-01" nType="0">
        <Node pos="l" depth="1" NCoef="0" IVar="9" Cut="-3.9894559979438782e-01" cType="1" res="-1.0233850777149200e-01" rms="3.5898703336715698e-01" purity="1.7416551709175110e-01" nType="0">
          <Node pos="l" depth="2" NCoef="0" IVar="-1" Cut="0.0000000000000000e+00" cType="1" res="-4.2357064783573151e-02" rms="3.3676409721374512e-01" purity="1.5076407790184021e-01" nType="-99"/>
          <Node pos="r" depth="2" NCoef="0" IVar="-1" Cut="0.0000000000000000e+00" cType="1" res="-1.8065262585878372e-02" rms="3.6562752723693848e-01" purity="1.8749056756496429e-01" nType="-99"/>
        </Node>
        <Node pos="r" depth="1" NCoef="0" IVar="9" Cut="1.8573365211486816e+00" cType="1" res="1.6030283644795418e-02" rms="4.5096892118453979e-01" purity="5.5289280414581299e-01" nType="0">
          <Node pos="l" depth="2" NCoef="0" IVar="-1" Cut="0.0000000000000000e+00" cType="1" res="7.2305388748645782e-03" rms="4.6032842993736267e-01" purity="6.0530149936676025e-01" nType="-99"/>
          <Node pos="r" depth="2" NCoef="0" IVar="-1" Cut="0.0000000000000000e+00" cType="1" res="-3.0077258124947548e-02" rms="3.4436738491058350e-01" purity="1.4792184531688690e-01" nType="-99"/>
        </Node>
      </Node>
    </BinaryTree>
    <BinaryTree type="DecisionTree" boostWeight="1.0000000000000000e+00" itree="21">
      <Node pos="s" depth="0" NCoef="0" IVar="5" Cut="-8.0952292680740356e-01" cType="1" res="-7.8179477714002132e-04" rms="4.4159251451492310e-01" purity="5.0176697969436646e-01" nType="0">
        <Node pos="l" depth="1" NCoef="0" IVar="6" Cut="-9.5128662109375000e+02" cType="1" res="-7.4796050786972046e-02" rms="3.9481300115585327e-01" purity="2.3525668680667877e-01" nType="0">
          <Node pos="l" depth="2" NCoef="0" IVar="-1" Cut="0.0000000000000000e+00" cType="1" res="-3.3241245895624161e-02" rms="3.3410632610321045e-01" purity="1.3274516165256500e-01" nType="-99"/>
          <Node pos="r" depth="2" NCoef="0" IVar="-1" Cut="0.0000000000000000e+00" cType="1" res="6.9970069453120232e-03" rms="5.0426715612411499e-01" purity="5.0104665756225586e-01" nType="-99"/>
        </Node>
        <Node pos="r" depth="1" NCoef="0" IVar="5" Cut="4.8293802142143250e-01" cType="1" res="1.9642408937215805e-02" rms="4.5152199268341064e-01" purity="5.7531040906906128e-01" nType="0">
          <Node pos="l" depth="2" NCoef="0" IVar="-1" Cut="0.0000000000000000e+00" cType="1" res="1.1462505906820297e-02" rms="4.4790723919868469e-01" purity="6.3993364572525024e-01" nType="-99"/>
          <Node pos="r" depth="2" NCoef="0" IVar="-1" Cut="0.0000000000000000e+00" cType="1" res="-1.2474703602492809e-02" rms="4.5135924220085144e-01" purity="4.1531294584274292e-01" nType="-99"/>
        </Node>
      </Node>
    </BinaryTree>
    <BinaryTree type="DecisionTree" boostWeight="1.0000000000000000e+00" itree="22">
      <Node pos="s" depth="0" NCoef="0" IVar="4" Cut="9.9952435493469238e-01" cType="1" res="-1.0709819616749883e-03" rms="4.4002020359039307e-01" purity="5.0144529342651367e-01" nType="0">
        <Node pos="l" depth="1" NCoef="0" IVar="-1" Cut="0.0000000000000000e+00" cType="1" res="-4.2770612984895706e-02" rms="4.2937034368515015e-01" purity="2.5743237137794495e-01" nType="-99"/>
        <Node pos="r" depth="1" NCoef="0" IVar="5" Cut="-7.1440386772155762e-01" cType="1" res="8.3040315657854080e-03" rms="4.3840673565864563e-01" purity="5.1345837116241455e-01" nType="0">
          <Node pos="l" depth="2" NCoef="0" IVar="-1" Cut="0.0000000000000000e+00" cType="1" res="-1.4149360358715057e-02" rms="4.1510018706321716e-01" purity="2.8810372948646545e-01" nType="-99"/>
          <Node pos="r" depth="2" NCoef="0" IVar="-1" Cut="0.0000000000000000e+00" cType="1" res="7.7773858793079853e-03" rms="4.4492933154106140e-01" purity="6.0535979270935059e-01" nType="-99"/>
        </Node>
      </Node>
    </BinaryTree>
    <BinaryTree type="DecisionTree" boostWeight="1.0000000000000000e+00" itree="23">
      <Node pos="s" depth="0" NCoef="0" IVar="11" Cut="-1.3621530532836914e+00" cType="1" res="-2.7298140339553356e-03" rms="4.3889313936233521e-01" purity="4.9965068697929382e-01" nType="0">
        <Node pos="l" depth="1" NCoef="0" IVar="5" Cut="-5.2350139617919922e-01" cType="1" res="5.5899105966091156e-02" rms="4.3456083536148071e-01" purity="7.0858407020568848e-01" nType="0">
          <Node pos="l" depth="2" NCoef="0" IVar="-1" Cut="0.0000000000000000e+00" cType="1" res="-2.0281963050365448e-02" rms="4.8202079534530640e-01" purity="5.7905423641204834e-01" nType="-99"/>
          <Node pos="r" depth="2" NCoef="0" IVar="-1" Cut="0.0000000000000000e+00" cType="1" res="1.6985770314931870e-02" rms="4.2501345276832581e-01" purity="7.2444319725036621e-01" nType="-99"/>
        </Node>
        <Node pos="r" depth="1" NCoef="0" IVar="5" Cut="5.2378785610198975e-01" cType="1" res="-2.2800853475928307e-02" rms="4.3856930732727051e-01" purity="4.2812436819076538e-01" nType="0">
          <Node pos="l" depth="2" NCoef="0" IVar="-1" Cut="0.0000000000000000e+00" cType="1" res="-1.7654956318438053e-03" rms="4.3877398967742920e-01" purity="4.5258256793022156e-01" nType="-99"/>
          <Node pos="r" depth="2" NCoef="0" IVar="-1" Cut="0.0000000000000000e+00" cType="1" res="-2.1782154217362404e-02" rms="4.2994841933250427e-01" purity="3.1037575006484985e-01" nType="-99"/>
        </Node>
      </Node>
    </BinaryTree>
    <BinaryTree type="DecisionTree" boostWeight="1.0000000000000000e+00" itree="24">
      <Node pos="s" depth="0" NCoef="0" IVar="5" Cut="9.0458190441131592e-01" cType="1" res="-6.1460136203095317e-04" rms="4.3972036242485046e-01" purity="5.0239276885986328e-01" nType="0">
        <Node pos="l" depth="1" NCoef="0" IVar="5" Cut="-9.0927565097808838e-01" cType="1" res="6.4490670338273048e-03" rms="4.4100689888000488e-01" purity="5.1694589853286743e-01" nType="0">
          <Node pos="l" depth="2" NCoef="0" IVar="-1" Cut="0.0000000000000000e+00" cType="1" res="-2.2393152117729187e-02" rms="3.5421106219291687e-01" purity="1.7452555894851685e-01" nType="-99"/>
          <Node pos="r" depth="2" NCoef="0" IVar="-1" Cut="0.0000000000000000e+00" cType="1" res="4.5910449698567390e-03" rms="4.5194160938262939e-01" purity="5.7205724716186523e-01" nType="-99"/>
        </Node>
        <Node pos="r" depth="1" NCoef="0" IVar="-1" Cut="0.0000000000000000e+00" cType="1" res="-3.4571517258882523e-02" rms="3.8090994954109192e-01" purity="1.9053663313388824e-01" nType="-99"/>
      </Node>
    </BinaryTree>
    <BinaryTree type="DecisionTree" boostWeight="1.0000000000000000e+00" itree="25">
      <Node pos="s" depth="0" NCoef="0" IVar="10" Cut="-3.6838145256042480e+00" cType="1" res="-3.1148754060268402e-03" rms="4.3757399916648865e-01" purity="4.9845027923583984e-01" nType="0">
        <Node pos="l" depth="1" NCoef="0" IVar="5" Cut="7.1471351385116577e-01" cType="1" res="6.6288836300373077e-02" rms="4.2373794317245483e-01" purity="7.3171657323837280e-01" nType="0">
          <Node pos="l" depth="2" NCoef="0" IVar="-1" Cut="0.0000000000000000e+00" cType="1" res="1.9100038334727287e-02" rms="4.0845131874084473e-01" purity="7.8291165828704834e-01" nType="-99"/>
          <Node pos="r" depth="2" NCoef="0" IVar="-1" Cut="0.0000000000000000e+00" cType="1" res="-6.3883652910590172e-04" rms="4.9133807420730591e-01" purity="4.5973184704780579e-01" nType="-99"/>
        </Node>
        <Node pos="r" depth="1" NCoef="0" IVar="9" Cut="2.1428878307342529e+00" cType="1" res="-2.7331477031111717e-02" rms="4.3972948193550110e-01" purity="4.1705811023712158e-01" nType="0">
          <Node pos="l" depth="2" NCoef="0" IVar="-1" Cut="0.0000000000000000e+00" cType="1" res="-3.5466239787638187e-03" rms="4.5312261581420898e-01" purity="4.5515790581703186e-01" nType="-99"/>
          <Node pos="r" depth="2" NCoef="0" IVar="-1" Cut="0.0000000000000000e+00" cType="1" res="-3.8526352494955063e-02" rms="2.8184023499488831e-01" purity="9.1170944273471832e-02" nType="-99"/>
        </Node>
      </Node>
    </BinaryTree>
    <BinaryTree type="DecisionTree" boostWeight="1.0000000000000000e+00" itree="26">
      <Node pos="s" depth="0" NCoef="0" IVar="9" Cut="2.1430821418762207e+00" cType="1" res="1.7929577734321356e-03" rms="4.3605336546897888e-01" purity="5.0079184770584106e-01" nType="0">
        <Node pos="l" depth="1" NCoef="0" IVar="5" Cut="-9.0475279092788696e-01" cType="1" res="1.1357363313436508e-02" rms="4.4492265582084656e-01" purity="5.3493958711624146e-01" nType="0">
          <Node pos="l" depth="2" NCoef="0" IVar="-1" Cut="0.0000000000000000e+00" cType="1" res="-2.1602546796202660e-02" rms="3.6424800753593445e-01" purity="1.7819322645664215e-01" nType="-99"/>
          <Node pos="r" depth="2" NCoef="0" IVar="-1" Cut="0.0000000000000000e+00" cType="1" res="5.8020139113068581e-03" rms="4.5523297786712646e-01" purity="5.9364193677902222e-01" nType="-99"/>
        </Node>
        <Node pos="r" depth="1" NCoef="0" IVar="-1" Cut="0.0000000000000000e+00" cType="1" res="-3.4557808190584183e-02" rms="2.8954532742500305e-01" purity="9.6870511770248413e-02" nType="-99"/>
      </Node>
    </BinaryTree>
    <BinaryTree type="DecisionTree" boostWeight="1.0000000000000000e+00" itree="27">
      <Node pos="s" depth="0" NCoef="0" IVar="4" Cut="9.9952530860900879e-01" cType="1" res="2.7564202900975943e-03" rms="4.3585053086280823e-01" purity="5.0348025560379028e-01" nType="0">
        <Node pos="l" depth="1" NCoef="0" IVar="-1" Cut="0.0000000000000000e+00" cType="1" res="-3.2177582383155823e-02" rms="4.3620711565017700e-01" purity="2.7929100394248962e-01" nType="-99"/>
        <Node pos="r" depth="1" NCoef="0" IVar="5" Cut="-8.0951613187789917e-01" cType="1" res="9.6035394817590714e-03" rms="4.3465963006019592e-01" purity="5.1426202058792114e-01" nType="0">
          <Node pos="l" depth="2" NCoef="0" IVar="-1" Cut="0.0000000000000000e+00" cType="1" res="-1.3675354421138763e-02" rms="3.9055496454238892e-01" purity="2.3318988084793091e-01" nType="-99"/>
          <Node pos="r" depth="2" NCoef="0" IVar="-1" Cut="0.0000000000000000e+00" cType="1" res="6.3087353482842445e-03" rms="4.4555723667144775e-01" purity="5.9891831874847412e-01" nType="-99"/>
        </Node>
      </Node>
    </BinaryTree>
    <BinaryTree type="DecisionTree" boostWeight="1.0000000000000000e+00" itree="28">
      <Node pos="s" depth="0" NCoef="0" IVar="9" Cut="1.5716288089752197e+00" cType="1" res="-7.1995784528553486e-03" rms="4.3609783053398132e-01" purity="4.9364331364631653e-01" nType="0">
        <Node pos="l" depth="1" NCoef="0" IVar="5" Cut="-7.1428358554840088e-01" cType="1" res="5.2957134321331978e-03" rms="4.4682782888412476e-01" purity="5.4917466640472412e-01" nType="0">
          <Node pos="l" depth="2" NCoef="0" IVar="-1" Cut="0.0000000000000000e+00" cType="1" res="-1.1202690191566944e-02" rms="4.2365470528602600e-01" purity="3.0355203151702881e-01" nType="-99"/>
          <Node pos="r" depth="2" NCoef="0" IVar="-1" Cut="0.0000000000000000e+00" cType="1" res="5.5971117690205574e-03" rms="4.5411178469657898e-01" purity="6.4535450935363770e-01" nType="-99"/>
        </Node>
        <Node pos="r" depth="1" NCoef="0" IVar="9" Cut="2.3197495937347412e+00" cType="1" res="-7.7119939029216766e-02" rms="3.6249950528144836e-01" purity="1.8290458619594574e-01" nType="0">
          <Node pos="l" depth="2" NCoef="0" IVar="-1" Cut="0.0000000000000000e+00" cType="1" res="-1.2158764526247978e-02" rms="4.1306081414222717e-01" purity="2.5292769074440002e-01" nType="-99"/>
          <Node pos="r" depth="2" NCoef="0" IVar="-1" Cut="0.0000000000000000e+00" cType="1" res="-3.9290674030780792e-02" rms="2.6100340485572815e-01" purity="7.5819671154022217e-02" nType="-99"/>
        </Node>
      </Node>
    </BinaryTree>
    <BinaryTree type="DecisionTree" boostWeight="1.0000000000000000e+00" itree="29">
      <Node pos="s" depth="0" NCoef="0" IVar="4" Cut="9.9953073263168335e-01" cType="1" res="-9.1063994914293289e-03" rms="4.3987658619880676e-01" purity="4.9294129014015198e-01" nType="0">
        <Node pos="l" depth="1" NCoef="0" IVar="-1" Cut="0.0000000000000000e+00" cType="1" res="-3.0999759212136269e-02" rms="4.2981752753257751e-01" purity="2.6988959312438965e-01" nType="-99"/>
        <Node pos="r" depth="1" NCoef="0" IVar="5" Cut="5.2373975515365601e-01" cType="1" res="-3.1104795634746552e-03" rms="4.3947455286979675e-01" purity="5.0375366210937500e-01" nType="0">
          <Node pos="l" depth="2" NCoef="0" IVar="-1" Cut="0.0000000000000000e+00" cType="1" res="1.9671986810863018e-03" rms="4.3593925237655640e-01" purity="5.2210241556167603e-01" nType="-99"/>
          <Node pos="r" depth="2" NCoef="0" IVar="-1" Cut="0.0000000000000000e+00" cType="1" res="-1.1997416615486145e-02" rms="4.5180806517601013e-01" purity="4.1992753744125366e-01" nType="-99"/>
        </Node>
      </Node>
    </BinaryTree>
    <BinaryTree type="DecisionTree" boostWeight="1.0000000000000000e+00" itree="30">
      <Node pos="s" depth="0" NCoef="0" IVar="5" Cut="9.0472644567489624e-01" cType="1" res="8.8124489411711693e-04" rms="4.3714538216590881e-01" purity="4.9937438964843750e-01" nType="0">
        <Node pos="l" depth="1" NCoef="0" IVar="11" Cut="-1.4740849733352661e+00" cType="1" res="6.4968257211148739e-03" rms="4.3860277533531189e-01" purity="5.1391142606735229e-01" nType="0">
          <Node pos="l" depth="2" NCoef="0" IVar="-1" Cut="0.0000000000000000e+00" cType="1" res="1.3702394440770149e-02" rms="4.2376109957695007e-01" purity="7.4317419528961182e-01" nType="-99"/>
          <Node pos="r" depth="2" NCoef="0" IVar="-1" Cut="0.0000000000000000e+00" cType="1" res="-1.7999194096773863e-03" rms="4.4160318374633789e-01" purity="4.5048195123672485e-01" nType="-99"/>
        </Node>
        <Node pos="r" depth="1" NCoef="0" IVar="-1" Cut="0.0000000000000000e+00" cType="1" res="-2.7516823261976242e-02" rms="3.8819953799247742e-01" purity="1.9949953258037567e-01" nType="-99"/>
      </Node>
    </BinaryTree>
    <BinaryTree type="DecisionTree" boostWeight="1.0000000000000000e+00" itree="31">
      <Node pos="s" depth="0" NCoef="0" IVar="9" Cut="1.8573365211486816e+00" cType="1" res="3.6299244966357946e-03" rms="4.3414324522018433e-01" purity="5.0340235233306885e-01" nType="0">
        <Node pos="l" depth="1" NCoef="0" IVar="5" Cut="-8.0951404571533203e-01" cType="1" res="1.3524905778467655e-02" rms="4.4497886300086975e-01" purity="5.4968076944351196e-01" nType="0">
          <Node pos="l" depth="2" NCoef="0" IVar="-1" Cut="0.0000000000000000e+00" cType="1" res="-1.0068624280393124e-02" rms="4.0658357739448547e-01" purity="2.5454086065292358e-01" nType="-99"/>
          <Node pos="r" depth="2" NCoef="0" IVar="-1" Cut="0.0000000000000000e+00" cType="1" res="6.3579515554010868e-03" rms="4.5425394177436829e-01" purity="6.3354277610778809e-01" nType="-99"/>
        </Node>
        <Node pos="r" depth="1" NCoef="0" IVar="9" Cut="2.2925713062286377e+00" cType="1" res="-7.5370050966739655e-02" rms="3.2466140389442444e-01" purity="1.3392244279384613e-01" nType="0">
          <Node pos="l" depth="2" NCoef="0" IVar="-1" Cut="0.0000000000000000e+00" cType="1" res="-1.3747985474765301e-02" rms="3.7857350707054138e-01" purity="1.9412569701671600e-01" nType="-99"/>
          <Node pos="r" depth="2" NCoef="0" IVar="-1" Cut="0.0000000000000000e+00" cType="1" res="-3.4531407058238983e-02" rms="2.6495188474655151e-01" purity="7.9980984330177307e-02" nType="-99"/>
        </Node>
      </Node>
    </BinaryTree>
    <BinaryTree type="DecisionTree" boostWeight="1.0000000000000000e+00" itree="32">
      <Node pos="s" depth="0" NCoef="0" IVar="6" Cut="-9.5128582763671875e+02" cType="1" res="-5.1101446151733398e-03" rms="4.3882390856742859e-01" purity="4.9824634194374084e-01" nType="0">
        <Node pos="l" depth="1" NCoef="0" IVar="5" Cut="-6.1905705928802490e-01" cType="1" res="-3.5287346690893173e-02" rms="4.1201671957969666e-01" purity="3.8561400771141052e-01" nType="0">
          <Node pos="l" depth="2" NCoef="0" IVar="-1" Cut="0.0000000000000000e+00" cType="1" res="-2.5016043335199356e-02" rms="3.6443743109703064e-01" purity="1.8812364339828491e-01" nType="-99"/>
          <Node pos="r" depth="2" NCoef="0" IVar="-1" Cut="0.0000000000000000e+00" cType="1" res="3.0107162892818451e-03" rms="4.4859436154365540e-01" purity="5.7870948314666748e-01" nType="-99"/>
        </Node>
        <Node pos="r" depth="1" NCoef="0" IVar="6" Cut="-1.2853777408599854e+00" cType="1" res="1.8796129152178764e-02" rms="4.5753952860832214e-01" purity="5.8747321367263794e-01" nType="0">
          <Node pos="l" depth="2" NCoef="0" IVar="-1" Cut="0.0000000000000000e+00" cType="1" res="-4.9164261668920517e-02" rms="4.2958441376686096e-01" purity="3.0278876423835754e-01" nType="-99"/>
          <Node pos="r" depth="2" NCoef="0" IVar="-1" Cut="0.0000000000000000e+00" cType="1" res="1.1730745434761047e-02" rms="4.5185941457748413e-01" purity="6.2743037939071655e-01" nType="-99"/>
        </Node>
      </Node>
    </BinaryTree>
    <BinaryTree type="DecisionTree" boostWeight="1.0000000000000000e+00" itree="33">
      <Node pos="s" depth="0" NCoef="0" IVar="4" Cut="9.9952435493469238e-01" cType="1" res="-2.7475124807097018e-04" rms="4.3447604775428772e-01" purity="4.9930924177169800e-01" nType="0">
        <Node pos="l" depth="1" NCoef="0" IVar="-1" Cut="0.0000000000000000e+00" cType="1" res="-2.6313737034797668e-02" rms="4.2471209168434143e-01" purity="2.6522693037986755e-01" nType="-99"/>
        <Node pos="r" depth="1" NCoef="0" IVar="9" Cut="1.8560402393341064e+00" cType="1" res="4.7880285419523716e-03" rms="4.3427157402038574e-01" purity="5.1030004024505615e-01" nType="0">
          <Node pos="l" depth="2" NCoef="0" IVar="-1" Cut="0.0000000000000000e+00" cType="1" res="3.0554046388715506e-03" rms="4.4486355781555176e-01" purity="5.5624842643737793e-01" nType="-99"/>
          <Node pos="r" depth="2" NCoef="0" IVar="-1" Cut="0.0000000000000000e+00" cType="1" res="-1.9483292475342751e-02" rms="3.3018121123313904e-01" purity="1.4098306000232697e-01" nType="-99"/>
        </Node>
      </Node>
    </BinaryTree>
    <BinaryTree type="DecisionTree" boostWeight="1.0000000000000000e+00" itree="34">
      <Node pos="s" depth="0" NCoef="0" IVar="5" Cut="6.1901915073394775e-01" cType="1" res="-2.6821510400623083e-03" rms="4.3645364046096802e-01" purity="4.9737155437469482e-01" nType="0">
        <Node pos="l" depth="1" NCoef="0" IVar="6" Cut="-9.5128588867187500e+02" cType="1" res="7.6189991086721420e-03" rms="4.3424403667449951e-01" purity="5.2593320608139038e-01" nType="0">
          <Node pos="l" depth="2" NCoef="0" IVar="-1" Cut="0.0000000000000000e+00" cType="1" res="-7.4956323951482773e-03" rms="4.0868633985519409e-01" purity="3.9081627130508423e-01" nType="-99"/>
          <Node pos="r" depth="2" NCoef="0" IVar="-1" Cut="0.0000000000000000e+00" cType="1" res="8.8311666622757912e-03" rms="4.5305401086807251e-01" purity="6.4324605464935303e-01" nType="-99"/>
        </Node>
        <Node pos="r" depth="1" NCoef="0" IVar="9" Cut="7.1234095096588135e-01" cType="1" res="-5.2577782422304153e-02" rms="4.4362932443618774e-01" purity="3.5902759432792664e-01" nType="0">
          <Node pos="l" depth="2" NCoef="0" IVar="-1" Cut="0.0000000000000000e+00" cType="1" res="-2.5891147088259459e-03" rms="4.8113310337066650e-01" purity="4.7569966316223145e-01" nType="-99"/>
          <Node pos="r" depth="2" NCoef="0" IVar="-1" Cut="0.0000000000000000e+00" cType="1" res="-2.7041953057050705e-02" rms="3.8064858317375183e-01" purity="2.0168124139308929e-01" nType="-99"/>
        </Node>
      </Node>
    </BinaryTree>
    <BinaryTree type="DecisionTree" boostWeight="1.0000000000000000e+00" itree="35">
      <Node pos="s" depth="0" NCoef="0" IVar="11" Cut="-1.2048313617706299e+00" cType="1" res="-1.7944729188457131e-03" rms="4.3266743421554565e-01" purity="4.9748292565345764e-01" nType="0">
        <Node pos="l" depth="1" NCoef="0" IVar="5" Cut="-5.2315270900726318e-01" cType="1" res="3.5839900374412537e-02" rms="4.3172508478164673e-01" purity="7.1092242002487183e-01" nType="0">
          <Node pos="l" depth="2" NCoef="0" IVar="-1" Cut="0.0000000000000000e+00" cType="1" res="-1.3297504745423794e-02" rms="4.7070619463920593e-01" purity="6.1914539337158203e-01" nType="-99"/>
          <Node pos="r" depth="2" NCoef="0" IVar="-1" Cut="0.0000000000000000e+00" cType="1" res="1.1541781947016716e-02" rms="4.2518556118011475e-01" purity="7.2238880395889282e-01" nType="-99"/>
        </Node>
        <Node pos="r" depth="1" NCoef="0" IVar="5" Cut="3.3327212929725647e-01" cType="1" res="-1.7494495958089828e-02" rms="4.3209207057952881e-01" purity="4.0844184160232544e-01" nType="0">
          <Node pos="l" depth="2" NCoef="0" IVar="-1" Cut="0.0000000000000000e+00" cType="1" res="-5.9309444623067975e-04" rms="4.3100982904434204e-01" purity="4.2642793059349060e-01" nType="-99"/>
          <Node pos="r" depth="2" NCoef="0" IVar="-1" Cut="0.0000000000000000e+00" cType="1" res="-1.6539428383111954e-02" rms="4.3176326155662537e-01" purity="3.4653395414352417e-01" nType="-99"/>
        </Node>
      </Node>
    </BinaryTree>
    <BinaryTree type="DecisionTree" boostWeight="1.0000000000000000e+00" itree="36">
      <Node pos="s" depth="0" NCoef="0" IVar="5" Cut="9.0472644567489624e-01" cType="1" res="1.8366873264312744e-03" rms="4.3028211593627930e-01" purity="4.9986574053764343e-01" nType="0">
        <Node pos="l" depth="1" NCoef="0" IVar="5" Cut="-7.2791546583175659e-01" cType="1" res="7.8152790665626526e-03" rms="4.3203154206275940e-01" purity="5.1593202352523804e-01" nType="0">
          <Node pos="l" depth="2" NCoef="0" IVar="-1" Cut="0.0000000000000000e+00" cType="1" res="-1.0539045557379723e-02" rms="4.0472644567489624e-01" purity="2.6894858479499817e-01" nType="-99"/>
          <Node pos="r" depth="2" NCoef="0" IVar="-1" Cut="0.0000000000000000e+00" cType="1" res="6.2163681723177433e-03" rms="4.4112694263458252e-01" purity="6.1472326517105103e-01" nType="-99"/>
        </Node>
        <Node pos="r" depth="1" NCoef="0" IVar="-1" Cut="0.0000000000000000e+00" cType="1" res="-2.9239855706691742e-02" rms="3.7446656823158264e-01" purity="1.7997702956199646e-01" nType="-99"/>
      </Node>
    </BinaryTree>
    <BinaryTree type="DecisionTree" boostWeight="1.0000000000000000e+00" itree="37">
      <Node pos="s" depth="0" NCoef="0" IVar="5" Cut="5.2379530668258667e-01" cType="1" res="1.3112310261931270e-04" rms="4.3453449010848999e-01" purity="5.0114226341247559e-01" nType="0">
        <Node pos="l" depth="1" NCoef="0" IVar="5" Cut="-9.2742371559143066e-01" cType="1" res="1.2480694800615311e-02" rms="4.3082755804061890e-01" purity="5.2974933385848999e-01" nType="0">
          <Node pos="l" depth="2" NCoef="0" IVar="-1" Cut="0.0000000000000000e+00" cType="1" res="-1.6848007217049599e-02" rms="3.4898707270622253e-01" purity="1.6084907948970795e-01" nType="-99"/>
          <Node pos="r" depth="2" NCoef="0" IVar="-1" Cut="0.0000000000000000e+00" cType="1" res="5.5310246534645557e-03" rms="4.4153544306755066e-01" purity="5.8819419145584106e-01" nType="-99"/>
        </Node>
        <Node pos="r" depth="1" NCoef="0" IVar="5" Cut="8.8664835691452026e-01" cType="1" res="-4.7469660639762878e-02" rms="4.4534361362457275e-01" purity="3.9087787270545959e-01" nType="0">
          <Node pos="l" depth="2" NCoef="0" IVar="-1" Cut="0.0000000000000000e+00" cType="1" res="-6.0554370284080505e-03" rms="4.6546554565429688e-01" purity="4.6567279100418091e-01" nType="-99"/>
          <Node pos="r" depth="2" NCoef="0" IVar="-1" Cut="0.0000000000000000e+00" cType="1" res="-2.6143196970224380e-02" rms="3.8049966096878052e-01" purity="1.8961906433105469e-01" nType="-99"/>
        </Node>
      </Node>
    </BinaryTree>
    <BinaryTree type="DecisionTree" boostWeight="1.0000000000000000e+00" itree="38">
      <Node pos="s" depth="0" NCoef="0" IVar="5" Cut="4.2840918898582458e-01" cType="1" res="-1.4352214056998491e-03" rms="4.3418708443641663e-01" purity="4.9896115064620972e-01" nType="0">
        <Node pos="l" depth="1" NCoef="0" IVar="6" Cut="-9.5128594970703125e+02" cType="1" res="1.1504337191581726e-02" rms="4.3044525384902954e-01" purity="5.2392333745956421e-01" nType="0">
          <Node pos="l" depth="2" NCoef="0" IVar="-1" Cut="0.0000000000000000e+00" cType="1" res="-7.2328033857047558e-03" rms="4.0540945529937744e-01" purity="3.8149628043174744e-01" nType="-99"/>
          <Node pos="r" depth="2" NCoef="0" IVar="-1" Cut="0.0000000000000000e+00" cType="1" res="1.0998089797794819e-02" rms="4.5005682110786438e-01" purity="6.5926045179367065e-01" nType="-99"/>
        </Node>
        <Node pos="r" depth="1" NCoef="0" IVar="11" Cut="-5.9595590829849243e-01" cType="1" res="-4.0994413197040558e-02" rms="4.4309443235397339e-01" purity="4.2264601588249207e-01" nType="0">
          <Node pos="l" depth="2" NCoef="0" IVar="-1" Cut="0.0000000000000000e+00" cType="1" res="-3.1273220665752888e-03" rms="4.6733000874519348e-01" purity="5.3369510173797607e-01" nType="-99"/>
          <Node pos="r" depth="2" NCoef="0" IVar="-1" Cut="0.0000000000000000e+00" cType="1" res="-2.1937206387519836e-02" rms="3.9575192332267761e-01" purity="2.3878847062587738e-01" nType="-99"/>
        </Node>
      </Node>
    </BinaryTree>
    <BinaryTree type="DecisionTree" boostWeight="1.0000000000000000e+00" itree="39">
      <Node pos="s" depth="0" NCoef="0" IVar="9" Cut="2.1416325569152832e+00" cType="1" res="1.2046766933053732e-03" rms="4.3434956669807434e-01" purity="5.0241899490356445e-01" nType="0">
        <Node pos="l" depth="1" NCoef="0" IVar="9" Cut="-1.5283275842666626e+00" cType="1" res="6.4905229955911636e-03" rms="4.4368898868560791e-01" purity="5.3633898496627808e-01" nType="0">
          <Node pos="l" depth="2" NCoef="0" IVar="-1" Cut="0.0000000000000000e+00" cType="1" res="-1.7906788736581802e-02" rms="4.0840706229209900e-01" purity="4.7790858149528503e-01" nType="-99"/>
          <Node pos="r" depth="2" NCoef="0" IVar="-1" Cut="0.0000000000000000e+00" cType="1" res="2.8446209616959095e-03" rms="4.4560313224792480e-01" purity="5.4047787189483643e-01" nType="-99"/>
        </Node>
        <Node pos="r" depth="1" NCoef="0" IVar="-1" Cut="0.0000000000000000e+00" cType="1" res="-2.2274676710367203e-02" rms="2.9822069406509399e-01" purity="1.0697501152753830e-01" nType="-99"/>
      </Node>
    </BinaryTree>
    <BinaryTree type="DecisionTree" boostWeight="1.0000000000000000e+00" itree="40">
      <Node pos="s" depth="0" NCoef="0" IVar="11" Cut="-1.5223863124847412e+00" cType="1" res="1.9162566168233752e-03" rms="4.3217095732688904e-01" purity="5.0116062164306641e-01" nType="0">
        <Node pos="l" depth="1" NCoef="0" IVar="5" Cut="-4.2205700278282166e-01" cType="1" res="4.3682076036930084e-02" rms="4.1972920298576355e-01" purity="7.2874021530151367e-01" nType="0">
          <Node pos="l" depth="2" NCoef="0" IVar="-1" Cut="0.0000000000000000e+00" cType="1" res="-1.0466028004884720e-02" rms="4.6238437294960022e-01" purity="6.5406548976898193e-01" nType="-99"/>
          <Node pos="r" depth="2" NCoef="0" IVar="-1" Cut="0.0000000000000000e+00" cType="1" res="1.4518979005515575e-02" rms="4.1029474139213562e-01" purity="7.4133545160293579e-01" nType="-99"/>
        </Node>
        <Node pos="r" depth="1" NCoef="0" IVar="9" Cut="-6.9863778352737427e-01" cType="1" res="-9.0996790677309036e-03" rms="4.3472507596015930e-01" purity="4.4113534688949585e-01" nType="0">
          <Node pos="l" depth="2" NCoef="0" IVar="-1" Cut="0.0000000000000000e+00" cType="1" res="-2.4148309603333473e-02" rms="3.9215484261512756e-01" purity="2.9396039247512817e-01" nType="-99"/>
          <Node pos="r" depth="2" NCoef="0" IVar="-1" Cut="0.0000000000000000e+00" cType="1" res="-2.2551446454599500e-04" rms="4.3788349628448486e-01" purity="4.5576316118240356e-01" nType="-99"/>
        </Node>
      </Node>
    </BinaryTree>
    <BinaryTree type="DecisionTree" boostWeight="1.0000000000000000e+00" itree="41">
      <Node pos="s" depth="0" NCoef="0" IVar="5" Cut="5.2373981475830078e-01" cType="1" res="-8.6968328105285764e-04" rms="4.3351629376411438e-01" purity="4.9814018607139587e-01" nType="0">
        <Node pos="l" depth="1" NCoef="0" IVar="6" Cut="-9.5128582763671875e+02" cType="1" res="1.0868605226278305e-02" rms="4.2947602272033691e-01" purity="5.2744120359420776e-01" nType="0">
          <Node pos="l" depth="2" NCoef="0" IVar="-1" Cut="0.0000000000000000e+00" cType="1" res="-5.9458888135850430e-03" rms="4.0346220135688782e-01" purity="3.8418582081794739e-01" nType="-99"/>
          <Node pos="r" depth="2" NCoef="0" IVar="-1" Cut="0.0000000000000000e+00" cType="1" res="9.5002381131052971e-03" rms="4.4997584819793701e-01" purity="6.5869307518005371e-01" nType="-99"/>
        </Node>
        <Node pos="r" depth="1" NCoef="0" IVar="2" Cut="-1.8967237323522568e-02" cType="1" res="-4.4783908873796463e-02" rms="4.4557452201843262e-01" purity="3.8852179050445557e-01" nType="0">
          <Node pos="l" depth="2" NCoef="0" IVar="-1" Cut="0.0000000000000000e+00" cType="1" res="-9.2179910279810429e-04" rms="4.5996454358100891e-01" purity="4.3912711739540100e-01" nType="-99"/>
          <Node pos="r" depth="2" NCoef="0" IVar="-1" Cut="0.0000000000000000e+00" cType="1" res="-1.4518287964165211e-02" rms="4.3832033872604370e-01" purity="3.6744180321693420e-01" nType="-99"/>
        </Node>
      </Node>
    </BinaryTree>
    <BinaryTree type="DecisionTree" boostWeight="1.0000000000000000e+00" itree="42">
      <Node pos="s" depth="0" NCoef="0" IVar="2" Cut="1.1185606569051743e-01" cType="1" res="-2.0498854573816061e-03" rms="4.3249598145484924e-01" purity="4.9653339385986328e-01" nType="0">
        <Node pos="l" depth="1" NCoef="0" IVar="1" Cut="7.3404395952820778e-03" cType="1" res="2.2335932590067387e-03" rms="4.3183544278144836e-01" purity="5.0162070989608765e-01" nType="0">
          <Node pos="l" depth="2" NCoef="0" IVar="-1" Cut="0.0000000000000000e+00" cType="1" res="-1.8161038169637322e-03" rms="4.3164011836051941e-01" purity="4.9167373776435852e-01" nType="-99"/>
          <Node pos="r" depth="2" NCoef="0" IVar="-1" Cut="0.0000000000000000e+00" cType="1" res="1.1424964293837547e-02" rms="4.3008700013160706e-01" purity="5.4693293571472168e-01" nType="-99"/>
        </Node>
        <Node pos="r" depth="1" NCoef="0" IVar="-1" Cut="0.0000000000000000e+00" cType="1" res="-1.9413236528635025e-02" rms="4.3712398409843445e-01" purity="4.0609490871429443e-01" nType="-99"/>
      </Node>
    </BinaryTree>
    <BinaryTree type="DecisionTree" boostWeight="1.0000000000000000e+00" itree="43">
      <Node pos="s" depth="0" NCoef="0" IVar="11" Cut="-1.2048313617706299e+00" cType="1" res="-2.5346954353153706e-03" rms="4.3266344070434570e-01" purity="4.9855446815490723e-01" nType="0">
        <Node pos="l" depth="1" NCoef="0" IVar="5" Cut="8.0905318260192871e-01" cType="1" res="2.4813748896121979e-02" rms="4.3035852909088135e-01" purity="7.0569682121276855e-01" nType="0">
          <Node pos="l" depth="2" NCoef="0" IVar="-1" Cut="0.0000000000000000e+00" cType="1" res="8.1469435244798660e-03" rms="4.2312216758728027e-01" purity="7.5211113691329956e-01" nType="-99"/>
          <Node pos="r" depth="2" NCoef="0" IVar="-1" Cut="0.0000000000000000e+00" cType="1" res="-5.7713696733117104e-03" rms="4.7578302025794983e-01" purity="3.7314379215240479e-01" nType="-99"/>
        </Node>
        <Node pos="r" depth="1" NCoef="0" IVar="9" Cut="-6.9811421632766724e-01" cType="1" res="-1.4036502689123154e-02" rms="4.3311360478401184e-01" purity="4.1143760085105896e-01" nType="0">
          <Node pos="l" depth="2" NCoef="0" IVar="-1" Cut="0.0000000000000000e+00" cType="1" res="-2.4630218744277954e-02" rms="3.7459802627563477e-01" purity="2.4261981248855591e-01" nType="-99"/>
          <Node pos="r" depth="2" NCoef="0" IVar="-1" Cut="0.0000000000000000e+00" cType="1" res="-1.6883278731256723e-03" rms="4.3755286931991577e-01" purity="4.2742532491683960e-01" nType="-99"/>
        </Node>
      </Node>
    </BinaryTree>
    <BinaryTree type="DecisionTree" boostWeight="1.0000000000000000e+00" itree="44">
      <Node pos="s" depth="0" NCoef="0" IVar="5" Cut="5.2373975515365601e-01" cType="1" res="-3.4611537121236324e-03" rms="4.3440100550651550e-01" purity="4.9591016769409180e-01" nType="0">
        <Node pos="l" depth="1" NCoef="0" IVar="5" Cut="-9.2742848396301270e-01" cType="1" res="4.5366347767412663e-03" rms="4.3148714303970337e-01" purity="5.2245903015136719e-01" nType="0">
          <Node pos="l" depth="2" NCoef="0" IVar="-1" Cut="0.0000000000000000e+00" cType="1" res="-1.2565657496452332e-02" rms="3.4741443395614624e-01" purity="1.6307339072227478e-01" nType="-99"/>
          <Node pos="r" depth="2" NCoef="0" IVar="-1" Cut="0.0000000000000000e+00" cType="1" res="2.7543546166270971e-03" rms="4.4314628839492798e-01" purity="5.8018493652343750e-01" nType="-99"/>
        </Node>
        <Node pos="r" depth="1" NCoef="0" IVar="11" Cut="-2.8489696979522705e-01" cType="1" res="-3.4201130270957947e-02" rms="4.4408449530601501e-01" purity="3.9386785030364990e-01" nType="0">
          <Node pos="l" depth="2" NCoef="0" IVar="-1" Cut="0.0000000000000000e+00" cType="1" res="-3.1925812363624573e-03" rms="4.7641614079475403e-01" purity="4.8935800790786743e-01" nType="-99"/>
          <Node pos="r" depth="2" NCoef="0" IVar="-1" Cut="0.0000000000000000e+00" cType="1" res="-2.4234713986515999e-02" rms="3.4844896197319031e-01" purity="1.6101643443107605e-01" nType="-99"/>
        </Node>
      </Node>
    </BinaryTree>
    <BinaryTree type="DecisionTree" boostWeight="1.0000000000000000e+00" itree="45">
      <Node pos="s" depth="0" NCoef="0" IVar="9" Cut="-1.5696330070495605e+00" cType="1" res="2.4330193991772830e-04" rms="4.3153759837150574e-01" purity="4.9935886263847351e-01" nType="0">
        <Node pos="l" depth="1" NCoef="0" IVar="3" Cut="1.6964132785797119e+00" cType="1" res="-7.5310245156288147e-02" rms="4.0198081731796265e-01" purity="4.6496343612670898e-01" nType="0">
          <Node pos="l" depth="2" NCoef="0" IVar="-1" Cut="0.0000000000000000e+00" cType="1" res="-2.4319151416420937e-02" rms="4.0389838814735413e-01" purity="4.4347462058067322e-01" nType="-99"/>
          <Node pos="r" depth="2" NCoef="0" IVar="-1" Cut="0.0000000000000000e+00" cType="1" res="-1.6010891646146774e-02" rms="3.9981454610824585e-01" purity="4.8323404788970947e-01" nType="-99"/>
        </Node>
        <Node pos="r" depth="1" NCoef="0" IVar="9" Cut="2.3447990417480469e+00" cType="1" res="4.9891248345375061e-03" rms="4.3288692831993103e-01" purity="5.0151938199996948e-01" nType="0">
          <Node pos="l" depth="2" NCoef="0" IVar="-1" Cut="0.0000000000000000e+00" cType="1" res="2.4880608543753624e-03" rms="4.4112914800643921e-01" purity="5.2861678600311279e-01" nType="-99"/>
          <Node pos="r" depth="2" NCoef="0" IVar="-1" Cut="0.0000000000000000e+00" cType="1" res="-3.0225988477468491e-02" rms="2.5942504405975342e-01" purity="7.5841374695301056e-02" nType="-99"/>
        </Node>
      </Node>
    </BinaryTree>
    <BinaryTree type="DecisionTree" boostWeight="1.0000000000000000e+00" itree="46">
      <Node pos="s" depth="0" NCoef="0" IVar="4" Cut="9.9952530860900879e-01" cType="1" res="1.6679709078744054e-03" rms="4.2974734306335449e-01" purity="5.0186002254486084e-01" nType="0">
        <Node pos="l" depth="1" NCoef="0" IVar="-1" Cut="0.0000000000000000e+00" cType="1" res="-2.2637631744146347e-02" rms="4.2955365777015686e-01" purity="2.6978218555450439e-01" nType="-99"/>
        <Node pos="r" depth="1" NCoef="0" IVar="9" Cut="1.5718015432357788e+00" cType="1" res="6.1212833970785141e-03" rms="4.2926129698753357e-01" purity="5.1320177316665649e-01" nType="0">
          <Node pos="l" depth="2" NCoef="0" IVar="-1" Cut="0.0000000000000000e+00" cType="1" res="3.5267786588519812e-03" rms="4.3941408395767212e-01" purity="5.7081973552703857e-01" nType="-99"/>
          <Node pos="r" depth="2" NCoef="0" IVar="-1" Cut="0.0000000000000000e+00" cType="1" res="-1.2701550498604774e-02" rms="3.6336177587509155e-01" purity="1.8899382650852203e-01" nType="-99"/>
        </Node>
      </Node>
    </BinaryTree>
    <BinaryTree type="DecisionTree" boostWeight="1.0000000000000000e+00" itree="47">
      <Node pos="s" depth="0" NCoef="0" IVar="9" Cut="-1.8546175956726074e+00" cType="1" res="-1.7024629050865769e-03" rms="4.3044266104698181e-01" purity="4.9625372886657715e-01" nType="0">
        <Node pos="l" depth="1" NCoef="0" IVar="-1" Cut="0.0000000000000000e+00" cType="1" res="-2.0830409601330757e-02" rms="3.8370048999786377e-01" purity="4.1367271542549133e-01" nType="-99"/>
        <Node pos="r" depth="1" NCoef="0" IVar="5" Cut="4.2854765057563782e-01" cType="1" res="1.0873915161937475e-03" rms="4.3181702494621277e-01" purity="4.9930018186569214e-01" nType="0">
          <Node pos="l" depth="2" NCoef="0" IVar="-1" Cut="0.0000000000000000e+00" cType="1" res="2.5921657215803862e-03" rms="4.2854294180870056e-01" purity="5.2425038814544678e-01" nType="-99"/>
          <Node pos="r" depth="2" NCoef="0" IVar="-1" Cut="0.0000000000000000e+00" cType="1" res="-6.3477531075477600e-03" rms="4.4048985838890076e-01" purity="4.2345562577247620e-01" nType="-99"/>
        </Node>
      </Node>
    </BinaryTree>
    <BinaryTree type="DecisionTree" boostWeight="1.0000000000000000e+00" itree="48">
      <Node pos="s" depth="0" NCoef="0" IVar="10" Cut="-9.3243008852005005e-01" cType="1" res="-4.4194338843226433e-03" rms="4.3233042955398560e-01" purity="4.9396365880966187e-01" nType="0">
        <Node pos="l" depth="1" NCoef="0" IVar="5" Cut="3.3332324028015137e-01" cType="1" res="1.7860562074929476e-03" rms="4.4784390926361084e-01" purity="5.5629920959472656e-01" nType="0">
          <Node pos="l" depth="2" NCoef="0" IVar="-1" Cut="0.0000000000000000e+00" cType="1" res="3.3824662677943707e-03" rms="4.4991058111190796e-01" purity="6.0469901561737061e-01" nType="-99"/>
          <Node pos="r" depth="2" NCoef="0" IVar="-1" Cut="0.0000000000000000e+00" cType="1" res="-5.5645094253122807e-03" rms="4.4254970550537109e-01" purity="4.5749863982200623e-01" nType="-99"/>
        </Node>
        <Node pos="r" depth="1" NCoef="0" IVar="6" Cut="-9.5128698730468750e+02" cType="1" res="-3.8033515214920044e-02" rms="3.3407589793205261e-01" purity="1.5630294382572174e-01" nType="0">
          <Node pos="l" depth="2" NCoef="0" IVar="-1" Cut="0.0000000000000000e+00" cType="1" res="-2.4101378396153450e-02" rms="2.7385610342025757e-01" purity="8.4878094494342804e-02" nType="-99"/>
          <Node pos="r" depth="2" NCoef="0" IVar="-1" Cut="0.0000000000000000e+00" cType="1" res="5.4561947472393513e-03" rms="4.7079315781593323e-01" purity="3.8095319271087646e-01" nType="-99"/>
        </Node>
      </Node>
    </BinaryTree>
    <BinaryTree type="DecisionTree" boostWeight="1.0000000000000000e+00" itree="49">
      <Node pos="s" depth="0" NCoef="0" IVar="5" Cut="9.0474069118499756e-01" cType="1" res="-2.7908065821975470e-03" rms="4.3311899900436401e-01" purity="4.9595111608505249e-01" nType="0">
        <Node pos="l" depth="1" NCoef="0" IVar="5" Cut="-7.2787427902221680e-01" cType="1" res="4.4750928645953536e-04" rms="4.3506073951721191e-01" purity="5.1073497533798218e-01" nType="0">
          <Node pos="l" depth="2" NCoef="0" IVar="-1" Cut="0.0000000000000000e+00" cType="1" res="-7.3710209690034389e-03" rms="4.0772750973701477e-01" purity="2.7276667952537537e-01" nType="-99"/>
          <Node pos="r" depth="2" NCoef="0" IVar="-1" Cut="0.0000000000000000e+00" cType="1" res="2.6273860130459070e-03" rms="4.4497254490852356e-01" purity="6.0478103160858154e-01" nType="-99"/>
        </Node>
        <Node pos="r" depth="1" NCoef="0" IVar="-1" Cut="0.0000000000000000e+00" cType="1" res="-1.8897160887718201e-02" rms="3.8490852713584900e-01" purity="1.9109392166137695e-01" nType="-99"/>
      </Node>
    </BinaryTree>
    <BinaryTree type="DecisionTree" boostWeight="1.0000000000000000e+00" itree="50">
      <Node pos="s" depth="0" NCoef="0" IVar="10" Cut="-3.8155007362365723e+00" cType="1" res="-7.0709228748455644e-04" rms="4.3146961927413940e-01" purity="4.9704650044441223e-01" nType="0">
        <Node pos="l" depth="1" NCoef="0" IVar="5" Cut="-4.2795026302337646e-01" cType="1" res="2.9147798195481300e-02" rms="4.2218682169914246e-01" purity="7.2442841529846191e-01" nType="0">
          <Node pos="l" depth="2" NCoef="0" IVar="-1" Cut="0.0000000000000000e+00" cType="1" res="-8.5337944328784943e-03" rms="4.5706915855407715e-01" purity="6.7345172166824341e-01" nType="-99"/>
          <Node pos="r" depth="2" NCoef="0" IVar="-1" Cut="0.0000000000000000e+00" cType="1" res="9.9951308220624924e-03" rms="4.1560497879981995e-01" purity="7.3237615823745728e-01" nType="-99"/>
        </Node>
        <Node pos="r" depth="1" NCoef="0" IVar="9" Cut="-9.9792075157165527e-01" cType="1" res="-9.5194000750780106e-03" rms="4.3377912044525146e-01" purity="4.2992985248565674e-01" nType="0">
          <Node pos="l" depth="2" NCoef="0" IVar="-1" Cut="0.0000000000000000e+00" cType="1" res="-2.4693993851542473e-02" rms="3.8128376007080078e-01" purity="2.7838295698165894e-01" nType="-99"/>
          <Node pos="r" depth="2" NCoef="0" IVar="-1" Cut="0.0000000000000000e+00" cType="1" res="-9.7094505326822400e-04" rms="4.3667736649513245e-01" purity="4.4060108065605164e-01" nType="-99"/>
        </Node>
      </Node>
    </BinaryTree>
    <BinaryTree type="DecisionTree" boostWeight="1.0000000000000000e+00" itree="51">
      <Node pos="s" depth="0" NCoef="0" IVar="9" Cut="1.8551179170608521e+00" cType="1" res="-9.4518327387049794e-05" rms="4.3172842264175415e-01" purity="4.9839410185813904e-01" nType="0">
        <Node pos="l" depth="1" NCoef="0" IVar="5" Cut="3.3332338929176331e-01" cType="1" res="5.2998345345258713e-03" rms="4.4386148452758789e-01" purity="5.4618412256240845e-01" nType="0">
          <Node pos="l" depth="2" NCoef="0" IVar="-1" Cut="0.0000000000000000e+00" cType="1" res="3.4694313071668148e-03" rms="4.3484523892402649e-01" purity="5.5748033523559570e-01" nType="-99"/>
          <Node pos="r" depth="2" NCoef="0" IVar="-1" Cut="0.0000000000000000e+00" cType="1" res="-3.8476898334920406e-03" rms="4.6588334441184998e-01" purity="5.1665419340133667e-01" nType="-99"/>
        </Node>
        <Node pos="r" depth="1" NCoef="0" IVar="9" Cut="2.3444149494171143e+00" cType="1" res="-4.1266422718763351e-02" rms="3.2154133915901184e-01" purity="1.3364095985889435e-01" nType="0">
          <Node pos="l" depth="2" NCoef="0" IVar="-1" Cut="0.0000000000000000e+00" cType="1" res="-4.6260100789368153e-03" rms="3.8088479638099670e-01" purity="1.9928883016109467e-01" nType="-99"/>
          <Node pos="r" depth="2" NCoef="0" IVar="-1" Cut="0.0000000000000000e+00" cType="1" res="-2.8660388663411140e-02" rms="2.5047558546066284e-01" purity="7.1668766438961029e-02" nType="-99"/>
        </Node>
      </Node>
    </BinaryTree>
    <BinaryTree type="DecisionTree" boostWeight="1.0000000000000000e+00" itree="52">
      <Node pos="s" depth="0" NCoef="0" IVar="2" Cut="1.4794139564037323e-01" cType="1" res="1.1417819187045097e-03" rms="4.3570473790168762e-01" purity="5.0410193204879761e-01" nType="0">
        <Node pos="l" depth="1" NCoef="0" IVar="5" Cut="9.0472680330276489e-01" cType="1" res="4.0408899076282978e-03" rms="4.3468263745307922e-01" purity="5.0795131921768188e-01" nType="0">
          <Node pos="l" depth="2" NCoef="0" IVar="-1" Cut="0.0000000000000000e+00" cType="1" res="1.8680316861718893e-03" rms="4.3669536709785461e-01" purity="5.2267527580261230e-01" nType="-99"/>
          <Node pos="r" depth="2" NCoef="0" IVar="-1" Cut="0.0000000000000000e+00" cType="1" res="-1.8666589632630348e-02" rms="3.8139304518699646e-01" purity="1.8843878805637360e-01" nType="-99"/>
        </Node>
        <Node pos="r" depth="1" NCoef="0" IVar="-1" Cut="0.0000000000000000e+00" cType="1" res="-1.9572742283344269e-02" rms="4.5552742481231689e-01" purity="4.0015870332717896e-01" nType="-99"/>
      </Node>
    </BinaryTree>
    <BinaryTree type="DecisionTree" boostWeight="1.0000000000000000e+00" itree="53">
      <Node pos="s" depth="0" NCoef="0" IVar="5" Cut="-7.1427506208419800e-01" cType="1" res="1.1629819637164474e-03" rms="4.2887771129608154e-01" purity="4.9625018239021301e-01" nType="0">
        <Node pos="l" depth="1" NCoef="0" IVar="11" Cut="-1.2002199143171310e-01" cType="1" res="-2.6163009926676750e-02" rms="4.0525090694427490e-01" purity="2.7605158090591431e-01" nType="0">
          <Node pos="l" depth="2" NCoef="0" IVar="-1" Cut="0.0000000000000000e+00" cType="1" res="-2.2153815254569054e-02" rms="4.7412252426147461e-01" purity="4.3569058179855347e-01" nType="-99"/>
          <Node pos="r" depth="2" NCoef="0" IVar="-1" Cut="0.0000000000000000e+00" cType="1" res="-2.1086344495415688e-03" rms="3.8339209556579590e-01" purity="2.3544532060623169e-01" nType="-99"/>
        </Node>
        <Node pos="r" depth="1" NCoef="0" IVar="9" Cut="1.2879651784896851e+00" cType="1" res="1.1928222142159939e-02" rms="4.3736717104911804e-01" purity="5.8299881219863892e-01" nType="0">
          <Node pos="l" depth="2" NCoef="0" IVar="-1" Cut="0.0000000000000000e+00" cType="1" res="5.2263541147112846e-03" rms="4.4498014450073242e-01" purity="6.6777330636978149e-01" nType="-99"/>
          <Node pos="r" depth="2" NCoef="0" IVar="-1" Cut="0.0000000000000000e+00" cType="1" res="-6.5925400704145432e-03" rms="4.0612813830375671e-01" purity="2.7139228582382202e-01" nType="-99"/>
        </Node>
      </Node>
    </BinaryTree>
    <BinaryTree type="DecisionTree" boostWeight="1.0000000000000000e+00" itree="54">
      <Node pos="s" depth="0" NCoef="0" IVar="9" Cut="2.1428878307342529e+00" cType="1" res="1.6979854553937912e-03" rms="4.3079414963722229e-01" purity="5.0368487834930420e-01" nType="0">
        <Node pos="l" depth="1" NCoef="0" IVar="4" Cut="9.9952501058578491e-01" cType="1" res="5.4283421486616135e-03" rms="4.4032818078994751e-01" purity="5.3693658113479614e-01" nType="0">
          <Node pos="l" depth="2" NCoef="0" IVar="-1" Cut="0.0000000000000000e+00" cType="1" res="-1.4984983019530773e-02" rms="4.5635652542114258e-01" purity="3.1269454956054688e-01" nType="-99"/>
          <Node pos="r" depth="2" NCoef="0" IVar="-1" Cut="0.0000000000000000e+00" cType="1" res="2.0335344597697258e-03" rms="4.3942639231681824e-01" purity="5.4633539915084839e-01" nType="-99"/>
        </Node>
        <Node pos="r" depth="1" NCoef="0" IVar="-1" Cut="0.0000000000000000e+00" cType="1" res="-1.8648926168680191e-02" rms="2.8622636198997498e-01" purity="9.7660347819328308e-02" nType="-99"/>
      </Node>
    </BinaryTree>
    <BinaryTree type="DecisionTree" boostWeight="1.0000000000000000e+00" itree="55">
      <Node pos="s" depth="0" NCoef="0" IVar="9" Cut="1.0010722875595093e+00" cType="1" res="3.2621414866298437e-03" rms="4.2963650822639465e-01" purity="5.0056320428848267e-01" nType="0">
        <Node pos="l" depth="1" NCoef="0" IVar="5" Cut="-7.1425980329513550e-01" cType="1" res="1.1491326615214348e-02" rms="4.3690341711044312e-01" purity="5.7952708005905151e-01" nType="0">
          <Node pos="l" depth="2" NCoef="0" IVar="-1" Cut="0.0000000000000000e+00" cType="1" res="-5.0069317221641541e-03" rms="4.2777663469314575e-01" purity="3.1812846660614014e-01" nType="-99"/>
          <Node pos="r" depth="2" NCoef="0" IVar="-1" Cut="0.0000000000000000e+00" cType="1" res="5.7297707535326481e-03" rms="4.3987649679183960e-01" purity="6.8275129795074463e-01" nType="-99"/>
        </Node>
        <Node pos="r" depth="1" NCoef="0" IVar="5" Cut="-2.3798683285713196e-01" cType="1" res="-1.8473058938980103e-02" rms="4.0902844071388245e-01" purity="2.9200121760368347e-01" nType="0">
          <Node pos="l" depth="2" NCoef="0" IVar="-1" Cut="0.0000000000000000e+00" cType="1" res="2.4245067033916712e-03" rms="3.8970389962196350e-01" purity="2.7085748314857483e-01" nType="-99"/>
          <Node pos="r" depth="2" NCoef="0" IVar="-1" Cut="0.0000000000000000e+00" cType="1" res="-1.0724096558988094e-02" rms="4.2365318536758423e-01" purity="3.1022879481315613e-01" nType="-99"/>
        </Node>
      </Node>
    </BinaryTree>
    <BinaryTree type="DecisionTree" boostWeight="1.0000000000000000e+00" itree="56">
      <Node pos="s" depth="0" NCoef="0" IVar="4" Cut="9.9952435493469238e-01" cType="1" res="-1.0688777547329664e-03" rms="4.2863479256629944e-01" purity="4.9680113792419434e-01" nType="0">
        <Node pos="l" depth="1" NCoef="0" IVar="-1" Cut="0.0000000000000000e+00" cType="1" res="-1.8396757543087006e-02" rms="4.2685222625732422e-01" purity="2.6290729641914368e-01" nType="-99"/>
        <Node pos="r" depth="1" NCoef="0" IVar="5" Cut="5.2352577447891235e-01" cType="1" res="2.2853279951959848e-03" rms="4.2844429612159729e-01" purity="5.0837016105651855e-01" nType="0">
          <Node pos="l" depth="2" NCoef="0" IVar="-1" Cut="0.0000000000000000e+00" cType="1" res="2.5476927403360605e-03" rms="4.2363706231117249e-01" purity="5.2976953983306885e-01" nType="-99"/>
          <Node pos="r" depth="2" NCoef="0" IVar="-1" Cut="0.0000000000000000e+00" cType="1" res="-7.4736028909683228e-03" rms="4.4804891943931580e-01" purity="4.1133186221122742e-01" nType="-99"/>
        </Node>
      </Node>
    </BinaryTree>
    <BinaryTree type="DecisionTree" boostWeight="1.0000000000000000e+00" itree="57">
      <Node pos="s" depth="0" NCoef="0" IVar="2" Cut="-1.4741195738315582e-01" cType="1" res="3.7978058680891991e-03" rms="4.3069699406623840e-01" purity="5.0437319278717041e-01" nType="0">
        <Node pos="l" depth="1" NCoef="0" IVar="-1" Cut="0.0000000000000000e+00" cType="1" res="-1.8939329311251640e-02" rms="4.3323791027069092e-01" purity="3.7916117906570435e-01" nType="-99"/>
        <Node pos="r" depth="1" NCoef="0" IVar="6" Cut="-9.5128588867187500e+02" cType="1" res="6.5822806209325790e-03" rms="4.3034663796424866e-01" purity="5.0889694690704346e-01" nType="0">
          <Node pos="l" depth="2" NCoef="0" IVar="-1" Cut="0.0000000000000000e+00" cType="1" res="-3.3152420073747635e-03" rms="4.0835714340209961e-01" purity="3.9550197124481201e-01" nType="-99"/>
          <Node pos="r" depth="2" NCoef="0" IVar="-1" Cut="0.0000000000000000e+00" cType="1" res="5.0789075903594494e-03" rms="4.4635555148124695e-01" purity="5.9811091423034668e-01" nType="-99"/>
        </Node>
      </Node>
    </BinaryTree>
    <BinaryTree type="DecisionTree" boostWeight="1.0000000000000000e+00" itree="58">
      <Node pos="s" depth="0" NCoef="0" IVar="11" Cut="-2.6159162521362305e+00" cType="1" res="-8.1784033682197332e-04" rms="4.2958566546440125e-01" purity="4.9657163023948669e-01" nType="0">
        <Node pos="l" depth="1" NCoef="0" IVar="-1" Cut="0.0000000000000000e+00" cType="1" res="2.2972162812948227e-02" rms="3.8572096824645996e-01" purity="7.6608484983444214e-01" nType="-99"/>
        <Node pos="r" depth="1" NCoef="0" IVar="9" Cut="-1.2828794717788696e+00" cType="1" res="-4.1186730377376080e-03" rms="4.3073123693466187e-01" purity="4.8679795861244202e-01" nType="0">
          <Node pos="l" depth="2" NCoef="0" IVar="-1" Cut="0.0000000000000000e+00" cType="1" res="-1.9124558195471764e-02" rms="3.7502577900886536e-01" purity="3.8932767510414124e-01" nType="-99"/>
          <Node pos="r" depth="2" NCoef="0" IVar="-1" Cut="0.0000000000000000e+00" cType="1" res="-4.9946938815992326e-06" rms="4.3368130922317505e-01" purity="4.9295020103454590e-01" nType="-99"/>
        </Node>
      </Node>
    </BinaryTree>
    <BinaryTree type="DecisionTree" boostWeight="1.0000000000000000e+00" itree="59">
      <Node pos="s" depth="0" NCoef="0" IVar="11" Cut="-2.6159162521362305e+00" cType="1" res="9.6094224136322737e-04" rms="4.2963588237762451e-01" purity="4.9987319111824036e-01" nType="0">
        <Node pos="l" depth="1" NCoef="0" IVar="-1" Cut="0.0000000000000000e+00" cType="1" res="1.7860831692814827e-02" rms="4.0678191184997559e-01" purity="7.7197116613388062e-01" nType="-99"/>
        <Node pos="r" depth="1" NCoef="0" IVar="5" Cut="9.0472680330276489e-01" cType="1" res="-1.5839313855394721e-03" rms="4.3026074767112732e-01" purity="4.8967331647872925e-01" nType="0">
          <Node pos="l" depth="2" NCoef="0" IVar="-1" Cut="0.0000000000000000e+00" cType="1" res="3.2881100196391344e-04" rms="4.3254601955413818e-01" purity="5.0473457574844360e-01" nType="-99"/>
          <Node pos="r" depth="2" NCoef="0" IVar="-1" Cut="0.0000000000000000e+00" cType="1" res="-1.7526049166917801e-02" rms="3.7509122490882874e-01" purity="1.7833043634891510e-01" nType="-99"/>
        </Node>
      </Node>
    </BinaryTree>
    <BinaryTree type="DecisionTree" boostWeight="1.0000000000000000e+00" itree="60">
      <Node pos="s" depth="0" NCoef="0" IVar="1" Cut="-1.4983059838414192e-02" cType="1" res="2.8776065446436405e-03" rms="4.3219101428985596e-01" purity="5.0448995828628540e-01" nType="0">
        <Node pos="l" depth="1" NCoef="0" IVar="1" Cut="-3.7016596645116806e-02" cType="1" res="4.0407929569482803e-02" rms="4.2215877771377563e-01" purity="5.4616683721542358e-01" nType="0">
          <Node pos="l" depth="2" NCoef="0" IVar="-1" Cut="0.0000000000000000e+00" cType="1" res="-1.0004796087741852e-02" rms="4.2067337036132812e-01" purity="4.5312222838401794e-01" nType="-99"/>
          <Node pos="r" depth="2" NCoef="0" IVar="-1" Cut="0.0000000000000000e+00" cType="1" res="2.2913001477718353e-02" rms="4.1578412055969238e-01" purity="6.0281008481979370e-01" nType="-99"/>
        </Node>
        <Node pos="r" depth="1" NCoef="0" IVar="1" Cut="9.2548085376620293e-03" cType="1" res="-2.2888046223670244e-03" rms="4.3329939246177673e-01" purity="4.9875274300575256e-01" nType="0">
          <Node pos="l" depth="2" NCoef="0" IVar="-1" Cut="0.0000000000000000e+00" cType="1" res="-3.0560221057385206e-03" rms="4.3385282158851624e-01" purity="4.8698988556861877e-01" nType="-99"/>
          <Node pos="r" depth="2" NCoef="0" IVar="-1" Cut="0.0000000000000000e+00" cType="1" res="1.0834103450179100e-02" rms="4.2799633741378784e-01" purity="5.5288666486740112e-01" nType="-99"/>
        </Node>
      </Node>
    </BinaryTree>
    <BinaryTree type="DecisionTree" boostWeight="1.0000000000000000e+00" itree="61">
      <Node pos="s" depth="0" NCoef="0" IVar="6" Cut="-9.5128588867187500e+02" cType="1" res="9.3445659149438143e-04" rms="4.2872312664985657e-01" purity="5.0018751621246338e-01" nType="0">
        <Node pos="l" depth="1" NCoef="0" IVar="5" Cut="-4.2898777127265930e-01" cType="1" res="-1.5282314270734787e-02" rms="4.0752798318862915e-01" purity="3.8807845115661621e-01" nType="0">
          <Node pos="l" depth="2" NCoef="0" IVar="-1" Cut="0.0000000000000000e+00" cType="1" res="-1.4388090930879116e-02" rms="3.7940818071365356e-01" purity="2.4295292794704437e-01" nType="-99"/>
          <Node pos="r" depth="2" NCoef="0" IVar="-1" Cut="0.0000000000000000e+00" cType="1" res="6.8100425414741039e-03" rms="4.3947204947471619e-01" purity="5.8584076166152954e-01" nType="-99"/>
        </Node>
        <Node pos="r" depth="1" NCoef="0" IVar="6" Cut="-1.5699528455734253e+00" cType="1" res="1.3681652955710888e-02" rms="4.4425961375236511e-01" purity="5.8831089735031128e-01" nType="0">
          <Node pos="l" depth="2" NCoef="0" IVar="-1" Cut="0.0000000000000000e+00" cType="1" res="-5.8798246085643768e-02" rms="4.0481045842170715e-01" purity="2.3768179118633270e-01" nType="-99"/>
          <Node pos="r" depth="2" NCoef="0" IVar="-1" Cut="0.0000000000000000e+00" cType="1" res="8.8372575119137764e-03" rms="4.4059458374977112e-01" purity="6.1982113122940063e-01" nType="-99"/>
        </Node>
      </Node>
    </BinaryTree>
    <BinaryTree type="DecisionTree" boostWeight="1.0000000000000000e+00" itree="62">
      <Node pos="s" depth="0" NCoef="0" IVar="5" Cut="3.3332324028015137e-01" cType="1" res="5.0499318167567253e-03" rms="4.2931091785430908e-01" purity="5.0695025920867920e-01" nType="0">
        <Node pos="l" depth="1" NCoef="0" IVar="6" Cut="-9.5128601074218750e+02" cType="1" res="1.3645432889461517e-02" rms="4.2304521799087524e-01" purity="5.2442091703414917e-01" nType="0">
          <Node pos="l" depth="2" NCoef="0" IVar="-1" Cut="0.0000000000000000e+00" cType="1" res="-3.1993519514799118e-03" rms="4.0140756964683533e-01" purity="3.7823164463043213e-01" nType="-99"/>
          <Node pos="r" depth="2" NCoef="0" IVar="-1" Cut="0.0000000000000000e+00" cType="1" res="9.2585040256381035e-03" rms="4.4223967194557190e-01" purity="6.7039996385574341e-01" nType="-99"/>
        </Node>
        <Node pos="r" depth="1" NCoef="0" IVar="9" Cut="4.4477587938308716e-01" cType="1" res="-1.7232201993465424e-02" rms="4.4436958432197571e-01" purity="4.6166110038757324e-01" nType="0">
          <Node pos="l" depth="2" NCoef="0" IVar="-1" Cut="0.0000000000000000e+00" cType="1" res="1.5591856790706515e-03" rms="4.6107673645019531e-01" purity="5.9406310319900513e-01" nType="-99"/>
          <Node pos="r" depth="2" NCoef="0" IVar="-1" Cut="0.0000000000000000e+00" cType="1" res="-1.1461001820862293e-02" rms="4.2335364222526550e-01" purity="3.1385970115661621e-01" nType="-99"/>
        </Node>
      </Node>
    </BinaryTree>
    <BinaryTree type="DecisionTree" boostWeight="1.0000000000000000e+00" itree="63">
      <Node pos="s" depth="0" NCoef="0" IVar="9" Cut="2.1417095661163330e+00" cType="1" res="-2.4061675649136305e-03" rms="4.3037334084510803e-01" purity="4.9989536404609680e-01" nType="0">
        <Node pos="l" depth="1" NCoef="0" IVar="10" Cut="-2.5693366527557373e+00" cType="1" res="3.8892828160896897e-04" rms="4.4033700227737427e-01" purity="5.3390681743621826e-01" nType="0">
          <Node pos="l" depth="2" NCoef="0" IVar="-1" Cut="0.0000000000000000e+00" cType="1" res="-2.1610613912343979e-03" rms="4.4833567738533020e-01" purity="6.4934796094894409e-01" nType="-99"/>
          <Node pos="r" depth="2" NCoef="0" IVar="-1" Cut="0.0000000000000000e+00" cType="1" res="4.1034980677068233e-03" rms="4.2626079916954041e-01" purity="3.4190022945404053e-01" nType="-99"/>
        </Node>
        <Node pos="r" depth="1" NCoef="0" IVar="-1" Cut="0.0000000000000000e+00" cType="1" res="-1.5962131321430206e-02" rms="2.8508546948432922e-01" purity="9.7036808729171753e-02" nType="-99"/>
      </Node>
    </BinaryTree>
    <BinaryTree type="DecisionTree" boostWeight="1.0000000000000000e+00" itree="64">
      <Node pos="s" depth="0" NCoef="0" IVar="2" Cut="1.4257068932056427e-01" cType="1" res="-1.5800109831616282e-03" rms="4.2851501703262329e-01" purity="4.9852219223976135e-01" nType="0">
        <Node pos="l" depth="1" NCoef="0" IVar="9" Cut="-1.5679745674133301e+00" cType="1" res="1.2600561603903770e-03" rms="4.2780494689941406e-01" purity="5.0242274999618530e-01" nType="0">
          <Node pos="l" depth="2" NCoef="0" IVar="-1" Cut="0.0000000000000000e+00" cType="1" res="-1.4975426718592644e-02" rms="3.9397144317626953e-01" purity="4.7458976507186890e-01" nType="-99"/>
          <Node pos="r" depth="2" NCoef="0" IVar="-1" Cut="0.0000000000000000e+00" cType="1" res="1.2021537404507399e-03" rms="4.2957553267478943e-01" purity="5.0414043664932251e-01" nType="-99"/>
        </Node>
        <Node pos="r" depth="1" NCoef="0" IVar="-1" Cut="0.0000000000000000e+00" cType="1" res="-1.8192550167441368e-02" rms="4.3991053104400635e-01" purity="4.0221750736236572e-01" nType="-99"/>
      </Node>
    </BinaryTree>
    <BinaryTree type="DecisionTree" boostWeight="1.0000000000000000e+00" itree="65">
      <Node pos="s" depth="0" NCoef="0" IVar="9" Cut="1.5697641372680664e+00" cType="1" res="1.7865168047137558e-04" rms="4.3060266971588135e-01" purity="5.0388610363006592e-01" nType="0">
        <Node pos="l" depth="1" NCoef="0" IVar="10" Cut="-2.5587232112884521e+00" cType="1" res="4.7924332320690155e-03" rms="4.4245278835296631e-01" purity="5.6188035011291504e-01" nType="0">
          <Node pos="l" depth="2" NCoef="0" IVar="-1" Cut="0.0000000000000000e+00" cType="1" res="-1.5178869944065809e-03" rms="4.4749537110328674e-01" purity="6.5468287467956543e-01" nType="-99"/>
          <Node pos="r" depth="2" NCoef="0" IVar="-1" Cut="0.0000000000000000e+00" cType="1" res="7.1612624451518059e-03" rms="4.3081432580947876e-01" purity="3.6782997846603394e-01" nType="-99"/>
        </Node>
        <Node pos="r" depth="1" NCoef="0" IVar="5" Cut="-4.7631140798330307e-02" cType="1" res="-2.5044865906238556e-02" rms="3.5791832208633423e-01" purity="1.8683180212974548e-01" nType="0">
          <Node pos="l" depth="2" NCoef="0" IVar="-1" Cut="0.0000000000000000e+00" cType="1" res="-3.2867060508579016e-03" rms="3.5426393151283264e-01" purity="1.9342483580112457e-01" nType="-99"/>
          <Node pos="r" depth="2" NCoef="0" IVar="-1" Cut="0.0000000000000000e+00" cType="1" res="-1.3304156251251698e-02" rms="3.6098718643188477e-01" purity="1.7993973195552826e-01" nType="-99"/>
        </Node>
      </Node>
    </BinaryTree>
    <BinaryTree type="DecisionTree" boostWeight="1.0000000000000000e+00" itree="66">
      <Node pos="s" depth="0" NCoef="0" IVar="1" Cut="-1.1924447491765022e-02" cType="1" res="1.2928487267345190e-03" rms="4.3025866150856018e-01" purity="5.0248301029205322e-01" nType="0">
        <Node pos="l" depth="1" NCoef="0" IVar="1" Cut="-3.3511146903038025e-02" cType="1" res="5.4864659905433655e-02" rms="4.1468918323516846e-01" purity="5.6269472837448120e-01" nType="0">
